
//<![CDATA[

// a few things don't have var in front of them - they update already existing variables the game needs
lanesSide = 3;
patchesAhead = 10;
patchesBehind = 5;
trainIterations = 10000;

var num_inputs = (lanesSide * 2 + 1) * (patchesAhead + patchesBehind);
var num_actions = 5;
var temporal_window = 6;
var network_size = num_inputs * temporal_window + num_actions * temporal_window + num_inputs;

var layer_defs = [];
layer_defs.push({
    type: 'input',
    out_sx: 1,
    out_sy: 1,
    out_depth: network_size
});
layer_defs.push({
    type:'conv', 
    sx:3, 
    filters:8, 
    stride:1, 
    pad:2, 
    activation:'relu'});
layer_defs.push({
    type:'conv', 
    sx:3, 
    filters:4, 
    stride:1, 
    pad:2, 
    activation:'relu'});
layer_defs.push({
    type: 'fc',
    num_neurons: 20,
    activation: 'relu'
});
layer_defs.push({
    type: 'fc',
    num_neurons: 5,
    activation: 'relu'
});
layer_defs.push({
    type: 'regression',
    num_neurons: num_actions
});

var tdtrainer_options = {
    learning_rate: 0.001,
    momentum: 0.01,
    batch_size: 64,
    l2_decay: 0.01
};

var opt = {};
opt.temporal_window = temporal_window;
opt.experience_size = 3000;
opt.start_learn_threshold = 500;
opt.gamma = 0.7;
opt.learning_steps_total = 10000;
opt.learning_steps_burnin = 1000;
opt.epsilon_min = 0.01;
opt.epsilon_test_time = 0.0;
opt.layer_defs = layer_defs;
opt.tdtrainer_options = tdtrainer_options;

brain = new deepqlearn.Brain(num_inputs, num_actions, opt);

learn = function (state, lastReward) {
    brain.backward(lastReward);
    var action = brain.forward(state);

    draw_net();
    draw_stats();

    return action;
}

//]]>
    
/*###########*/
if (brain) {
brain.value_net.fromJSON({"layers":[{"out_depth":765,"out_sx":1,"out_sy":1,"layer_type":"input"},{"sx":3,"sy":3,"stride":1,"in_depth":765,"out_depth":8,"out_sx":3,"out_sy":3,"layer_type":"conv","l1_decay_mul":0,"l2_decay_mul":1,"pad":2,"filters":[{"sx":3,"sy":3,"depth":765,"w":{"0":0.0033238444706730707,"1":-0.023458044344430724,"2":-0.006010097963562211,"3":0.00013534089187838537,"4":-0.010298191475985137,"5":0.016543750385591933,"6":0.01154292715716765,"7":0.0031532479170399844,"8":0.0032832296486757324,"9":0.0045572505817009275,"10":0.026812699970573405,"11":-0.017035063694441886,"12":0.023040919145827055,"13":0.002237183389039528,"14":0.011612608017253468,"15":0.002929925263649186,"16":0.0033034989046478447,"17":0.019884007298948656,"18":0.0011428000179348635,"19":-0.0005894597381625868,"20":0.006384553763719368,"21":-0.004477630498960321,"22":-0.006357562307139404,"23":0.013060034489063545,"24":0.006854029696963893,"25":0.01575146887860876,"26":0.01944941900130876,"27":0.0005510288657332022,"28":-0.020318093353851867,"29":0.029497465398045198,"30":0.005351375485142955,"31":0.021718479674112404,"32":-0.027142980793307545,"33":-0.0030569137631348926,"34":-0.0004371709042425208,"35":-0.006755563120547275,"36":-0.005641832894251489,"37":0.014486647879507588,"38":0.028113371171959473,"39":0.022826367191831037,"40":-0.008641636495643222,"41":-0.019525052630915998,"42":0.006395217960363104,"43":0.006267420475851405,"44":0.0011971031743688277,"45":0.004409998741535605,"46":-0.005067932325503687,"47":0.009528722756572489,"48":-0.003876519674562839,"49":0.011272454908588327,"50":-0.01406527751273259,"51":-0.014002423779046383,"52":-0.002361200114271629,"53":0.0025024949104861397,"54":0.003109651024066194,"55":-0.0005706179593305708,"56":-0.0035404154773263402,"57":0.008035572322433399,"58":0.024343667694195728,"59":0.006693521759912779,"60":-0.01917973835655705,"61":-0.002490003212349512,"62":-0.00517919019687996,"63":-0.008561077441124726,"64":0.006953643050592405,"65":-0.008216399677879885,"66":-0.01635244824443089,"67":0.0043567318673056864,"68":0.00877872858435976,"69":0.0001415968689325976,"70":-0.00969444764818562,"71":0.007375354231861693,"72":0.01078097616494848,"73":0.06248130001304901,"74":-0.027353674437897324,"75":-0.012429235229050975,"76":-0.03993144495944389,"77":0.0012506354268480707,"78":-0.011572874817576687,"79":0.0049728104206071145,"80":0.10255341275138252,"81":0.021589179561932167,"82":0.015016665930808578,"83":-0.00903252729075907,"84":-0.006460938864395433,"85":0.007025984041548321,"86":0.009934226231475267,"87":0.0868398975209922,"88":0.004299087835425477,"89":0.014655787990149242,"90":-0.0049364366928899995,"91":-0.01468051572101809,"92":-0.001522253997082632,"93":0.0033794820479181166,"94":0.05696246995794418,"95":0.0029080857405818852,"96":-0.002730881523700154,"97":0.00013404803449183094,"98":0.007719265315975842,"99":-0.002632385545679505,"100":0.0016466425210655937,"101":-0.00022169108496726818,"102":0.009773592209004924,"103":-0.004659398414566298,"104":0.005668117864247235,"105":0.005805408898645297,"106":0.01359695196525496,"107":-0.006279211238111751,"108":0.00824768946544324,"109":-0.021318629549622884,"110":-0.004904973384599606,"111":0.005619247983376495,"112":-0.02362057097703577,"113":0.014052764153463524,"114":0.024697106734753987,"115":-0.0003383214126831326,"116":0.03058279491711996,"117":0.015232570957029271,"118":0.012999127941544612,"119":0.002948582839181034,"120":-0.007859184228662898,"121":-0.022162992998881262,"122":0.011482810718941765,"123":0.007589887662868333,"124":0.0076932610419123085,"125":0.006653542971495433,"126":-0.007627298429345478,"127":0.0017802096365223555,"128":0.022745777513110476,"129":0.022696747296619118,"130":-0.0038972194535442455,"131":0.00014487231631870232,"132":0.01441051102370747,"133":0.003409448854821253,"134":-0.005219747366559201,"135":0.01567856888412608,"136":0.0338549433278347,"137":0.012232409298140958,"138":-0.007154601232226852,"139":-0.01049791284989827,"140":-0.0017624352384409256,"141":0.011042481041525136,"142":-0.0015694690037070668,"143":0.025612723635389086,"144":-0.016750436403396067,"145":0.01642568948094565,"146":-0.0180740547331641,"147":-0.014334270760063718,"148":0.011343892247469206,"149":0.0029953804603401733,"150":-0.0075488574507396895,"151":-0.012784322484652945,"152":0.02984192825750505,"153":-0.003991462868067875,"154":0.011287234437616606,"155":0.0005302173319578377,"156":0.007688902861562823,"157":-0.006897762279540351,"158":0.01880903477268271,"159":-0.0034219229504534113,"160":0.028671083394827223,"161":0.002936225366434777,"162":-0.0022922545693377988,"163":-0.0033105615987314547,"164":-0.014970067362187596,"165":0.010385336825045638,"166":-0.017364972047686632,"167":-0.005218450458027285,"168":0.0008515749699772817,"169":-0.010920425865054753,"170":0.0005938877965733104,"171":0.002814087406608096,"172":0.006167479675571431,"173":-0.0017969426735122043,"174":0.007069503343370782,"175":-0.0006785106885110858,"176":0.005817494013900377,"177":0.01181406633593275,"178":0.044430293288537134,"179":-0.003119543145465176,"180":-0.0037866861390457025,"181":-0.012356465658687601,"182":-0.003903053132448834,"183":-0.0014235482083443747,"184":-0.0059768910568091735,"185":0.051012157096946,"186":0.006320608682088096,"187":0.00009154305523695976,"188":-0.01938552293337729,"189":0.005769059942352786,"190":-0.0015822620685802804,"191":0.024678770676790404,"192":0.05205687515437424,"193":-0.036534200266268906,"194":0.007954952998295392,"195":-0.0008253662371451864,"196":0.004677200509591474,"197":0.0006414750357657573,"198":-0.009471448919595078,"199":0.06147377393222239,"200":-0.008557382491127448,"201":0.009164673045624882,"202":0.010291157469694102,"203":0.011398145833662365,"204":0.009771431197944576,"205":-0.014184279274674092,"206":-0.027683577318236632,"207":-0.01677876665413931,"208":0.004167852162274058,"209":0.021443874808855182,"210":0.014137031334995302,"211":-0.03887924895686224,"212":0.02100703264026359,"213":0.01716245217341042,"214":-0.03682435591557708,"215":0.00177894269548313,"216":-0.010290539501176818,"217":-0.013700998765974505,"218":-0.002639453875568149,"219":0.005005017442790809,"220":-0.0012101873944016116,"221":0.0006656696958526494,"222":0.02393875754606432,"223":-0.017201923008263658,"224":0.012486024220321022,"225":0.02599831881480982,"226":-0.009333056764372535,"227":-0.018171324335822844,"228":0.012330360349766045,"229":-0.030672995265845004,"230":0.0045688073752219675,"231":0.008081952165921355,"232":0.0029208809744361666,"233":-0.005113237347052843,"234":0.005178892485803629,"235":-0.004487959266644537,"236":0.0057119220483843585,"237":-0.007194701776558482,"238":0.013874012280419484,"239":-0.002482388606518772,"240":0.000680421299386785,"241":-0.012009130239164143,"242":0.0007931117674908868,"243":0.01266457585646563,"244":-0.0012939087406124154,"245":0.008545576257080122,"246":0.001218279330876492,"247":0.008302681950208416,"248":0.004006697787528006,"249":-0.006532231486611684,"250":-0.020969594074645888,"251":0.009403765236498787,"252":-0.004192869707292578,"253":0.001094526301687238,"254":0.0037507386778986847,"255":0.007725097158891364,"256":-0.0008704679521725131,"257":-0.038399467443889786,"258":-0.014007904807056527,"259":0.016376359314630475,"260":0.013281805476135916,"261":0.014447644420086054,"262":0.007934983757938953,"263":0.020138842692744807,"264":0.003116191153393767,"265":0.004191073361689443,"266":-0.013707175975493537,"267":0.01929582332722468,"268":0.014363811147843672,"269":0.0004946692824926583,"270":-0.0075458714471410395,"271":0.0016480402398678605,"272":-0.0033212710232355933,"273":-0.003550536671166566,"274":0.0031675062216878764,"275":0.014756747129925503,"276":-0.03636604925564274,"277":0.010798774752657274,"278":-0.007958721475912907,"279":0.004417598757886612,"280":0.000409802072376483,"281":-0.0058435396845998855,"282":0.0005681168055511917,"283":-0.016582126745518747,"284":0.0060549270673050035,"285":-0.0060542080716273336,"286":0.0072458243230625755,"287":-0.00697676999159741,"288":0.020279548687348676,"289":-0.004297906431420734,"290":-0.005696750754745869,"291":0.01030151909332492,"292":-0.005274999787125898,"293":-0.005384614581523425,"294":0.01223425696331862,"295":0.018798613604860768,"296":-0.0010546536425706987,"297":0.00504749756241877,"298":-0.005329899364366133,"299":-0.004753278002785392,"300":0.002892085656438635,"301":0.0017005260296635036,"302":0.025009495079499386,"303":0.0001667735019567724,"304":-0.0035640130357941363,"305":-0.003730910788755105,"306":0.012220972157596134,"307":-0.010596390321170514,"308":0.007261433105463887,"309":0.011466809401863525,"310":0.010668685280071383,"311":0.02594519061490102,"312":0.02737787157341349,"313":0.009239706230318685,"314":-0.0027898903432618753,"315":0.013734977229817185,"316":0.018180456920640173,"317":0.009150915239017468,"318":-0.00128162373032784,"319":0.009149536426497327,"320":0.002860584213708034,"321":-0.040127240407058375,"322":-0.012148443300022044,"323":0.044065097749522136,"324":-0.028635379098617127,"325":0.005586303362293936,"326":-0.0031492969600253854,"327":0.014374120819809755,"328":0.0041919829630699705,"329":-0.002656064974096586,"330":-0.0021065971411963224,"331":-0.0017703251582236806,"332":0.008304395415393368,"333":-0.008154561168240527,"334":-0.01290543312124059,"335":-0.0025028836229137553,"336":-0.007663087850836878,"337":-0.009587015091933748,"338":-0.006278702306333904,"339":-0.01551217862409661,"340":-0.0008996181100492051,"341":0.006352006504657933,"342":-0.017864677707048617,"343":0.024156807539762674,"344":-0.0037498134944764145,"345":-0.03185954846798285,"346":-0.0037410699027964076,"347":-0.03426465139865907,"348":-0.022349277585198248,"349":0.010288078421220792,"350":-0.007647657122768363,"351":0.004102879297226484,"352":-0.009161131872168726,"353":0.016970656894407337,"354":0.003719251646745189,"355":0.006869906930574638,"356":0.004974015373849855,"357":-0.0044865678316995386,"358":-0.0055524766535666415,"359":-0.0032589408119153727,"360":-0.0015352440815483096,"361":0.006133283196485576,"362":-0.02142709039729601,"363":0.011307797443704958,"364":0.0026732707475258387,"365":0.026086156823429442,"366":-0.030513920571070986,"367":0.01868695929926224,"368":0.002456870316465317,"369":0.023315122561963015,"370":0.0010623514362309054,"371":0.0030605562038885322,"372":0.01381928623335654,"373":0.003944029384123429,"374":-0.003383780271429659,"375":0.004031927660829782,"376":-0.00644346822954075,"377":-0.009803381578233992,"378":-0.0019836304519617355,"379":0.005469198535336667,"380":-0.0025843623379429117,"381":-0.0005451625413136162,"382":0.020872824974292527,"383":0.013861665921002101,"384":0.003916978599781355,"385":0.005731597358765453,"386":-0.0014935128470989969,"387":-0.009592723455182198,"388":-0.004311917125960518,"389":0.001517933105163965,"390":0.001123464937204793,"391":-0.0018817960599155001,"392":0.003963341547235721,"393":0.01708500783306872,"394":-0.018309369606622185,"395":0.024787331596755776,"396":0.008126888767143169,"397":0.005886720460115638,"398":-0.002754132175954446,"399":0.004015648820942099,"400":-0.013796136761679382,"401":0.02107130699868876,"402":0.001988623607307882,"403":0.012238017813116907,"404":0.025403823519440233,"405":0.03733594883699741,"406":0.028656024859357993,"407":-0.008430547921895383,"408":0.012240387363873829,"409":-0.003954479100000227,"410":-0.026156182372406807,"411":-0.0003041403359233633,"412":0.0203963387524019,"413":0.006629011936721093,"414":0.0007335527273181144,"415":0.0015717650261224386,"416":-0.005830436046073382,"417":0.010235886505643357,"418":0.007072051418710898,"419":0.03329082871241259,"420":0.01159098271301626,"421":-0.005800367394022369,"422":-0.015076791055658165,"423":-0.007066452981964146,"424":-0.002974957409813494,"425":0.014195409998404485,"426":-0.00014395830780526968,"427":0.0008495371506940001,"428":0.014882146008078802,"429":0.026090676459865795,"430":0.006472478798683675,"431":-0.09589081531357403,"432":0.07074096695595006,"433":0.018492873807533616,"434":0.007490609155762007,"435":-0.0059364168407609625,"436":-0.012901960250308745,"437":-0.0033454208510433603,"438":-0.0034273977861619897,"439":-0.023256596832357628,"440":0.0247032757748725,"441":-0.011526925487153896,"442":-0.012753830838399632,"443":0.015240601570225814,"444":0.026407905749082042,"445":0.0027654298351317947,"446":0.008549749015198909,"447":0.007297737953829382,"448":-0.011933981526112091,"449":0.007197387948065442,"450":-0.0012351544236545475,"451":-0.025193579891711462,"452":-0.0120041669529446,"453":0.034238160123571615,"454":0.0313380017240627,"455":0.0020216296517763578,"456":-0.01259491774363176,"457":0.008056277266106936,"458":0.005348019459670505,"459":0.00773730664855537,"460":0.03430032934632454,"461":0.010794190542065516,"462":0.018533530635693553,"463":-0.009669936520820661,"464":-0.00974130899181917,"465":-0.01484763795731531,"466":0.0030299817283701057,"467":0.020999624293517268,"468":0.00949804093800037,"469":0.022335299599809014,"470":0.023181680100702356,"471":0.026804083044832068,"472":0.0033947168887137574,"473":-0.021399356032760178,"474":-0.009783638418585537,"475":0.006469205618779469,"476":-0.009710785764687119,"477":-0.008448097471738742,"478":-0.006252733913679416,"479":0.020251576333657904,"480":-0.012116610505384097,"481":0.011324310929919562,"482":0.005344112952810739,"483":-0.010571410143669911,"484":-0.005488865648018522,"485":0.005563620685503891,"486":0.01622513382453842,"487":-0.001466770018541143,"488":0.014170418537970998,"489":0.02484737852662481,"490":-0.016119034835835447,"491":0.014768956126982856,"492":0.012063644336450484,"493":0.02202825450719272,"494":0.006506286010889831,"495":0.006217787296107609,"496":0.00370343691715338,"497":0.0005652291520580497,"498":0.01699454294813707,"499":0.009688728846067982,"500":0.00174861044137892,"501":-0.0027631767755239988,"502":0.002835483888747052,"503":0.0009750114752920023,"504":-0.008169016901957342,"505":-0.005501876769526021,"506":0.015402369730483343,"507":0.014518171543092236,"508":0.02679990343666427,"509":-0.002969702204558629,"510":0.018512967554569913,"511":-0.0073842800546186855,"512":0.0006577749158434041,"513":0.004041666071994409,"514":-0.008128594253913853,"515":-0.009761895784137196,"516":-0.007322085470142701,"517":-0.01264814977973004,"518":0.008231707206632114,"519":-0.004267039967519164,"520":-0.023658704997047173,"521":-0.019069713496559126,"522":0.013924008099471863,"523":0.0010417437441774045,"524":-0.011152161015538186,"525":-0.009837059452181713,"526":-0.0030448866522533777,"527":-0.0048469099754677725,"528":0.00757519274795071,"529":0.010475585465301576,"530":-0.00931750626624783,"531":0.00967900899188621,"532":-0.0018758807160731295,"533":0.0037464496837122776,"534":-0.000605950541029137,"535":0.01950804597770654,"536":-0.022147138395731965,"537":-0.014817864540379172,"538":0.003986496873993629,"539":-0.003281931564313119,"540":0.015346506050508498,"541":0.04096144920000765,"542":-0.022401422968130025,"543":-0.004271520411138775,"544":-0.011234350078321232,"545":-0.005904695225852677,"546":0.01481840390729176,"547":-0.007896039634929054,"548":-0.008320005280393979,"549":-0.012433081775273318,"550":-0.0045759894735448135,"551":-0.013011281847773323,"552":-0.006912478878805972,"553":-0.008289607534648274,"554":-0.003060048289288078,"555":0.00495209794218254,"556":0.027953877877573873,"557":0.026872802677353678,"558":0.019688246327751808,"559":-0.0014946643041792579,"560":0.01581483223494209,"561":-0.016020312472349193,"562":-0.017064873590851647,"563":-0.006411430660863917,"564":-0.010401627970545122,"565":0.0010105861043311756,"566":0.01029598773437003,"567":-0.014778701598201162,"568":-0.0004269023101474482,"569":-0.02101730365499393,"570":0.003502316454136471,"571":0.006942683740244569,"572":0.0007705005133267903,"573":-0.01178210724099549,"574":-0.007094112188207211,"575":-0.002559796516018887,"576":0.004696806719256141,"577":-0.014108776833242768,"578":0.010344675127251636,"579":-0.007701449717414556,"580":0.006871336368888941,"581":0.0032516965389104454,"582":0.0027560645519516757,"583":0.0035389941247651576,"584":-0.001096686114024486,"585":0.004175154438215224,"586":-0.014323815043583776,"587":0.01093807862117196,"588":-0.0026880308874270386,"589":0.004415037976628382,"590":-0.006296317661122642,"591":0.001340558418479619,"592":0.002011804338865804,"593":0.006628764665195455,"594":-0.0021185136598724243,"595":0.027485062801378846,"596":0.009059975604920735,"597":-0.002274481765446537,"598":-0.0016866649703328217,"599":-0.0031909528929345327,"600":0.005001247576390636,"601":-0.01301263605941962,"602":-0.011789061758394151,"603":0.016020970229741877,"604":-0.02192374629350378,"605":0.0014509794350038357,"606":0.0008252610752236125,"607":-0.029499877658692362,"608":-0.004579917198750397,"609":-0.01580161947889093,"610":0.01684105682337939,"611":-0.008711507549414643,"612":-0.014846031585539422,"613":0.006502609918497572,"614":0.00019000319118734788,"615":-0.017714271876839112,"616":-0.010797091391020587,"617":0.01231147962958426,"618":0.014586090824920047,"619":-0.000337755661187103,"620":0.009462803844198255,"621":0.008888354129972152,"622":-0.0054157953236470425,"623":-0.008929230991135424,"624":0.015251212473718315,"625":0.011239685550382718,"626":0.003145109867383102,"627":-0.019894101991908514,"628":0.0063129309572118935,"629":0.01913378651286365,"630":-0.00844219869746489,"631":0.0033002260248260126,"632":0.022113026692684667,"633":-0.004736304089644164,"634":0.01725175757900929,"635":0.020551218314345428,"636":0.037357079180851134,"637":0.008659477110737166,"638":0.015336079924095171,"639":0.019153169404534914,"640":-0.0070429017298261,"641":0.012038327394732002,"642":-0.0038539547738314296,"643":0.002967080429709645,"644":0.01561797166623894,"645":0.006830146044088316,"646":0.008278539233320817,"647":-0.011040675412946958,"648":-0.012897665247605999,"649":-0.002703315607174911,"650":-0.0017776307028253742,"651":-0.005953872858129824,"652":-0.020298688448266745,"653":0.041587596303960084,"654":-0.05275240292400542,"655":-0.0020021246053365505,"656":0.011443671684007953,"657":0.020799293417984366,"658":-0.0045658740698768345,"659":0.00023915916759043132,"660":0.006887982807321647,"661":-0.022799815512516634,"662":0.008822157422244313,"663":0.0012521078933031777,"664":-0.020832878200454888,"665":0.024468578470022644,"666":-0.007752001566267621,"667":0.007074917132405434,"668":0.008733224340856455,"669":-0.01809360131592864,"670":-0.008592916008764807,"671":0.004881827017972166,"672":-0.008889963891324805,"673":-0.008967940772764211,"674":-0.02816869033781157,"675":0.002728993964815293,"676":-0.00012473234830047512,"677":0.010909265169784658,"678":0.003930187094941154,"679":-0.0003498652313842771,"680":0.012401155575733815,"681":-0.018236301935044514,"682":0.007130156310591452,"683":-0.004054189306690358,"684":-0.014150052612011963,"685":-0.013551457415133002,"686":-0.001208547537180207,"687":0.019933292867864685,"688":0.017548063481525728,"689":0.00601605016756417,"690":-0.016507876739525664,"691":-0.012700415998099162,"692":-0.004368858435679559,"693":-0.00298194984339985,"694":-0.009791202956961535,"695":0.00591822288068831,"696":0.005857928364145821,"697":-0.0172727335172475,"698":-0.01325350500692594,"699":0.018833801811408566,"700":0.011960722101631046,"701":0.02502568047303826,"702":-0.01888510744347182,"703":-0.019405852668324924,"704":-0.01804123364744664,"705":0.0022626181820292195,"706":-0.0027330642513200927,"707":0.031126663669295916,"708":-0.005674370954466004,"709":0.0001552869290075726,"710":0.010434640434347721,"711":-0.019668644997089094,"712":0.005057732302788945,"713":0.00009377145776480712,"714":-0.007691354757428203,"715":0.015087381112880119,"716":-0.01142152850815784,"717":-0.0006316754240627522,"718":0.01651095939261772,"719":-0.008880005648259649,"720":0.004692030026668158,"721":0.01925303819190489,"722":0.005980994538033729,"723":0.006355895992857517,"724":-0.019973240091544053,"725":-0.007337736207038632,"726":-0.003092424895077654,"727":-0.010626084089293759,"728":-0.02837663744115028,"729":-0.00031582415672696314,"730":-0.02192974205812112,"731":0.007264407741202443,"732":0.00804620200845658,"733":-0.005712884118163639,"734":0.021025769257011655,"735":0.0028754306169018473,"736":-0.019315817078935836,"737":0.0112147267678835,"738":-0.003894649631210478,"739":-0.012595542606710832,"740":-0.01204659063941312,"741":0.006385940605301445,"742":-0.0046585087644298966,"743":0.01106945643685793,"744":0.0051769521375499596,"745":0.004431327025700161,"746":-0.011364719738591643,"747":-0.0016089318294006897,"748":-0.025030606609811,"749":0.005964925985611475,"750":-0.008398698994978058,"751":-0.005258096835672161,"752":0.0013704848802336626,"753":0.013407863186259698,"754":-0.020080254787026557,"755":-0.003402937201174742,"756":0.013172916464531505,"757":-0.0017102775613775,"758":-0.014198044119727905,"759":-0.010084285477281687,"760":0.028812326976388917,"761":-0.027845374465510806,"762":0.0024794514013074197,"763":-0.018159227419610836,"764":-0.025507986388575876,"765":0.009364859675061211,"766":0.012107968536855664,"767":0.014740862998182475,"768":0.0006698018694110546,"769":0.014391922551156395,"770":0.028835663087437572,"771":0.02213454313379578,"772":-0.009192243441562059,"773":-0.0076184117948438195,"774":0.009666345718140998,"775":-0.011365115765644165,"776":0.01769828994526607,"777":0.01605686507449824,"778":-0.008392951393248353,"779":-0.009164956021568211,"780":-0.008319737893981653,"781":0.014904798392860118,"782":-0.007478934931978891,"783":0.015272131122126009,"784":0.030083858373406255,"785":-0.00010233681429068205,"786":-0.02126892417004921,"787":0.010280416569902334,"788":0.006596643030784917,"789":0.009816823961598537,"790":-0.000932781376434832,"791":-0.0012685991416386524,"792":0.008950577285815236,"793":-0.007975028568466914,"794":0.0006800642158582474,"795":0.0038860265291968143,"796":-0.005868239718393407,"797":-0.00999119204672733,"798":-0.0033397459123205844,"799":0.017838936172760902,"800":0.01803596357959233,"801":-0.010916813771912585,"802":-0.0010297357441354821,"803":0.0029580746363595477,"804":-0.001896206937910246,"805":-0.004371945838908793,"806":-0.0029486199469320558,"807":-0.021295858291790138,"808":-0.009556533689279022,"809":-0.01659615156818001,"810":-0.00542805616343828,"811":-0.006467754446825915,"812":0.012830715583977423,"813":0.035846422151012115,"814":-0.01489025816796845,"815":-0.01750213043615775,"816":0.008770309079309965,"817":-0.014652271135812016,"818":0.011657828581948956,"819":-0.006501133364356611,"820":0.016343950154968628,"821":-0.0037124993152216576,"822":-0.001927717253140119,"823":-0.009881831051646982,"824":-0.005698257408831937,"825":-0.00312281041002386,"826":0.0340252356575505,"827":0.008564840570846891,"828":0.0002205802340919699,"829":-0.009838003999694244,"830":-0.0120977981663231,"831":-0.022571182974559865,"832":0.000037976394800947255,"833":0.0023361674505973933,"834":0.005872332096119769,"835":-0.015121935685961051,"836":-0.006772384928610194,"837":0.013275580497675972,"838":0.02857369486516541,"839":0.012867758073637409,"840":0.01839543750642032,"841":0.0029484092421765812,"842":-0.004775915764540755,"843":0.022218643922407598,"844":-0.004727626736060983,"845":0.04336132192956657,"846":0.004787276438132716,"847":0.02624776141952761,"848":-0.010074951996045743,"849":0.005447934823938406,"850":-0.01983796168908021,"851":0.0005868175743034319,"852":0.03104315657608293,"853":-0.001088995447778811,"854":0.015072090787203143,"855":0.008725225176556118,"856":-0.023298336245358417,"857":-0.0006846244255563432,"858":0.015267211765580007,"859":0.03755000403156122,"860":-0.01550479152660751,"861":-0.018897786611428394,"862":0.0024038570648311154,"863":-0.0041591063179455354,"864":0.0017140842611206894,"865":-0.028537760240398422,"866":-0.006426941309734814,"867":0.018613051304722725,"868":-0.010491868374012418,"869":-0.0047855019520987386,"870":-0.015202976268843402,"871":0.003792206056361427,"872":-0.011077295945710452,"873":-0.010457323892644822,"874":0.006911196338490798,"875":-0.020755726651829027,"876":0.004784744628827318,"877":0.0040524576882168305,"878":-0.0017772848862692688,"879":0.006278005458774213,"880":0.007904733656363428,"881":0.003973476202451683,"882":0.005676695771015338,"883":0.003068061269220083,"884":-0.0005942085816339055,"885":0.006512360548919378,"886":-0.002273896771737856,"887":0.002130280590825792,"888":0.004566638462787115,"889":-0.018054410482572437,"890":0.0007031931670719441,"891":0.007012056909969604,"892":-0.020764183572640094,"893":-0.006406106940358283,"894":0.007385354739953378,"895":-0.022138993458971492,"896":0.020912633873414577,"897":0.013278966737526909,"898":0.004386391177863018,"899":-0.006164883678111881,"900":-0.02140064852609263,"901":-0.0073007672957884255,"902":-0.0005658526042685346,"903":0.013705195343102045,"904":-0.005855677268855736,"905":-0.008820153152958888,"906":-0.002034320309668768,"907":-0.009540108821191004,"908":0.003222581489526472,"909":-0.004247665636985552,"910":-0.009110249887249887,"911":0.028884400291660634,"912":-0.02212383949613494,"913":-0.008469252529364748,"914":0.01545687702355394,"915":0.0017051646782472241,"916":0.005606109915689582,"917":0.009022313937709761,"918":-0.0061882609802229645,"919":-0.003917356448344977,"920":0.012754400989597334,"921":0.011434392175042147,"922":-0.005310245402277566,"923":-0.005104128335957623,"924":0.01487507364496077,"925":-0.0013541196949158323,"926":0.012026134783335278,"927":-0.015629684170239494,"928":0.015083467625908202,"929":-0.0033405573355379603,"930":-0.010006024904770257,"931":0.011510066875868866,"932":0.006567209323426153,"933":-0.026637940986309158,"934":-0.008858810539094803,"935":0.012017425833256287,"936":-0.009156184245616357,"937":0.015703551511033188,"938":-0.012361772740403188,"939":0.01514422179762286,"940":-0.01802952865098571,"941":-0.014892439464883696,"942":0.020739687165208947,"943":0.023843117934751544,"944":-0.00038155902686074096,"945":0.007119112678195694,"946":0.0037785614249699795,"947":0.008815960607463723,"948":-0.022877732156574654,"949":0.01791740329505945,"950":0.012334146226860472,"951":0.010974514008138612,"952":0.01761855343838301,"953":-0.02671073971456313,"954":-0.002182224412005329,"955":-0.016178896521438585,"956":-0.019965316660515924,"957":0.013616881065993777,"958":0.0012921946521362504,"959":0.005188762317020334,"960":-0.0022475315940024823,"961":-0.023370434705143644,"962":-0.016111032794880263,"963":0.004044355403715083,"964":0.014850867194799606,"965":0.015219934083906218,"966":0.00894183176061621,"967":0.0053178777953990855,"968":0.00317513411233389,"969":0.012795366066748517,"970":-0.007570445795011661,"971":0.012873466014168914,"972":0.010191198815979102,"973":0.0033837569464072697,"974":0.0027672128476356854,"975":-0.0017800064564418294,"976":0.021250569402927424,"977":0.017105293939754296,"978":-0.03340874764180726,"979":0.010360692674809508,"980":0.012134017702342575,"981":0.003571981956895281,"982":-0.008724531372010702,"983":-0.0014839275658774349,"984":0.018941758891837805,"985":-0.00008810326081795592,"986":0.004679137858758305,"987":0.00694110316373296,"988":0.0009633532100594489,"989":-0.010912949961336267,"990":-0.017046742323395467,"991":-0.005834262159183199,"992":0.0038105053678570864,"993":-0.00019938723652735408,"994":-0.013448952706242672,"995":-0.02504177625590398,"996":0.0029340390800906206,"997":0.00608188466910924,"998":0.02563991902029852,"999":0.014523755567319632,"1000":0.014781249158219385,"1001":-0.01339792884413264,"1002":-0.014047021808076907,"1003":0.0005332635447715901,"1004":-0.013458647018878236,"1005":0.025085223939247257,"1006":-0.001014597484024454,"1007":-0.020007920897304743,"1008":0.005022414851160292,"1009":-0.012154443114278766,"1010":-0.0034222663264572334,"1011":-0.00473345240255194,"1012":0.0007748025314255748,"1013":0.018661521633083235,"1014":-0.022691239107378348,"1015":0.010903308258271693,"1016":-0.021165406283403798,"1017":0.0008667053826832878,"1018":0.0112943265821785,"1019":0.005202951315139784,"1020":0.045655487257929575,"1021":0.002948694081916446,"1022":-0.012768983964166038,"1023":-0.02057412784797175,"1024":-0.008878862161026572,"1025":-0.0014233277822088093,"1026":0.018434381799207613,"1027":0.004834622004104751,"1028":-0.019522249010644914,"1029":0.0010356493189498687,"1030":0.00329955968010131,"1031":0.010541729249764343,"1032":0.01300046072635089,"1033":-0.00814635722563982,"1034":-0.014569465766897861,"1035":0.021127514568105077,"1036":-0.005985115539280685,"1037":-0.013073944830412956,"1038":0.005690012933399577,"1039":0.007699077296738557,"1040":0.02127199780834102,"1041":0.0036732973941228713,"1042":0.011261151933509126,"1043":0.0066948618732775205,"1044":-0.018506479198207207,"1045":-0.010009425729420544,"1046":0.012142557469367295,"1047":0.0128957927623135,"1048":0.03468864690790853,"1049":0.0003115205421185061,"1050":0.004589597656044708,"1051":-0.018051050179497333,"1052":-0.00955349589491316,"1053":-0.01786230695144012,"1054":0.023996889990782404,"1055":0.0007696444428595545,"1056":0.018324514321355623,"1057":-0.007629204407171714,"1058":-0.002972296929923114,"1059":0.018112565885574673,"1060":0.015370624790003059,"1061":0.001090983936973669,"1062":0.011040765659464512,"1063":0.010033495374455484,"1064":-0.014098234397430165,"1065":-0.046082298991029946,"1066":-0.003286777368700911,"1067":0.018704879784132263,"1068":-0.002987898100538171,"1069":0.027385862444151886,"1070":-0.018182896545122403,"1071":-0.005396888245144861,"1072":0.014032483306886208,"1073":-0.004087768889204159,"1074":0.002379907724071745,"1075":0.008931060178851074,"1076":0.009344265476645982,"1077":-0.01024667785698538,"1078":-0.016990783987395036,"1079":-0.01275938993713862,"1080":-0.01035804183636369,"1081":-0.0030503128873285877,"1082":0.001931936283071919,"1083":0.006438083022543738,"1084":0.00795072171717675,"1085":0.006932231385056894,"1086":0.01553450288616161,"1087":-0.06638914250384954,"1088":-0.00823903133191681,"1089":0.05026654610342901,"1090":-0.015477627265556603,"1091":0.008028738262091321,"1092":0.001521723412822494,"1093":-0.0035432850247000217,"1094":0.003939077510383936,"1095":-0.011714772659844117,"1096":-0.022298472196067128,"1097":-0.003978458991157564,"1098":0.018263816643522734,"1099":-0.025865184483678652,"1100":-0.012540500360510866,"1101":-0.009807019702783162,"1102":0.016161623355676252,"1103":-0.00008176866181560577,"1104":-0.012401120584936422,"1105":-0.007594293796426656,"1106":-0.003379741741645122,"1107":-0.008668377002945815,"1108":-0.012746549125816863,"1109":-0.014802166927492868,"1110":0.008532453262477842,"1111":-0.010219124982206477,"1112":-0.002320690461084814,"1113":-0.004252789524865904,"1114":0.017079378709465045,"1115":0.010932204023036022,"1116":-0.011352873986906905,"1117":-0.006436463593315224,"1118":-0.01094630656101575,"1119":-0.019162143544857457,"1120":-0.02988351122772543,"1121":-0.014022913009069736,"1122":0.0002623183289924868,"1123":0.0030411345291342187,"1124":0.007128598946583761,"1125":0.004279772167263664,"1126":0.008929557491633353,"1127":0.002296840721474082,"1128":-0.012553188310130801,"1129":-0.013349883945595001,"1130":0.01764152396407547,"1131":-0.013072241040352855,"1132":-0.005697420800243581,"1133":-0.004039067574007791,"1134":0.00014965403185791747,"1135":-0.0020972184650938715,"1136":0.024131034330713775,"1137":-0.009062282699884313,"1138":-0.015020727706822666,"1139":0.0036096855752656407,"1140":-0.01681657507436568,"1141":0.01908479652344236,"1142":-0.001580381256099942,"1143":0.0006720754437603869,"1144":0.029201676205653324,"1145":0.016700120881127226,"1146":-0.0002513023049934278,"1147":-0.002262748361810445,"1148":-0.008087796575828868,"1149":0.008267977520008844,"1150":0.005924031782044594,"1151":-0.02423065144052236,"1152":-0.007854147012606755,"1153":-0.007536669072657898,"1154":0.0049459884767711826,"1155":-0.005618609237064437,"1156":-0.011775427905791763,"1157":0.012645684841451897,"1158":0.008970356438740975,"1159":0.000470087382577084,"1160":0.013949109560124502,"1161":-0.005276687673200536,"1162":-0.006001268740914592,"1163":-0.00744026473282042,"1164":0.011507500856480387,"1165":0.004245194425436992,"1166":0.014159635424509544,"1167":0.021920156064419185,"1168":0.0021641031158257705,"1169":-0.016247581548322374,"1170":-0.0020162436046935097,"1171":0.0011108086544884402,"1172":0.014281260475338965,"1173":0.0007988866881251485,"1174":-0.007294598590195604,"1175":-0.015423053927514883,"1176":0.009791937432469417,"1177":-0.00695838607011728,"1178":-0.0012693414123093106,"1179":-0.003281476142298447,"1180":-0.008623239634036835,"1181":0.007583644578670357,"1182":-0.02060298281846172,"1183":0.0033873676318828295,"1184":0.011921658435733437,"1185":0.0004964534735992408,"1186":-0.004646357842544184,"1187":-0.000869289899900023,"1188":0.014658014105278654,"1189":0.000009979637171737124,"1190":0.0068393879896646356,"1191":-0.006970664169905561,"1192":-0.008646028242650292,"1193":0.0073468591054783455,"1194":0.003263637009418435,"1195":0.018888245567832484,"1196":0.017485598372488226,"1197":-0.008368320658751423,"1198":0.023292049060423706,"1199":-0.05102207428498715,"1200":0.004434716405537611,"1201":-0.010095541118923624,"1202":-0.012026049558302533,"1203":0.015424885750483334,"1204":-0.0019092518818877983,"1205":-0.004886435036480311,"1206":0.015158472524914772,"1207":0.0020084145332156245,"1208":0.0008979886144673513,"1209":-0.004670650058348206,"1210":-0.01268731185239462,"1211":0.001785411920306321,"1212":0.012523380890946413,"1213":-0.006042489903582525,"1214":0.005801878335180719,"1215":0.0006489013911259517,"1216":0.03253144742781698,"1217":0.0067843056442910745,"1218":0.005858977268853649,"1219":0.02217345488607479,"1220":-0.005312625537853491,"1221":-0.005596403583932122,"1222":0.007215240417512774,"1223":0.0012286015522992124,"1224":-0.004838731565848741,"1225":0.013041645561584542,"1226":0.0011755966382235947,"1227":-0.014425518686695274,"1228":-0.009608138611537666,"1229":-0.0047597677243065885,"1230":-0.02426572429629154,"1231":-0.016858186693940132,"1232":0.02776591685300539,"1233":0.018379042775164695,"1234":0.016441768221150597,"1235":0.01652859756112646,"1236":0.027541367137711964,"1237":0.00446210616311284,"1238":0.01999779289059957,"1239":0.010240335258213322,"1240":0.01523914433710015,"1241":0.00022881752439901304,"1242":-0.03309104369343224,"1243":-0.008898832972772613,"1244":-0.00253762285197221,"1245":-0.008394506874799,"1246":0.006342051089881292,"1247":-0.0008824970328167139,"1248":0.019290591781599208,"1249":-0.0077848995608991245,"1250":-0.03155681133052085,"1251":-0.0044754241600448285,"1252":-0.007096531660306583,"1253":-0.010753305679180944,"1254":-0.009240822140927493,"1255":0.012218405977152354,"1256":0.017120862472418216,"1257":-0.011333068353913128,"1258":0.002531938698607255,"1259":0.027206259418904668,"1260":0.0013433102284489352,"1261":0.006544015662059508,"1262":-0.006696886875564041,"1263":-0.003502232795409111,"1264":0.009690106578448402,"1265":0.0009019704476995054,"1266":-0.02095355190359207,"1267":-0.011336392254137108,"1268":-0.0024132545703512993,"1269":0.009374714798655958,"1270":0.006194556211856413,"1271":-0.004690185239433214,"1272":-0.020841718658515373,"1273":0.025243929780624556,"1274":-0.032270366190319665,"1275":-0.011061954205495538,"1276":-0.02707083772764737,"1277":-0.017055096521561154,"1278":-0.00002173093880489359,"1279":-0.023520397964372195,"1280":-0.01741337724400765,"1281":0.026462635835281384,"1282":0.016238905840337367,"1283":0.0008667888218389581,"1284":0.013465333986897787,"1285":-0.019889638489846907,"1286":0.0035144726700346734,"1287":0.0006470552795626624,"1288":-0.02498771440017746,"1289":-0.0005422847109416121,"1290":0.0035455685075046366,"1291":0.018304376578959374,"1292":-0.01686633322076902,"1293":0.0057166138811804825,"1294":0.015225179463299435,"1295":0.013774228740352022,"1296":0.023866209281886583,"1297":0.009127629774691155,"1298":-0.01999059963047011,"1299":-0.007938588792616797,"1300":-0.02019395988640903,"1301":0.010010812105685715,"1302":0.013234511743439108,"1303":-0.017971534568495432,"1304":-0.007766412142784252,"1305":-0.044401876459054045,"1306":-0.029172280923167388,"1307":0.026943420090042698,"1308":0.012378036486785477,"1309":0.045507248734452034,"1310":0.02979448574267555,"1311":-0.0028351354069764403,"1312":-0.005683534848411031,"1313":-0.018142598466510673,"1314":0.0217915967542421,"1315":-0.0012539959229459516,"1316":-0.006830143191758383,"1317":-0.01605327499061465,"1318":-0.009039636825129304,"1319":-0.0019333694206364416,"1320":-0.007944741351698184,"1321":-0.013859312377729938,"1322":0.003391199084248512,"1323":-0.004933563914396686,"1324":0.013522331507534065,"1325":-0.009800492766483473,"1326":0.018900944440554103,"1327":-0.013227531612867214,"1328":0.017733639241578836,"1329":-0.0023001928761485265,"1330":0.0003958621416445295,"1331":-0.02093603120675625,"1332":0.005203450091631968,"1333":0.008449496665922776,"1334":-0.0010455984166723522,"1335":0.006381582204500551,"1336":-0.0017882012740395403,"1337":0.011024319298024733,"1338":-0.014729826434788892,"1339":0.004492695207234017,"1340":-0.011611509935512182,"1341":-0.00189198375299522,"1342":0.015658565501816792,"1343":-0.0038781565613188614,"1344":0.0025948659451495316,"1345":0.014788804967211968,"1346":0.016129983639429125,"1347":0.025671154842028573,"1348":0.00957117030833894,"1349":0.02819675696214631,"1350":0.007771973128855978,"1351":-0.0035665911616333456,"1352":0.011087385393724674,"1353":-0.02841449076025617,"1354":0.00721652498753858,"1355":0.0048319532746533425,"1356":-0.004095790162015655,"1357":0.0010067889942590906,"1358":0.012352820174132507,"1359":0.010555824912230609,"1360":0.012439010305489844,"1361":0.0071828676418793065,"1362":-0.012394226597579775,"1363":-0.012936052543780083,"1364":0.012065250652107794,"1365":-0.003342800801787511,"1366":-0.014354510564191769,"1367":-0.01332905879409456,"1368":0.008264685230521337,"1369":-0.01824702174141997,"1370":0.019920076620495494,"1371":0.0209842502004812,"1372":-0.007969584873968458,"1373":-0.005908809799605696,"1374":-0.010735012646059998,"1375":0.012006382577925986,"1376":0.0016447708438771605,"1377":0.007993094064630054,"1378":0.0026756877086314525,"1379":0.010855675800706179,"1380":0.009200478364553738,"1381":-0.010139476042277367,"1382":0.021758620307380138,"1383":0.01793119401030382,"1384":-0.006793194919976285,"1385":0.016333191229680407,"1386":-0.006127156947349994,"1387":-0.007183786523775989,"1388":-0.004690425163366471,"1389":-0.026056258223177628,"1390":0.011253835676551324,"1391":-0.004825546650777038,"1392":0.01757770760550548,"1393":0.0018538628744823918,"1394":0.019617029042525762,"1395":0.011829795842229459,"1396":-0.0009575163940119703,"1397":-0.004743612261991023,"1398":-0.0005780017105204793,"1399":-0.01861645231553841,"1400":-0.006985633005964546,"1401":-0.0026979234324611733,"1402":0.0006139902984696762,"1403":-0.004860436914064235,"1404":0.009087705451667873,"1405":0.0053711751707289646,"1406":0.0067729048334504195,"1407":0.010945984270311446,"1408":0.006659329377066439,"1409":-0.009488144239794393,"1410":-0.008227393604690257,"1411":-0.002217072826965377,"1412":0.012994232955153555,"1413":0.0166952727089566,"1414":0.012515371169308486,"1415":0.019196342665661895,"1416":0.013323581253792504,"1417":0.03634846763799853,"1418":-0.02063057144093526,"1419":-0.03704973802020315,"1420":-0.010991754348756416,"1421":0.005731421023180342,"1422":0.008611982242491389,"1423":-0.0026028111067185485,"1424":-0.005457661659076361,"1425":0.012809737225677038,"1426":-0.002059601667117706,"1427":-0.001354776833974283,"1428":0.0021349511952211686,"1429":-0.01665613047151495,"1430":-0.009261299662208167,"1431":0.029023339166699687,"1432":-0.019443487227602776,"1433":0.019206848519863054,"1434":-0.0042773808910699426,"1435":0.0029554956105294567,"1436":-0.02185365417645097,"1437":-0.02062204599694886,"1438":-0.003103609043047319,"1439":-0.011122333182861835,"1440":-0.004978121073309496,"1441":0.00931195796084863,"1442":0.012628383928392798,"1443":-0.013078188269739548,"1444":-0.011610994620541104,"1445":0.008563708613137428,"1446":0.004109996210711701,"1447":0.015898980665884185,"1448":0.007763799608703024,"1449":-0.01487836006738903,"1450":0.005717659728400378,"1451":0.008141427789010584,"1452":0.0036659110341188223,"1453":0.019897142310188663,"1454":-0.006979762468375489,"1455":-0.014608715051627806,"1456":-0.007073320672081306,"1457":0.0334040085041167,"1458":-0.00949004038811508,"1459":-0.044708572453435014,"1460":0.0025462672541089006,"1461":-0.011921801430557634,"1462":0.0005747049109362637,"1463":-0.0012416693599101968,"1464":0.006822186592342214,"1465":-0.001610524315054698,"1466":0.009219422307289683,"1467":0.011979448877245188,"1468":-0.0012821498034628232,"1469":-0.009815026623785996,"1470":0.01991210068120865,"1471":0.0068437687485290045,"1472":0.00507773376577502,"1473":0.016953374238121873,"1474":-0.0010422939654652454,"1475":0.017605586450636965,"1476":0.023913416897801004,"1477":0.007519434807240857,"1478":-0.005286734469483506,"1479":0.023021345224275094,"1480":-0.028636904383365813,"1481":0.007422619201699686,"1482":-0.005261175564163569,"1483":0.008480188172730784,"1484":-0.0019210046327592773,"1485":-0.008179660630484382,"1486":-0.013458815096347542,"1487":0.015530333669236273,"1488":-0.009738826985009039,"1489":-0.012453439157323656,"1490":-0.0013143366330964064,"1491":-0.00011283790106505396,"1492":0.01673441671281757,"1493":-0.001437802457069466,"1494":0.0004818811577890065,"1495":0.0018111162851767778,"1496":0.011785400621017066,"1497":0.009931426669142696,"1498":0.02366553708552329,"1499":-0.015414863637745574,"1500":0.005953274750585772,"1501":0.025860317483592347,"1502":-0.0013694869199902295,"1503":0.009539445746202038,"1504":-0.0010028793707161311,"1505":0.009054496489466768,"1506":0.011231253070258032,"1507":-0.009104923994345381,"1508":-0.014859417455392128,"1509":0.014741845739949322,"1510":-0.014305387197294132,"1511":0.016118012636156802,"1512":-0.00574635922515167,"1513":0.02002889361740031,"1514":0.007251654587133067,"1515":0.011412597819180838,"1516":-0.0034445340355617454,"1517":0.01063441941083384,"1518":-0.0017059511106181518,"1519":0.014290018814753624,"1520":-0.023172205150791637,"1521":0.018529567940768325,"1522":0.006637472901831138,"1523":-0.0011475962167647074,"1524":0.00977066830891611,"1525":-0.06295751615604119,"1526":0.009510387911017125,"1527":0.048720857379572956,"1528":0.057544900586473706,"1529":-0.026311398132618152,"1530":-0.01569411922495181,"1531":0.003526672302923233,"1532":0.0008229196917019184,"1533":0.013093719712755634,"1534":-0.005311055170047682,"1535":0.019984132445659854,"1536":-0.02106467596411018,"1537":0.012371241387670274,"1538":-0.005826766786638959,"1539":-0.011380700462164151,"1540":-0.005278750638098344,"1541":0.007903750989412378,"1542":-0.005695434291477057,"1543":-0.009012746847378662,"1544":-0.007549216125771686,"1545":-0.000465156105446898,"1546":0.00513469960096627,"1547":0.018925663661176824,"1548":0.023386957053267304,"1549":0.0100660196327674,"1550":-0.0048155828393608175,"1551":0.011003024465468952,"1552":-0.01280433260259797,"1553":0.0018344472588027803,"1554":0.035449414951308586,"1555":0.00611881774891495,"1556":-0.01576820176003732,"1557":0.003565380410279087,"1558":0.003131713682494825,"1559":-0.013696984635147074,"1560":-0.005749574808258187,"1561":0.026462561456383357,"1562":-0.004733610739109496,"1563":-0.007787316048785615,"1564":0.0015876806705100994,"1565":0.0102707443978854,"1566":0.0038145626089825346,"1567":0.0005988858068157798,"1568":0.031940900967110886,"1569":-0.009906353062005423,"1570":-0.0169650992691996,"1571":0.009887058605065327,"1572":-0.0026493343351577936,"1573":-0.006605814454328539,"1574":0.000378897129780616,"1575":0.012482880102087503,"1576":0.012229210624986702,"1577":-0.002460631611543255,"1578":0.02875322022616534,"1579":0.012627108028658674,"1580":0.010850195191472395,"1581":0.020506599822307528,"1582":-0.01322618598835838,"1583":-0.0018668039768087853,"1584":-0.016991610629499145,"1585":0.011515105417013291,"1586":0.019847865558036804,"1587":-0.026910659746191935,"1588":0.00625984033369189,"1589":0.008227481297397417,"1590":-0.013623184775200208,"1591":0.021497149567982366,"1592":0.007012241050014094,"1593":0.015586578240813645,"1594":0.01579262682723558,"1595":0.007402037923502568,"1596":-0.019127211752481044,"1597":-0.004795385429165258,"1598":-0.009028474765097848,"1599":0.00020288520625836733,"1600":0.005475486778255717,"1601":-0.002000716064344416,"1602":0.01804592440812512,"1603":0.07291161648740903,"1604":0.008915514563319706,"1605":0.01810658954541076,"1606":0.008155136322679718,"1607":-0.007887738432456938,"1608":-0.0053794731152576394,"1609":-0.0116268309010996,"1610":0.06051972882003482,"1611":0.020947184171643533,"1612":-0.0034103922982845858,"1613":0.011633508676179787,"1614":-0.009858558133284782,"1615":0.00636466617106549,"1616":-0.002770786009123857,"1617":0.06447242082116937,"1618":0.013136706774614908,"1619":-0.01473322136532795,"1620":-0.015184822687880966,"1621":-0.023548250369528023,"1622":0.02085849807017186,"1623":-0.005942396316875954,"1624":0.07966654517292314,"1625":0.010421904100276052,"1626":0.006050042899349402,"1627":-0.0018795528757722918,"1628":-0.02832011760676844,"1629":-0.0005562592585635036,"1630":0.013204477559399581,"1631":-0.0026459424146617725,"1632":-0.014096260633860025,"1633":0.00939635002895,"1634":-0.015265186309968318,"1635":-0.016790534060834455,"1636":0.01944341868520181,"1637":0.0026659736598138983,"1638":0.022295417176382556,"1639":0.0030823664967698557,"1640":0.0070832884955574485,"1641":-0.00011557197333935797,"1642":0.0042607544760839295,"1643":0.0020680377067500938,"1644":0.016327043936660696,"1645":-0.0022176908074106124,"1646":0.00800302765401664,"1647":-0.00024895966804742807,"1648":0.004803789863845223,"1649":-0.005155286578408849,"1650":0.011167777737339466,"1651":0.006144014171810205,"1652":0.022999475760719756,"1653":0.017307694153074298,"1654":-0.0051997049240122975,"1655":-0.0192737014740942,"1656":0.00564733261679193,"1657":-0.002103948424438666,"1658":-0.014796044267113648,"1659":0.01219156077649482,"1660":-0.014358508745458288,"1661":-0.0013457653876893987,"1662":-0.005369648359065769,"1663":0.0006514902089299721,"1664":0.016739893250407308,"1665":-0.0033722144750001517,"1666":0.010533363608998042,"1667":0.014476467382565326,"1668":-0.0011066566068296821,"1669":-0.0027000479984077676,"1670":-0.006706016700100317,"1671":0.002670767043252407,"1672":0.0003062423178235883,"1673":0.021282204353618786,"1674":-0.004325783640986844,"1675":0.010765726620394999,"1676":-0.004674322538035783,"1677":-0.0007601983648674637,"1678":0.006163282961134766,"1679":0.012344352283771006,"1680":-0.0055257935919173235,"1681":0.03731248955740345,"1682":0.015315109890977998,"1683":0.014923532051388733,"1684":0.002180683518471836,"1685":-0.01995804704112321,"1686":0.011972879977852614,"1687":0.0030611660048743064,"1688":-0.018610654893591563,"1689":-0.002257802917420665,"1690":0.017125020463793446,"1691":-0.0210260333307714,"1692":0.01766471464516361,"1693":-0.007455310901415541,"1694":-0.01601196356832636,"1695":0.00726660081050756,"1696":-0.0067238750762308825,"1697":0.014146620996712857,"1698":-0.00016261307605719088,"1699":0.0023433782524145486,"1700":-0.0012517400969973601,"1701":0.013087973365766635,"1702":-0.0057062875936808016,"1703":0.03174769105441019,"1704":-0.007128699527176087,"1705":-0.0015173946850576745,"1706":0.001975724018262237,"1707":-0.0021084128220751693,"1708":0.015970440611711465,"1709":-0.006811884443159243,"1710":0.001103736972818754,"1711":0.004976201710889741,"1712":-0.00508984586038306,"1713":-0.010271403100262233,"1714":0.0033260722041104046,"1715":0.032945839470630324,"1716":0.002215513479812365,"1717":-0.009870424496793559,"1718":-0.0032563809868036333,"1719":-0.010491983751690642,"1720":0.009577123529502234,"1721":-0.0016232497311125926,"1722":0.02912127475817626,"1723":0.02286359208840075,"1724":-0.009170627588570915,"1725":-0.007137620522032194,"1726":-0.0017543366773008651,"1727":0.011340708559422232,"1728":-0.01374779718766595,"1729":0.04257198155068456,"1730":0.018706817101789997,"1731":0.0037576257206041494,"1732":0.009740855345812498,"1733":0.005675569816947261,"1734":-0.0018637541181452312,"1735":-0.000854851527224443,"1736":-0.028631985643950114,"1737":-0.002880221356589588,"1738":0.026847702195497626,"1739":-0.013175582472596299,"1740":0.035295822588251806,"1741":-0.018458976514376706,"1742":-0.033197198451882265,"1743":0.03829622475499353,"1744":0.00813004746906522,"1745":-0.02303868549213414,"1746":0.028043915013967666,"1747":0.032989419496415054,"1748":-0.013776664247046261,"1749":0.01308871300624778,"1750":0.009903168114810419,"1751":0.02815585562028215,"1752":0.005970470502563642,"1753":-0.01104875247480057,"1754":-0.026666759346622514,"1755":-0.012438074026953013,"1756":0.011711151034848254,"1757":0.029295525313669732,"1758":-0.0012716319087022494,"1759":0.0016713390535892493,"1760":-0.0009956760695508874,"1761":0.007363555601779308,"1762":0.011606350639318405,"1763":0.013914808995299337,"1764":-0.01061370362026887,"1765":0.002325851842168332,"1766":-0.021061280767611115,"1767":0.0035834014084800176,"1768":0.018644150176481706,"1769":-0.014693008563672462,"1770":-0.0027323365801061967,"1771":-0.013536290482074952,"1772":-0.002830691234341493,"1773":0.006828240430042968,"1774":0.03552062515151125,"1775":-0.0009008697331565642,"1776":-0.007591352734031306,"1777":0.001468587293500627,"1778":-0.011043694154476858,"1779":-0.006116694487703079,"1780":-0.00043716408547943427,"1781":0.0032421526634764048,"1782":0.011495874336879352,"1783":-0.00038171228424772343,"1784":-0.016192661364549377,"1785":0.007802363731019335,"1786":0.00022360013153849018,"1787":0.009291337264806016,"1788":-0.010140513103433797,"1789":-0.009531175518827113,"1790":-0.007922199663649732,"1791":0.0052237602777999315,"1792":-0.016942198895168924,"1793":-0.01487691762392468,"1794":-0.010241274774997634,"1795":-0.009830794285514267,"1796":0.002407263711013731,"1797":-0.007833687821312706,"1798":-0.005683080932876354,"1799":0.027107537591838773,"1800":-0.003216099548731722,"1801":-0.012542841139522793,"1802":0.012731359014938194,"1803":-0.0045167145468691305,"1804":-0.0034814053401189165,"1805":0.005606553650651384,"1806":-0.007231671711661914,"1807":-0.017526142387996324,"1808":-0.006573620522879214,"1809":0.01075601317466267,"1810":-0.01526176488978627,"1811":0.011213673816704767,"1812":-0.007199917312009831,"1813":0.021231834899537595,"1814":0.007169942747105635,"1815":0.019858713551886932,"1816":-0.008792395591434871,"1817":-0.010216392527333988,"1818":0.01831508872012716,"1819":0.0024906228047314387,"1820":-0.006392960186062744,"1821":-0.005021145068620472,"1822":-0.006848446719722777,"1823":0.009387199990486489,"1824":0.007050014933555528,"1825":0.028515216038211905,"1826":-0.013982555806624976,"1827":0.0011022916555494208,"1828":-0.010877147686271132,"1829":0.012141208410204843,"1830":-0.0054916178745433196,"1831":0.015862730292499894,"1832":0.03144045747690381,"1833":0.014945836637959477,"1834":0.01534904053662807,"1835":-0.020922088458365986,"1836":0.02623014649468095,"1837":0.0015122943777329796,"1838":0.013682139487438344,"1839":0.02098727082256399,"1840":0.020350323013140513,"1841":0.004832213445984142,"1842":0.012186555885933833,"1843":0.01220929055198094,"1844":-0.01260679210038323,"1845":-0.01736054364522664,"1846":-0.022604330918364612,"1847":-0.005386085767794191,"1848":0.008066520536559159,"1849":0.00024463174580445236,"1850":-0.016843689568568482,"1851":0.05175973375590559,"1852":-0.007788923118110839,"1853":0.001280823305195853,"1854":0.0036967988783399366,"1855":0.015591809715187546,"1856":0.014253148893379848,"1857":-0.008315025701364687,"1858":0.006428072392416971,"1859":-0.006171966548788248,"1860":0.014796885304589509,"1861":0.0020113108732896117,"1862":0.02008307551118546,"1863":-0.019195185197259955,"1864":-0.01731369084807977,"1865":0.0030613636543024673,"1866":-0.006900913773059734,"1867":-0.0013006013845515306,"1868":0.006415977462903194,"1869":0.0033989472134173192,"1870":-0.005658290470442304,"1871":-0.003334394384955209,"1872":0.00946065241691682,"1873":-0.006666515527712793,"1874":-0.007418179419709199,"1875":0.019960083595955653,"1876":0.022070793270835838,"1877":-0.02133859132293798,"1878":0.006061655483782232,"1879":-0.011263908449056411,"1880":-0.014126704977695826,"1881":0.008785336606006111,"1882":0.015482506156012642,"1883":0.00955285835219269,"1884":-0.006729437700488595,"1885":-0.007269848910045431,"1886":-0.015398475924744689,"1887":-0.0019004349117318572,"1888":-0.014349360320281406,"1889":0.0027788557474001693,"1890":0.0059706493684561265,"1891":0.009764963232161463,"1892":-0.004320036554125447,"1893":0.017061304831006385,"1894":-0.02015144813803112,"1895":-0.001275935516607614,"1896":0.009178748532151506,"1897":0.010838083739277363,"1898":-0.0037190813248057088,"1899":-0.004567666718145045,"1900":-0.002304525899084787,"1901":0.0037648099882803873,"1902":-0.014174850210045825,"1903":-0.0011905165515231366,"1904":0.0007856693027983847,"1905":0.00419813521708928,"1906":0.0037849635147304433,"1907":-0.005153852545454418,"1908":0.01006076366198156,"1909":0.0028874313444576176,"1910":0.008125054630047406,"1911":0.0019198473045739474,"1912":0.005816546709221472,"1913":-0.027356449550600282,"1914":-0.013833721144422887,"1915":0.03316670168785563,"1916":-0.004642148374510319,"1917":-0.008009207265114521,"1918":0.008420682638242576,"1919":-0.0036949598983899963,"1920":-0.0018350130912388168,"1921":-0.009669112613620127,"1922":-0.002850193611662626,"1923":-0.017628621309946673,"1924":-0.0019311160956614832,"1925":0.023303522700789985,"1926":-0.003941501903333909,"1927":-0.008528250135453833,"1928":0.004744503765002219,"1929":0.009623161480975116,"1930":0.024837494097013264,"1931":0.008425675458314432,"1932":0.001772026591109763,"1933":0.0015152499581830904,"1934":-0.005223465760205335,"1935":0.01222413188091265,"1936":0.010831820187359752,"1937":0.000899765413393334,"1938":0.000025573462494381226,"1939":-0.0031706659316127145,"1940":-0.0017103098836826584,"1941":-0.00396527234287186,"1942":0.0015182430742696528,"1943":-0.012417225848816202,"1944":-0.006234563954827432,"1945":-0.008708812016992532,"1946":0.004680038814731923,"1947":0.0024529808705671436,"1948":0.0372669302058671,"1949":-0.00604862766553896,"1950":0.01886337493982189,"1951":0.01133296797100645,"1952":0.0009686738350876571,"1953":0.012009412790854677,"1954":0.03256849378663393,"1955":-0.009461192104502395,"1956":-0.00473726973219496,"1957":0.014015352296203225,"1958":0.0012334609645423393,"1959":0.007664366472553482,"1960":0.02875107423222359,"1961":-0.04112316276020114,"1962":0.028788066329068506,"1963":0.034279774671166864,"1964":-0.034890184373679536,"1965":0.0122134887732022,"1966":0.00595871287429792,"1967":-0.004839941904745913,"1968":0.0008114348192682892,"1969":0.007407478104126978,"1970":0.005126217683496598,"1971":0.012035770055016493,"1972":0.007065084069429428,"1973":0.030356034925257184,"1974":-0.0026256775653308554,"1975":-0.024269607492827312,"1976":0.020881560852815697,"1977":0.01430705545588691,"1978":-0.006305845316041736,"1979":0.005809624702231863,"1980":-0.01118865491355583,"1981":0.005310282570026736,"1982":0.0022803841984118923,"1983":-0.011586721918684446,"1984":0.006357243978771287,"1985":-0.022874930379859246,"1986":0.0006631171231279026,"1987":-0.013659029185114925,"1988":0.031369950807318456,"1989":-0.001027989105921921,"1990":-0.013199595542745463,"1991":0.0013267728414321205,"1992":-0.013884839196502118,"1993":-0.011862479405927146,"1994":0.005079269825382536,"1995":-0.009285476221515883,"1996":0.009869114478473382,"1997":0.005769244663377059,"1998":-0.0006181776250105478,"1999":0.021730226189770413,"2000":0.004846300152602109,"2001":-0.01842516514474664,"2002":0.009419253484256125,"2003":-0.007412970587209796,"2004":0.004573755320794649,"2005":-0.004551201122532806,"2006":-0.0007181869629074155,"2007":-0.008486095893344559,"2008":-0.022776803405635683,"2009":0.005155350326269497,"2010":0.0006731262611258918,"2011":-0.0033068859857332375,"2012":-0.01623883205165654,"2013":-0.012610669482179879,"2014":-0.004413965533737829,"2015":0.01310209031263416,"2016":-0.01185864999331116,"2017":-0.007949735624008102,"2018":0.004269751187261724,"2019":0.00691562726558493,"2020":0.0009852307231026345,"2021":0.01694199705044039,"2022":0.006416439933347354,"2023":0.001997824562266316,"2024":-0.014799423104428406,"2025":-0.009323273955300256,"2026":-0.007668711244292046,"2027":-0.02126498203453649,"2028":-0.004434904886988253,"2029":-0.0038665038873322735,"2030":-0.006916619401755828,"2031":-0.011184974816694985,"2032":0.0025252162774122206,"2033":0.010503392840469193,"2034":0.005971544584065985,"2035":-0.0075585755674241785,"2036":-0.002591007041524077,"2037":0.04565680066018837,"2038":-0.0025670838847726093,"2039":-0.011560170476424528,"2040":0.007197254038784564,"2041":0.003988708881737695,"2042":0.014005159382130167,"2043":0.00499962719097457,"2044":-0.0023167742853940185,"2045":0.007237915612972938,"2046":-0.012187829627762983,"2047":0.0006599148921925365,"2048":-0.020768328619711007,"2049":-0.01113612730307455,"2050":0.00983009609228467,"2051":-0.014982902764429358,"2052":-0.012239776484178082,"2053":0.01523428327680483,"2054":-0.0005369945512083719,"2055":0.005513349286753488,"2056":0.01454774810658892,"2057":0.005407859259911179,"2058":0.012027024456224156,"2059":-0.017285959817295648,"2060":0.01395208043967711,"2061":-0.011489112723078062,"2062":-0.008980568813356628,"2063":0.008993347893120139,"2064":-0.024289493383141746,"2065":-0.02688046991992888,"2066":-0.008341095612638566,"2067":0.003115151051997018,"2068":0.0035265919973696655,"2069":0.023238484253641657,"2070":0.01074839030502064,"2071":-0.012561012536003956,"2072":0.007854339814509115,"2073":0.015718520601528254,"2074":-0.04726172307061306,"2075":0.013689069541793062,"2076":0.01734995992609037,"2077":0.003797322270393564,"2078":0.004592271364256631,"2079":0.012994951288544112,"2080":-0.002515121824782743,"2081":-0.007049336405399639,"2082":0.01666050245299879,"2083":-0.00973464301349767,"2084":-0.01919926533982348,"2085":0.00980028850193033,"2086":-0.01843787600604663,"2087":0.015816386078336186,"2088":0.018150073863943326,"2089":-0.0004221178614546467,"2090":-0.0030191225145869472,"2091":0.0034467951504730016,"2092":0.010555823089557522,"2093":-0.006808139207427085,"2094":0.008821000433841817,"2095":0.003691588327562472,"2096":-0.010741760903807438,"2097":-0.020578078824374582,"2098":-0.01816404586962255,"2099":-0.00040117155174922684,"2100":0.008765183218559725,"2101":0.003591104282340999,"2102":-0.016372273722497506,"2103":-0.021296144142912032,"2104":0.01620886487018711,"2105":-0.010057672139946494,"2106":0.01291578362700356,"2107":-0.03610870968976377,"2108":-0.012580288038141856,"2109":0.010132408146089135,"2110":-0.013742269500586922,"2111":0.0005293841587372935,"2112":-0.00179040161797005,"2113":-0.006037650465437376,"2114":-0.009811527919226591,"2115":0.0027587320358988987,"2116":-0.007440792173585276,"2117":0.011970859074555867,"2118":0.011542907730938265,"2119":0.003216227580387389,"2120":0.004028840416193482,"2121":-0.00985915884438528,"2122":-0.013771334563012308,"2123":0.009996902149907798,"2124":-0.0024533877001308695,"2125":0.0013979891009779663,"2126":0.020890995915030765,"2127":0.01625492569436919,"2128":-0.030377019170890775,"2129":0.005121077835260645,"2130":0.0158615322917713,"2131":-0.006024312984824247,"2132":0.009678658473471732,"2133":0.012371545433796451,"2134":-0.005459260331317148,"2135":0.0017412800896254735,"2136":-0.015295502384065109,"2137":-0.0017660517323951246,"2138":0.017726842453197982,"2139":0.00033951632556529596,"2140":-0.018247764035990606,"2141":0.029561613971016042,"2142":0.00425683737337717,"2143":0.014237754456404603,"2144":-0.014914794037855169,"2145":0.006215218474244966,"2146":0.014196591824379799,"2147":-0.01642221975625978,"2148":-0.005184110836359822,"2149":-0.010427985372012161,"2150":-0.006508886172082557,"2151":0.005244066583955567,"2152":0.008603738301044838,"2153":-0.015493416813114669,"2154":0.013076052269287708,"2155":0.0016192566502907981,"2156":-0.0013585980389375935,"2157":0.0008909174339601519,"2158":0.0003918735846913239,"2159":0.006491162486635306,"2160":-0.002356491486331436,"2161":-0.0024487570100952113,"2162":-0.0008599413434865222,"2163":0.014599728865812548,"2164":-0.0018365925821671794,"2165":-0.019831109108279732,"2166":-0.010884143432149954,"2167":-0.008239612626265007,"2168":-0.026129857133961574,"2169":0.0008271138055926482,"2170":-0.0029626639957700705,"2171":0.013430960445221327,"2172":0.0022578747356189316,"2173":-0.014733015708678668,"2174":0.006750906101722439,"2175":0.007354656593077647,"2176":0.012805659695308707,"2177":-0.005356619094734711,"2178":0.00088080761949095,"2179":0.007720279867695652,"2180":-0.013801690789877693,"2181":-0.018158275010948115,"2182":0.041175583448003074,"2183":-0.018803409567993087,"2184":-0.014352535649827932,"2185":0.023998885857759535,"2186":0.01150524726880689,"2187":-0.014750582112761864,"2188":-0.02354496368959534,"2189":0.01102616983207143,"2190":0.011995533085045373,"2191":-0.0006680155042114084,"2192":0.010663657790735118,"2193":0.010021225199577,"2194":-0.01215354188431375,"2195":0.003687756646898454,"2196":-0.003348708751756223,"2197":0.020671845530600592,"2198":0.002724834312561661,"2199":0.011577899609819947,"2200":0.011250728356326282,"2201":-0.006591642508573974,"2202":0.00696852891120612,"2203":0.006312590547052326,"2204":0.005285541276932264,"2205":-0.0011093368988082228,"2206":-0.0017590308873263964,"2207":0.003497779877649664,"2208":-0.008694745445484474,"2209":0.018587106684066736,"2210":0.011920009390757482,"2211":-0.00662394073687393,"2212":-0.016288288397482184,"2213":-0.005625420841338913,"2214":0.006805605006096688,"2215":-0.0047798811357624435,"2216":0.006200460954069681,"2217":-0.006613138314142997,"2218":0.0042141994529071684,"2219":0.005163035854558094,"2220":0.015049331374571302,"2221":0.018851363557751872,"2222":0.004426310372278152,"2223":-0.0037979438775581024,"2224":-0.0040376055069460525,"2225":-0.019156460738964633,"2226":-0.00927814361313668,"2227":0.0010332171931295676,"2228":0.010363637778667195,"2229":0.014804433104557995,"2230":0.01066252488352506,"2231":-0.014206526580124739,"2232":0.004357904370637515,"2233":-0.0014344594281376361,"2234":0.014487597373554234,"2235":0.01087596858710322,"2236":-0.016709144693564083,"2237":0.002806218713263089,"2238":-0.015198927576749564,"2239":-0.010457370081108723,"2240":-0.003119095988163823,"2241":-0.001397532033969655,"2242":-0.019831496698789596,"2243":-0.008633430821735273,"2244":-0.008799707687546047,"2245":-0.014067540648050785,"2246":-0.022054010451943606,"2247":0.0035646548838946883,"2248":-0.014025645324535891,"2249":-0.037253232799018175,"2250":-0.014496131961884158,"2251":0.029526576644976876,"2252":0.0016910917018464256,"2253":0.005805525715785783,"2254":0.016886147347700664,"2255":-0.013034957554476824,"2256":-0.0018800180129273185,"2257":-0.0018459423426899469,"2258":-0.030473900014781685,"2259":-0.009780614225838006,"2260":-0.021457769984758228,"2261":0.00966115073864734,"2262":-0.004478831324032508,"2263":-0.0017725196707668507,"2264":-0.007505131555762761,"2265":-0.0038995395850258178,"2266":-0.009052812122407713,"2267":0.01821661404134638,"2268":-0.0008460713284944978,"2269":0.01778621382194842,"2270":0.010703485199787824,"2271":-0.0008742393608650194,"2272":0.007044999949333235,"2273":-0.03387256204856413,"2274":0.0024632193801231096,"2275":0.0022689819613947023,"2276":0.002193879616801533,"2277":0.0022820060746305596,"2278":0.0019566317106369346,"2279":-0.010433610332022782,"2280":-0.004515346818922646,"2281":0.00043216070071461964,"2282":0.004409554707742352,"2283":-0.0008394045707037795,"2284":-0.0015912073562681167,"2285":-0.0031205923177612146,"2286":0.01820925388209204,"2287":-0.016350350244781646,"2288":0.0061873601657652525,"2289":-0.01567034040016784,"2290":0.03138337474538124,"2291":0.01089099848142879,"2292":-0.010050484660991876,"2293":-0.06761414207692724,"2294":0.017706411648108922,"2295":-0.0047713178161585745,"2296":-0.00508427164187469,"2297":0.008203278933296775,"2298":0.007856647831419865,"2299":0.002999804854745168,"2300":-0.011347909856984488,"2301":-0.007181096242980117,"2302":-0.010121418059316857,"2303":0.005865534118481341,"2304":0.004922230904651564,"2305":0.005766686854483351,"2306":0.0058826893557186784,"2307":-0.010530883724407053,"2308":0.020833700499901932,"2309":0.0027389990052158865,"2310":-0.00015116094916428022,"2311":0.007416347190287338,"2312":0.0283374210227332,"2313":0.009105184581697396,"2314":0.012895991725022633,"2315":-0.009157584666620509,"2316":0.013080247844584572,"2317":0.01028053961421374,"2318":0.0005048595467813671,"2319":0.0030047005820909834,"2320":0.0013769620598558505,"2321":0.014558989249032024,"2322":-0.013527357141773012,"2323":-0.006629697116560937,"2324":0.013907889781677066,"2325":-0.017665049846412397,"2326":0.005438356766469867,"2327":0.005129447732713298,"2328":-0.016798248810478606,"2329":-0.01308184534758125,"2330":0.00712500825145623,"2331":0.0064068149138161185,"2332":-0.007350614194712165,"2333":0.016758995507843207,"2334":-0.007193828618112858,"2335":0.015167306401354285,"2336":-0.012695737906710644,"2337":0.008421468976088815,"2338":-0.008230711988461556,"2339":0.007496282961099467,"2340":-0.011095726909852156,"2341":0.005973351036396447,"2342":0.01191794628981594,"2343":-0.0027052151107136964,"2344":-0.010738583326019397,"2345":-0.004430990927597956,"2346":-0.010503128063329826,"2347":-0.005906794084832283,"2348":0.0007160371869846376,"2349":-0.0038163149090679905,"2350":0.007260351178304918,"2351":-0.014020222616926658,"2352":0.004445662903465708,"2353":0.024333447221345422,"2354":-0.0044350322590587365,"2355":0.01702627029246784,"2356":-0.015666544357264306,"2357":0.006485398517796247,"2358":0.01078490466720942,"2359":-0.029680108507533894,"2360":0.02866698389504214,"2361":0.013583927220311803,"2362":-0.0004916122631199154,"2363":0.004132387230083143,"2364":0.007811074869243594,"2365":-0.01155952581377567,"2366":0.011094777813283427,"2367":0.008053947607515861,"2368":-0.06438480714723782,"2369":0.00783259551320693,"2370":-0.00802555863734199,"2371":0.01288447724409484,"2372":-0.019147344804392778,"2373":0.006506359393147971,"2374":0.0085371958760983,"2375":-0.024759618415822117,"2376":0.02149994295383876,"2377":0.004373929016002538,"2378":-0.0007806612466648191,"2379":-0.0030572731785922405,"2380":0.005869863708427124,"2381":0.014337102225341104,"2382":-0.03421800796460234,"2383":-0.005062024074675463,"2384":0.004050439797202929,"2385":-0.030200789784782935,"2386":-0.0023558489923014357,"2387":-0.007055961757282702,"2388":0.0007748821479247794,"2389":-0.026281972909831936,"2390":-0.012153318005273757,"2391":0.005560126466224972,"2392":0.0006869939396122774,"2393":-0.010971030374999795,"2394":0.011911953002644277,"2395":-0.0006359409607420818,"2396":0.007660392471375046,"2397":-0.001522532506869031,"2398":0.002338180701731045,"2399":0.008730819718882414,"2400":0.018859286384044705,"2401":0.013058774824872391,"2402":0.007910777710113228,"2403":0.013994273960264855,"2404":0.012767610675460034,"2405":0.0028663870664109112,"2406":0.01035627153036011,"2407":-0.018011951265655916,"2408":0.027068169159898108,"2409":0.029962711677834555,"2410":0.005939986044455999,"2411":0.013870645994081977,"2412":0.01846105055364785,"2413":-0.0053642870958522685,"2414":-0.005497024118282303,"2415":-0.009175776617018416,"2416":0.004846929315167628,"2417":0.0036888954009275717,"2418":-0.001987719737785559,"2419":-0.011991024639149774,"2420":-0.011574498304114271,"2421":-0.0015610262878472602,"2422":0.0027895398504490096,"2423":0.012029280784292948,"2424":0.006232559141537221,"2425":-0.013396525497081063,"2426":0.016227914526380643,"2427":0.0013405968456078935,"2428":0.0062617633736056855,"2429":0.01194843936724545,"2430":-0.0160833091498409,"2431":0.015277343433475437,"2432":-0.015501747606379842,"2433":-0.004181531887874752,"2434":-0.0007638873746430984,"2435":0.0016420546456145377,"2436":-0.013445976005558715,"2437":0.01845453395094637,"2438":0.0010950576455186392,"2439":0.013340229503465603,"2440":-0.01319459456300691,"2441":-0.029399255643089876,"2442":-0.0006270502474378139,"2443":0.014077942935277962,"2444":0.00542926245412268,"2445":0.01234908970569294,"2446":-0.004067542551181158,"2447":0.01122193884927902,"2448":0.01699254718781584,"2449":0.018349947588767918,"2450":0.005250179298850015,"2451":-0.016077075430751986,"2452":0.008901330365462935,"2453":-0.010804262521641211,"2454":-0.013216989168182921,"2455":0.02638208045963979,"2456":0.0008300285929509647,"2457":-0.006418902185228818,"2458":-0.00020884674267945095,"2459":0.020255284469918217,"2460":0.006086019961433847,"2461":0.004967862333769874,"2462":0.009138073694610244,"2463":-0.011530691830037278,"2464":0.01333593086212003,"2465":-0.015842567358079346,"2466":0.00533915241501335,"2467":0.014482226726307647,"2468":0.013866556823229837,"2469":0.012560658533975692,"2470":0.00640390440000505,"2471":0.003130378427479544,"2472":-0.028133164108568896,"2473":-0.053436072102286424,"2474":0.017811087945207565,"2475":0.005220687248675062,"2476":-0.012096876838425091,"2477":-0.028327828847348198,"2478":0.02769224750715695,"2479":-0.013469741527230317,"2480":-0.03923764903495941,"2481":-0.00938859223178773,"2482":-0.005542160594039504,"2483":0.000024767426188554695,"2484":-0.0009026896337611684,"2485":-0.012677755406061217,"2486":-0.004894643752848178,"2487":-0.03884710153920474,"2488":-0.026281478392060867,"2489":0.0009276890020527367,"2490":-0.02707162708821217,"2491":-0.020534558612258537,"2492":0.002017728978342235,"2493":-0.0114758409872541,"2494":-0.03425223209320551,"2495":0.0024437478483567677,"2496":-0.013121150532023238,"2497":-0.000033526053746947936,"2498":-0.00036487410196340647,"2499":0.0039045515383868174,"2500":-0.006060882345235059,"2501":0.015495439596666539,"2502":-0.023562979606036014,"2503":0.01877676268851736,"2504":-0.017100381048638476,"2505":-0.029526485763109057,"2506":-0.032543591589885526,"2507":0.0340415548713804,"2508":0.0035854086236629928,"2509":-0.002114577786502412,"2510":0.017412153172380068,"2511":0.01420394691259096,"2512":0.011529242903442462,"2513":0.00408525369714935,"2514":-0.01564304520210432,"2515":-0.0028076021613619097,"2516":0.011630815741927205,"2517":-0.018312866252588513,"2518":-0.016061223570110122,"2519":0.007497121548530609,"2520":-0.003302521787155727,"2521":-0.01023336417227458,"2522":-0.00950638197525959,"2523":0.009339847694210403,"2524":0.001489152228780363,"2525":-0.03757444264044417,"2526":-0.01678366150612253,"2527":-0.0015748348413690862,"2528":0.00556531963142202,"2529":0.0015000702544956037,"2530":-0.0027071431631635686,"2531":0.02697401961552808,"2532":0.0002137514765067551,"2533":0.009602505371589912,"2534":0.018501196640792826,"2535":0.01425884449477167,"2536":0.004786620916284847,"2537":0.021305047186937525,"2538":0.0024888313480235205,"2539":0.013252863584981454,"2540":0.010603743574978116,"2541":0.0032434406873486934,"2542":-0.0010937059201353565,"2543":0.012020006697563248,"2544":0.00008999305103116006,"2545":-0.004364500242345893,"2546":0.020753600391287687,"2547":-0.0030004005155060704,"2548":-0.007499854190024419,"2549":-0.005351290332657298,"2550":-0.006145562242468428,"2551":0.0033774692174834637,"2552":-0.0021370453896843453,"2553":-0.007447037568110574,"2554":-0.006842492764574772,"2555":0.009428748297045594,"2556":0.008455513903181661,"2557":0.0006102343270388714,"2558":0.012411719631598008,"2559":-0.0028075500971028234,"2560":0.029820753639065063,"2561":-0.006744531328495149,"2562":-0.005835688049907587,"2563":-0.008194199198707617,"2564":0.023737023319007337,"2565":-0.014936715567870533,"2566":0.005447997885731431,"2567":-0.007256183969628042,"2568":-0.008188542752654411,"2569":-0.0010014017959941695,"2570":0.020646650736217943,"2571":-0.018324656308646853,"2572":-0.009174276011593896,"2573":0.003507034634688327,"2574":0.000022723307728585092,"2575":-0.005247426147539405,"2576":-0.019784698201075545,"2577":-0.007131416193156107,"2578":0.013829291753295732,"2579":-0.024647894047722597,"2580":0.012015440794620445,"2581":-0.009928145573762249,"2582":-0.006571091425999596,"2583":-0.016562107113059606,"2584":-0.0022127743005309615,"2585":-0.0008190844336776618,"2586":-0.013415228515593451,"2587":-0.018829170385170263,"2588":0.010047072860090683,"2589":-0.00011904587676011585,"2590":-0.007683907371916439,"2591":0.0032483319530833784,"2592":-0.006866051542548107,"2593":-0.014826440945598077,"2594":-0.021061900040326677,"2595":-0.009162289199428355,"2596":0.006468143935054273,"2597":-0.014548198658539731,"2598":0.004426047570835203,"2599":0.006948117356648915,"2600":-0.0028740853891561307,"2601":0.0038029340978050466,"2602":0.0011556208187575951,"2603":-0.021415581189998128,"2604":-0.022571514019705717,"2605":0.011038256155696374,"2606":-0.009836923417376551,"2607":0.009537550549644488,"2608":0.014695380315414454,"2609":0.0096938015829494,"2610":-0.018962183468190924,"2611":-0.006562956373508396,"2612":0.009223651020723487,"2613":0.010512773977817273,"2614":0.005323742319255561,"2615":0.06116296635375681,"2616":-0.03912298469168282,"2617":-0.017093448875318613,"2618":-0.013565062658396146,"2619":-0.0020815437897168773,"2620":-0.012318957617848741,"2621":-0.015051518071499619,"2622":0.014677120034837171,"2623":0.006987667151245222,"2624":-0.0002290400613312229,"2625":-0.017452087712698187,"2626":-0.005269750640028447,"2627":0.0024845940880080506,"2628":0.0035827548618732634,"2629":-0.017498297561150532,"2630":-0.009979566661045143,"2631":-0.0004185417695144774,"2632":0.0006935742060015916,"2633":0.013417570669538234,"2634":-0.006273260847980373,"2635":0.015658588486604445,"2636":-0.00703115880965414,"2637":-0.015284047969961733,"2638":-0.019456853917431627,"2639":-0.014026517381938353,"2640":-0.015448379353115656,"2641":0.004665588852886428,"2642":-0.006547637489375588,"2643":-0.008959276849454882,"2644":0.014980332163247555,"2645":0.0016516664166043198,"2646":0.027464823047485012,"2647":-0.005200292792829966,"2648":0.0010828209647009532,"2649":-0.011119327169565372,"2650":0.017883082701753535,"2651":-0.0027496480073842733,"2652":-0.001204142797291044,"2653":-0.003270789784999388,"2654":-0.004271967856411418,"2655":0.0005457778253919021,"2656":-0.004261955714634318,"2657":-0.014663384977664841,"2658":-0.0024877180205908392,"2659":0.014249430527666817,"2660":0.006544674522855967,"2661":0.0041683113634499004,"2662":0.009314471000341221,"2663":-0.0005620703603122107,"2664":-0.003933622997228281,"2665":0.013023058596887656,"2666":0.01416793600333066,"2667":-0.021089867510386412,"2668":-0.017397885731970923,"2669":0.012226262525954332,"2670":0.0024145903901721688,"2671":-0.00552189422680855,"2672":-0.013182506362769906,"2673":0.011957506331241262,"2674":-0.013899042556668928,"2675":0.011303876783110619,"2676":-0.009307436892350567,"2677":-0.02580629306669604,"2678":0.009818781442072561,"2679":-0.013052791959057414,"2680":-0.0001269709386918777,"2681":0.00865994014019854,"2682":0.017397299666113107,"2683":0.013399611860019981,"2684":-0.013477237609809354,"2685":-0.0016307055916507363,"2686":-0.0008406796652547851,"2687":0.002171187888684406,"2688":0.0058576110196693594,"2689":0.020242484685634905,"2690":0.01994906361245135,"2691":-0.001263355981732836,"2692":-0.0076395452085874,"2693":-0.021941033881117834,"2694":0.004158962088985692,"2695":0.0022823350984128832,"2696":-0.006421261679400652,"2697":-0.010544590306789534,"2698":-0.009712386266506964,"2699":-0.0007586160676663235,"2700":-0.022965528437923963,"2701":0.01964939232358656,"2702":0.012641179839534543,"2703":0.011330706145088342,"2704":-0.002279759473903391,"2705":0.006143088779964031,"2706":0.003398437102984701,"2707":-0.007754442141804673,"2708":-0.01210430275545075,"2709":0.02303893485500546,"2710":-0.010059706668343804,"2711":0.03300584578589743,"2712":-0.026710457921177884,"2713":0.005717619559664189,"2714":-0.033538144557691434,"2715":-0.006285566905992872,"2716":0.002300519457810219,"2717":-0.0015016995792927292,"2718":0.003955527658198438,"2719":-0.003909655592649986,"2720":-0.00799312100059717,"2721":-0.0038394234002576666,"2722":-0.0035270090243319633,"2723":0.011297111472062886,"2724":0.0013985452502042691,"2725":0.012274352513497084,"2726":-0.026440222775016845,"2727":0.02184730427693191,"2728":-0.0075115124025847265,"2729":0.02319924726308689,"2730":0.008761163198271428,"2731":0.011651681453855249,"2732":0.013744273796114719,"2733":-0.008780487508354966,"2734":0.0005056073651815027,"2735":0.004716249097246852,"2736":0.006609917305397967,"2737":-0.0044429806973907875,"2738":-0.009934329804551941,"2739":0.019615298959733414,"2740":0.019898183629966593,"2741":-0.013056644290164027,"2742":0.007777110515316114,"2743":0.014259053016292059,"2744":-0.011874291573286082,"2745":0.015892550855911212,"2746":-0.00007965507648798521,"2747":-0.019905402328809833,"2748":-0.0038260805146965397,"2749":0.011543884122913177,"2750":0.009822868474972702,"2751":-0.026137698905968912,"2752":-0.004653040424747428,"2753":-0.0007183748671545472,"2754":-0.015908481828042175,"2755":0.010917657662843954,"2756":-0.00270940294476382,"2757":-0.0036364333405215243,"2758":-0.00636041484846958,"2759":-0.013359139141748808,"2760":0.018677743209746658,"2761":-0.0019946638669880545,"2762":-0.028817834439699503,"2763":0.029875694424828785,"2764":0.011872914544511766,"2765":-0.009532488702522829,"2766":-0.010587013915341276,"2767":0.021052831780730936,"2768":0.008585399100222959,"2769":-0.007153769355644799,"2770":0.03416274801605201,"2771":0.005730173657385264,"2772":0.0002585211878562971,"2773":-0.010028950231072687,"2774":0.007177154770500593,"2775":0.008111706067691066,"2776":-0.022749929729939555,"2777":0.0068105199392111595,"2778":0.008185513903169636,"2779":-0.006147978586245144,"2780":0.001090618032716989,"2781":0.00010379635143716022,"2782":-0.003348166538227187,"2783":0.002711421521127812,"2784":-0.001413227663591918,"2785":-0.012173819685296645,"2786":-0.008341484067431975,"2787":0.01400705685163238,"2788":-0.0018134238069493827,"2789":0.0014495904824789341,"2790":0.00367667190135667,"2791":0.003771589849280806,"2792":0.009684500902272039,"2793":-0.005320609275646893,"2794":-0.01650294904458401,"2795":-0.021345238426196518,"2796":0.011141939354964256,"2797":0.021298403470213424,"2798":-0.005131945054020126,"2799":0.010148374459880392,"2800":-0.006601754002860361,"2801":0.022322318299555,"2802":-0.010327038020173068,"2803":-0.029657228401730393,"2804":0.025765021449787553,"2805":0.004557304151969669,"2806":-0.008461410696894989,"2807":0.015389265834478525,"2808":-0.007258491148317473,"2809":0.0014928719064327533,"2810":-0.04921529982142677,"2811":0.005070533643890829,"2812":0.00838687191006601,"2813":0.018300587401247626,"2814":-0.007635269935745899,"2815":0.00968712388964808,"2816":0.011431430891429955,"2817":-0.03563437491918997,"2818":0.012737162050426585,"2819":0.0009610291212920029,"2820":-0.00008130377096168569,"2821":0.0013224824575110053,"2822":-0.016783302859499256,"2823":0.014012823720362616,"2824":-0.020377958607805485,"2825":-0.020420414131052885,"2826":-0.0052279560982769185,"2827":0.006948411183188001,"2828":-0.008542220988955788,"2829":0.01376786428397165,"2830":0.020611860077292533,"2831":0.01626509710251256,"2832":-0.02009621754533227,"2833":0.0057593644747878005,"2834":0.01314235596538089,"2835":0.014782981182998102,"2836":0.022108197090104115,"2837":-0.031520432639175304,"2838":0.010379940457366007,"2839":-0.007687376621584977,"2840":0.017331679730195084,"2841":-0.013520811374255226,"2842":0.013605349436202419,"2843":-0.012740581293366417,"2844":0.0018437858402912538,"2845":0.004030641406349686,"2846":-0.0007310857664664993,"2847":-0.0013785238502898027,"2848":-0.011881653466665977,"2849":0.015693554442261403,"2850":-0.018850377540084482,"2851":0.009949304917287132,"2852":-0.01769280362076098,"2853":-0.012459940762666452,"2854":0.007791810881715819,"2855":-0.013911205890764585,"2856":0.0075707225329923284,"2857":0.010759547505083265,"2858":-0.004845408340954202,"2859":-0.009179945687936735,"2860":0.009159191654730045,"2861":0.006685062182938359,"2862":-0.019760506871296837,"2863":-0.0032152927951782893,"2864":0.01616967674977881,"2865":0.010426574602052487,"2866":-0.019565553349766812,"2867":0.004080731758649058,"2868":-0.00714920236020178,"2869":-0.014953343264825709,"2870":0.002987265016928269,"2871":0.01307179632792422,"2872":-0.01939545739650042,"2873":-0.0015662575669944732,"2874":0.0017318643854382,"2875":-0.000125186804369043,"2876":-0.013692515541013991,"2877":0.006124903282785429,"2878":0.023093522981881068,"2879":0.006137607183775139,"2880":0.022186793388168202,"2881":0.0003813532010003764,"2882":-0.002676766316151104,"2883":0.0037171684994086354,"2884":0.00499129119424948,"2885":0.0025621748696417934,"2886":-0.01017253472904489,"2887":-0.0002948318552786528,"2888":-0.009644008490245434,"2889":0.004971920246794177,"2890":-0.005603137680660859,"2891":0.006840511188750079,"2892":-0.0017717881884574077,"2893":0.007468339527958176,"2894":0.0044723515097390655,"2895":-0.0003630387525016656,"2896":-0.00030712294687677393,"2897":0.006160032263298315,"2898":0.007900844857508773,"2899":-0.002767158671738715,"2900":-0.0027714326794798646,"2901":-0.006929487646666214,"2902":0.0010152222879471432,"2903":0.019813000837015687,"2904":-0.002795637652746282,"2905":-0.01020829012294544,"2906":0.017429668895907646,"2907":-0.0015237605874296877,"2908":-0.006513042283523972,"2909":0.0056702606906731635,"2910":-0.012141329105444078,"2911":-0.008791363899217225,"2912":-0.004701516390378127,"2913":-0.016198635733645637,"2914":-0.012260894033284609,"2915":0.0013713866975275015,"2916":0.01941617322335724,"2917":0.004148491130573466,"2918":0.014527273402710185,"2919":0.0015237598406488459,"2920":-0.020447018560467378,"2921":0.02335384711136024,"2922":0.0050073770530592535,"2923":-0.007504325960385298,"2924":0.0047776478779934925,"2925":-0.00961678168953614,"2926":0.012986886643812832,"2927":-0.0170445846144621,"2928":0.0070043777988999965,"2929":-0.003158397360353672,"2930":0.0004915658127760793,"2931":0.0036439644445866713,"2932":0.012544415660246626,"2933":0.005471720590624375,"2934":-0.030216631553383704,"2935":0.0017249906610678487,"2936":0.021609370164142643,"2937":0.006053298298328564,"2938":-0.0052097386194061915,"2939":0.007615765395500963,"2940":0.005025102355362248,"2941":-0.010711456540757761,"2942":-0.023233297883273083,"2943":0.0033200507520619957,"2944":0.0013501710891656534,"2945":-0.003263608613783881,"2946":-0.03968943625017562,"2947":-0.03249459993355953,"2948":0.03924157495278748,"2949":-0.002702042583299418,"2950":-0.008768117483852686,"2951":-0.01730723943655914,"2952":0.03251244147015259,"2953":0.011374554935703296,"2954":-0.0029222428794814627,"2955":0.0019003705106247556,"2956":0.0035898444175893923,"2957":0.01930970042352171,"2958":-0.008520264309934848,"2959":-0.015516778287229555,"2960":0.01653476429835112,"2961":0.009306576220704544,"2962":0.01681049821601716,"2963":-0.004761388095838618,"2964":0.003363674943583561,"2965":0.008766354882793913,"2966":0.011296050086355525,"2967":0.003930951376966994,"2968":-0.015611509522901244,"2969":-0.008090958140891287,"2970":-0.021266582181222352,"2971":-0.01577425223756501,"2972":0.007065125940956162,"2973":-0.024706916939207964,"2974":0.005194888889468202,"2975":0.0029084840927309534,"2976":-0.015314095014919963,"2977":0.0034853052820658986,"2978":-0.00889205947099745,"2979":0.003522904586422998,"2980":0.0032982551538646627,"2981":0.007258913217625128,"2982":0.0018941271879421245,"2983":0.015075693849297767,"2984":0.004699662719638065,"2985":0.008530951065771312,"2986":0.010106401289692682,"2987":-0.01650371453693955,"2988":0.01647464377897065,"2989":0.02233853600259165,"2990":0.013968432981220849,"2991":-0.0029994541120322944,"2992":0.005488459785108788,"2993":-0.007915030609971537,"2994":0.013427559897396019,"2995":-0.012969851322484826,"2996":-0.008734392905213289,"2997":-0.010989983796994684,"2998":-0.008902840448981446,"2999":0.0017856950609356128,"3000":0.02556110578488602,"3001":0.0015956432867967867,"3002":0.0035043620801278614,"3003":-0.016002341717786146,"3004":0.010587510829400171,"3005":-0.011917199464010113,"3006":-0.01302859535472951,"3007":-0.013110702312919898,"3008":0.01175465567630644,"3009":0.004674340692959706,"3010":-0.0006793302194418877,"3011":-0.014654481883648875,"3012":0.005224808436693349,"3013":0.00532574688247322,"3014":-0.010600609343805405,"3015":0.0210597344562529,"3016":0.014408474596088535,"3017":-0.004887731717436661,"3018":0.016311758858429563,"3019":0.008496846245821239,"3020":-0.003116721352794193,"3021":0.013792280937322706,"3022":0.003193049603832964,"3023":-0.026269717885351405,"3024":-0.009571695410473233,"3025":-0.0018138248751067465,"3026":0.002255126550409772,"3027":0.0017583622777637721,"3028":-0.00114417500975322,"3029":-0.023352983796908193,"3030":-0.042235920608068724,"3031":-0.003744249235204867,"3032":0.0029835609897637333,"3033":-0.006608820484957898,"3034":0.006806498542623168,"3035":0.017393299993046816,"3036":-0.0035067227318381407,"3037":-0.03333743590901796,"3038":-0.005625520933398211,"3039":0.000507377316625486,"3040":0.017339846848419667,"3041":-0.004414432475704894,"3042":0.03425775064663969,"3043":0.009050408941251392,"3044":-0.009693083150235501,"3045":0.0021004490809560694,"3046":-0.0025546143509086964,"3047":0.010268470904128057,"3048":-0.0025330558914379597,"3049":-0.0010688193832155187,"3050":0.0012650884478393183,"3051":0.013802088003766763,"3052":0.009585257019740497,"3053":0.008504900779424306,"3054":-0.00371571325014359,"3055":-0.0012316704901560807,"3056":-0.07735086212440967,"3057":-0.014060387241982634,"3058":0.04913976278817375,"3059":0.0003531379550291011,"3060":0.012487157747866504,"3061":-0.011939829355524715,"3062":-0.009664880001297185,"3063":-0.005631313696935806,"3064":-0.0067225654105871205,"3065":-0.00982491135736313,"3066":0.02328010959245552,"3067":-0.014671002247523992,"3068":0.010358336958727817,"3069":-0.00028145657960281634,"3070":-0.00006642570722060622,"3071":-0.0042941876188467825,"3072":0.02201017969483051,"3073":-0.022093995654157112,"3074":0.018923350459628074,"3075":0.0037081120540147306,"3076":-0.0038094104840570944,"3077":-0.0021958175156964435,"3078":-0.000915629007293176,"3079":0.013474390397519147,"3080":0.009427375773499402,"3081":0.016287950071509866,"3082":0.010174065747418866,"3083":-0.012383272942980828,"3084":-0.00741739868401041,"3085":-0.011130068283072,"3086":-0.006872906476305911,"3087":-0.015645609144098405,"3088":-0.002972738758828602,"3089":0.014794278519623444,"3090":0.010565112228085915,"3091":-0.023610098416972737,"3092":-0.014152922374666562,"3093":-0.011287444650104256,"3094":-0.008758380109575706,"3095":0.0007244859288649436,"3096":0.0002856264942719953,"3097":-0.005620766635454552,"3098":-0.019409065738578795,"3099":0.004138348042662391,"3100":-0.0035189600663916194,"3101":-0.023125706886742512,"3102":-0.0012645177876294397,"3103":0.012790704624797092,"3104":0.015397723947896598,"3105":-0.023907437306701997,"3106":0.0001782375984736616,"3107":0.002600061147627703,"3108":-0.025576814004028694,"3109":-0.0015241681539454681,"3110":0.0037024086484306194,"3111":0.001105488505364968,"3112":0.017765006221861765,"3113":0.0005658893533253327,"3114":0.005056051489446931,"3115":-0.026140261999593812,"3116":-0.000011568514260382838,"3117":-0.002537567866431353,"3118":0.0067427818823226435,"3119":0.0036768187771812964,"3120":-0.011854152434585336,"3121":-0.0008519193207529291,"3122":0.009303175033938807,"3123":-0.007996371188833182,"3124":0.0045439057008740255,"3125":0.003996778578015558,"3126":0.0162051436510688,"3127":-0.0008202829480704069,"3128":0.006204815961952573,"3129":-0.0007403201872213638,"3130":-0.004985198838206477,"3131":0.017141136314226285,"3132":-0.011411858271977262,"3133":-0.05831266342668399,"3134":-0.013446168683416245,"3135":-0.0037882200106251996,"3136":-0.013513543493727442,"3137":-0.012860811367672661,"3138":0.00857928630869232,"3139":-0.021701768408982237,"3140":-0.026966787340403003,"3141":-0.005225248511483645,"3142":0.0019376121609837663,"3143":-0.0010023495609688413,"3144":-0.013439155764270745,"3145":-0.000777515417141596,"3146":0.0016599725402428288,"3147":-0.03482233091365585,"3148":-0.014299112928834798,"3149":-0.001375104208893443,"3150":-0.012021582511053008,"3151":0.007551310146766119,"3152":0.010928469943824841,"3153":0.004820031774183843,"3154":-0.04113234338923175,"3155":-0.006706058322597236,"3156":-0.0013648467548576816,"3157":-0.021647583109982146,"3158":-0.0039820641392889185,"3159":0.022578226454900558,"3160":-0.019709183608238555,"3161":-0.014627407934364626,"3162":0.0017310283036405078,"3163":0.0019291328418999721,"3164":0.0006835784158761477,"3165":-0.0037671087897096717,"3166":-0.0017129808123665547,"3167":-0.007059912248724668,"3168":-0.007046947261030429,"3169":0.01650639601784018,"3170":0.0026494787319120837,"3171":0.004394027792889248,"3172":-0.009528264358215617,"3173":0.008755156507967484,"3174":0.007167946490051449,"3175":0.009527437933986476,"3176":0.018926033196638676,"3177":0.007528573380369074,"3178":0.007850521070860105,"3179":-0.0003569311781446818,"3180":-0.00992180185628414,"3181":-0.007316653906280213,"3182":-0.03209338252165726,"3183":0.010440493099440402,"3184":-0.014674451588083379,"3185":-0.007874131093907204,"3186":-0.010844225123021266,"3187":-0.02354567043528254,"3188":-0.0006589209049114934,"3189":-0.017908233526281524,"3190":0.000539696068788593,"3191":-0.007058231519932395,"3192":-0.0009455078626200923,"3193":0.0010524733466256628,"3194":0.006587113394882459,"3195":-0.02368144343175377,"3196":-0.0021481702714312638,"3197":-0.009283638831014202,"3198":0.00642292629182684,"3199":-0.014035184901142339,"3200":0.0073713140125666295,"3201":-0.026379486023521175,"3202":-0.002102156198194407,"3203":-0.014704712474576819,"3204":-0.020628830795555036,"3205":-0.007604735748879201,"3206":-0.017600280312047148,"3207":-0.004387061378003495,"3208":0.005738598782456849,"3209":0.0023745214427911177,"3210":0.0008561922386702684,"3211":-0.008437020338718114,"3212":0.00039640460058555264,"3213":-0.018495749659023168,"3214":-0.00884211402736229,"3215":-0.013436939421394558,"3216":-0.009121661447666206,"3217":0.01024638144333966,"3218":0.0024183237480642494,"3219":-0.005148410379949177,"3220":-0.007297023457115248,"3221":-0.00690894300909222,"3222":-0.009542816299191395,"3223":0.00011004036836258013,"3224":0.00031251144520802346,"3225":0.011972929959560216,"3226":-0.0022633975383096355,"3227":-0.0002552313675562997,"3228":-0.0054593600583428365,"3229":-0.012887947715883334,"3230":-0.01579230941221228,"3231":-0.011826615147146917,"3232":-0.006797497367407636,"3233":-0.01086778250875627,"3234":0.0009655798113143388,"3235":0.014539059679245101,"3236":0.0014157945356221874,"3237":-0.0029262600018088417,"3238":-0.02076946497043244,"3239":0.011922100233129626,"3240":0.002219260099452629,"3241":0.00022533671941901213,"3242":-0.01311447373781625,"3243":0.002887502303704813,"3244":0.004090840237199889,"3245":-0.026184806830142304,"3246":0.015270938367568402,"3247":-0.0034146995439752695,"3248":0.006858404968561984,"3249":0.02345756092701031,"3250":0.005437238204629037,"3251":0.0012070948248829136,"3252":-0.004180046037687182,"3253":0.015607525793027573,"3254":-0.013460209192349365,"3255":-0.02407061181451131,"3256":0.021803260553299276,"3257":-0.00180158408161614,"3258":0.013400314236708242,"3259":-0.01084291354611683,"3260":-0.010447476335773177,"3261":-0.005997852150779517,"3262":0.00808492031892037,"3263":-0.010735444203075758,"3264":0.0219855759154698,"3265":0.0019894598378272965,"3266":-0.03282261015495348,"3267":-0.013724519077124017,"3268":0.003901819687866953,"3269":-0.012759656856428965,"3270":-0.005085241918781673,"3271":-0.03346445743424134,"3272":-0.011197743383590418,"3273":-0.008699123497991955,"3274":0.04919782110604085,"3275":0.006204729705866627,"3276":0.007062076281352589,"3277":0.00910719965317374,"3278":-0.015995471374480416,"3279":-0.006412010149353429,"3280":-0.01771264939699734,"3281":-0.01380696490704522,"3282":-0.01512561658439123,"3283":0.018501735491413453,"3284":-0.0015380689621083178,"3285":0.0005767064730792434,"3286":-0.006815102627896553,"3287":0.011646289025394807,"3288":0.00013044491607195965,"3289":0.01088297427330242,"3290":-0.0024280690419178235,"3291":-0.02015426110813067,"3292":-0.019015412295148932,"3293":-0.007716748211797718,"3294":-0.00032439521076893654,"3295":0.0012459573882117618,"3296":0.0059012013320907915,"3297":-0.009017696680162788,"3298":-0.00009844059124499548,"3299":0.0011277655804497798,"3300":-0.0012607998972820316,"3301":-0.0013228834308047091,"3302":-0.0007328819425573901,"3303":-0.017986867633212028,"3304":-0.004521263208581396,"3305":0.01956181893795148,"3306":0.006682664520513118,"3307":0.01104329035766121,"3308":-0.011928035827567787,"3309":-0.014199079843571086,"3310":0.0023154781170922237,"3311":-0.008631992864364071,"3312":-0.006452633824809379,"3313":0.029503861848966376,"3314":-0.0031559548183937927,"3315":-0.027956403705103945,"3316":-0.009034578109044351,"3317":-0.019468237439590662,"3318":0.03256570802551393,"3319":0.002584345101599647,"3320":0.006063376799829537,"3321":-0.01760226820435887,"3322":-0.0016562723485260063,"3323":0.005275437865985238,"3324":-0.008884577618292231,"3325":0.00009565753474431534,"3326":0.01906391661413666,"3327":0.008275698047158964,"3328":0.030048122773048056,"3329":0.007606832399016808,"3330":0.006645982950150068,"3331":-0.029414853074630206,"3332":0.017079053565947338,"3333":0.009897552904995156,"3334":0.006751350321548448,"3335":-0.00252903381695893,"3336":-0.003048345108882913,"3337":-0.005416362882704668,"3338":0.00842263797373881,"3339":-0.011360028127253714,"3340":0.0055853039099194425,"3341":0.016519276388354067,"3342":0.014968461191031263,"3343":-0.027354877215114773,"3344":0.02143620323261961,"3345":0.010147510763633768,"3346":0.006576702905642171,"3347":0.009704786433820186,"3348":-0.016828438841955184,"3349":0.019976173882296538,"3350":-0.007468069161086045,"3351":0.005334293336628968,"3352":0.013978079980703433,"3353":-0.00974307963122973,"3354":0.00874952230109969,"3355":0.01791108605467751,"3356":-0.004051929023147818,"3357":-0.0004574765899274532,"3358":0.00496833769235328,"3359":0.019179157594859872,"3360":-0.009046263644292705,"3361":-0.003943488076646532,"3362":-0.022977343971340516,"3363":0.004929826619189942,"3364":0.006294654420144902,"3365":-0.005785700881926387,"3366":-0.0027165896774244648,"3367":-0.005392569526900612,"3368":-0.003720692218530227,"3369":0.004727928082489107,"3370":-0.004699113346075821,"3371":-0.00541464212707705,"3372":0.010022643264231022,"3373":0.0005000481580733557,"3374":-0.010255889198976261,"3375":-0.009534310707806928,"3376":-0.011128662456642657,"3377":0.00017250477928825567,"3378":0.020728419429921537,"3379":0.006141091793313769,"3380":0.010461010468653173,"3381":0.03521525591306661,"3382":-0.04083925820723867,"3383":0.032339573330222915,"3384":-0.05755704423616637,"3385":-0.008734922412484138,"3386":0.019199186736835648,"3387":0.021926085681061906,"3388":0.001804541594620924,"3389":0.01261736432878052,"3390":-0.008923903045355395,"3391":-0.024179770271698917,"3392":-0.0007008645370304969,"3393":-0.0006592478744823381,"3394":0.0034046567372386263,"3395":0.005205228606232354,"3396":-0.009552854055981027,"3397":0.015175908790454561,"3398":0.010775274170684069,"3399":0.009063022397899143,"3400":0.00891090038878636,"3401":-0.018280669271564128,"3402":0.007804081818525374,"3403":-0.010839452899187162,"3404":0.0033157060539552793,"3405":0.006960332912629238,"3406":0.004721312074567308,"3407":0.010074212893974612,"3408":-0.002403769000839551,"3409":0.0025852713070414622,"3410":0.02177020485736671,"3411":0.013263797261558859,"3412":-0.0005393828778489652,"3413":0.0010625435690821033,"3414":0.002848171322505363,"3415":-0.011706690765249663,"3416":-0.0026140635913616517,"3417":-0.0011572882214928458,"3418":-0.0002494051040069485,"3419":-0.011298782892620764,"3420":-0.011814179743088939,"3421":-0.013014664235363117,"3422":0.011516997326338882,"3423":-0.003356091034761064,"3424":-0.006616002895298027,"3425":0.01610754617181756,"3426":0.004848442051721191,"3427":-0.004508081940676237,"3428":0.012800248739976403,"3429":0.021269050866615558,"3430":-0.01843638913834007,"3431":0.017423751717034145,"3432":-0.011851003311026105,"3433":-0.009471332152613421,"3434":0.016720996122670882,"3435":0.016651100529723434,"3436":-0.005957647412580131,"3437":-0.01338775713642299,"3438":-0.00009911792531026871,"3439":0.006581673060072707,"3440":-0.01923274131713765,"3441":-0.022174917445897877,"3442":0.013480743156744976,"3443":-0.0037840002727674445,"3444":0.014213114533038923,"3445":0.021486744600983647,"3446":0.000058131537778309585,"3447":0.007097430390388318,"3448":0.0006067882225668619,"3449":-0.026185021631756015,"3450":0.0009211886083583956,"3451":0.004195119527283261,"3452":-0.005928538774474479,"3453":-0.0028041370130849085,"3454":0.011230919797942074,"3455":0.00637195476231367,"3456":-0.008558719595893655,"3457":-0.011046828719300659,"3458":-0.008821196009060167,"3459":0.005089616135542947,"3460":-0.007609246260298823,"3461":0.005324047823794347,"3462":-0.01577011591060942,"3463":-0.004377561617957282,"3464":0.0019161087026818794,"3465":-0.004581300542310934,"3466":0.012093543064984294,"3467":0.002413644316518715,"3468":0.0027446277597261747,"3469":0.0003596647532177085,"3470":0.004910526289399776,"3471":-0.001322429190516209,"3472":0.001170761117779361,"3473":-0.008330799489341744,"3474":0.00431444882873265,