
//<![CDATA[

// a few things don't have var in front of them - they update already existing variables the game needs
lanesSide = 3;
patchesAhead = 10;
patchesBehind = 5;
trainIterations = 10000;

var num_inputs = (lanesSide * 2 + 1) * (patchesAhead + patchesBehind);
var num_actions = 5;
var temporal_window = 6;
var network_size = num_inputs * temporal_window + num_actions * temporal_window + num_inputs;

var layer_defs = [];
layer_defs.push({
    type: 'input',
    out_sx: 1,
    out_sy: 1,
    out_depth: network_size
});
layer_defs.push({
    type:'conv', 
    sx:3, 
    filters:8, 
    stride:1, 
    pad:2, 
    activation:'relu'});
layer_defs.push({
    type:'conv', 
    sx:3, 
    filters:4, 
    stride:1, 
    pad:2, 
    activation:'relu'});
layer_defs.push({
    type: 'fc',
    num_neurons: 20,
    activation: 'relu'
});
layer_defs.push({
    type: 'fc',
    num_neurons: 5,
    activation: 'relu'
});
layer_defs.push({
    type: 'regression',
    num_neurons: num_actions
});

var tdtrainer_options = {
    learning_rate: 0.001,
    momentum: 0.01,
    batch_size: 64,
    l2_decay: 0.01
};

var opt = {};
opt.temporal_window = temporal_window;
opt.experience_size = 3000;
opt.start_learn_threshold = 500;
opt.gamma = 0.1;
opt.learning_steps_total = 10000;
opt.learning_steps_burnin = 1000;
opt.epsilon_min = 0.01;
opt.epsilon_test_time = 0.0;
opt.layer_defs = layer_defs;
opt.tdtrainer_options = tdtrainer_options;

brain = new deepqlearn.Brain(num_inputs, num_actions, opt);

learn = function (state, lastReward) {
    brain.backward(lastReward);
    var action = brain.forward(state);

    draw_net();
    draw_stats();

    return action;
}

//]]>
    
/*###########*/
if (brain) {
brain.value_net.fromJSON({"layers":[{"out_depth":765,"out_sx":1,"out_sy":1,"layer_type":"input"},{"sx":3,"sy":3,"stride":1,"in_depth":765,"out_depth":8,"out_sx":3,"out_sy":3,"layer_type":"conv","l1_decay_mul":0,"l2_decay_mul":1,"pad":2,"filters":[{"sx":3,"sy":3,"depth":765,"w":{"0":0.014073944656911995,"1":-0.005284534983009039,"2":-0.023702882616633017,"3":0.0064543580694892055,"4":-0.0024929736022791743,"5":-0.004597238742584905,"6":-0.004304515085726062,"7":-0.008251551038727075,"8":0.007739989949733396,"9":0.007515252581710655,"10":0.0031736779987160827,"11":0.009411193181486413,"12":0.004152101340049232,"13":0.019817033159756966,"14":-0.00790441110801799,"15":-0.005679934744131915,"16":-0.015502497045333862,"17":-0.023953155785819996,"18":0.0006089615299939711,"19":0.02165104118745644,"20":0.005729109435400774,"21":0.005486925934736876,"22":-0.00036154801027338403,"23":0.004127812658862259,"24":0.01995759175581879,"25":-0.0016771451349326823,"26":-0.009818136448900753,"27":-0.0026510091510373837,"28":0.0013458169668053325,"29":-0.0016820843356244962,"30":-0.013663219110260022,"31":0.0033668977319036577,"32":0.007856701029094505,"33":-0.01747448550504816,"34":-0.011645643999076043,"35":-0.01142652036286448,"36":-0.0024642148152920883,"37":0.0065316001384332295,"38":0.03180334172573312,"39":0.0067137303783538944,"40":-0.004898710887958073,"41":-0.0015136030159088793,"42":-0.007074281340603429,"43":-0.002159747648635716,"44":0.005736801981080126,"45":0.0035042485709844127,"46":-0.017408033256815853,"47":0.005187544286570849,"48":-0.018463242008079948,"49":-0.006278285718545947,"50":0.0018813491781457313,"51":-0.0010159396056992327,"52":-0.0029329951969347652,"53":0.012138981278482064,"54":0.00013994082469146534,"55":0.0007270941014717354,"56":0.009291492444792127,"57":0.012272971854640054,"58":-0.019226691030576826,"59":0.01182948182840623,"60":-0.007628347358456872,"61":0.008246300228165249,"62":-0.004819586794837399,"63":-0.004756093982736752,"64":-0.0053961277232321865,"65":0.0238176793559354,"66":-0.010358275287596126,"67":-0.010311240478167222,"68":0.004470436022246766,"69":-0.0012764531324141175,"70":-0.00834914736972402,"71":0.03306721252957926,"72":-0.026429256608519136,"73":0.04742401824020084,"74":-0.01065005012214189,"75":-0.009563040710032498,"76":-0.0017041072540482033,"77":-0.025381804353985897,"78":-0.012661299389058705,"79":-0.014128393114051414,"80":0.05152328804416941,"81":-0.012979050353360845,"82":-0.020698775085554448,"83":-0.0006266580862938194,"84":-0.016945734591035228,"85":0.010813327919893973,"86":0.002639596483596833,"87":0.030535081997916103,"88":-0.004007917361935814,"89":0.010159911803346335,"90":0.0019890528599088796,"91":-0.012789480114715963,"92":-0.017706715590919637,"93":-0.03419310326359668,"94":0.031000390399715177,"95":0.023496099565045614,"96":0.00930468816053403,"97":0.008343757130451079,"98":-0.015486425823366222,"99":-0.001674289469640744,"100":-0.011920051779186331,"101":-0.0008416124545654371,"102":0.005304459068346549,"103":-0.012115184908307066,"104":0.01143263501409853,"105":-0.009015116681154638,"106":0.001071047985909769,"107":0.00016691663693214784,"108":0.004380951262473208,"109":0.005280152884955492,"110":0.003421960356818217,"111":-0.015578547752950042,"112":0.016189956445544485,"113":0.021655504417336147,"114":-0.0038218542026738334,"115":-0.004083794491139705,"116":0.009504357558452517,"117":-0.01300999226035219,"118":-0.00376707207159961,"119":0.007761159563223694,"120":0.009601744255425872,"121":0.02106146930918305,"122":0.01682415659151767,"123":-0.0006173668897754859,"124":-0.015733673391764878,"125":0.007452119823122625,"126":0.004738128936350709,"127":0.0067202980494143645,"128":0.018606072227640838,"129":0.018005424329563213,"130":0.0033400583327368185,"131":-0.016829032901793405,"132":-0.007988355154684738,"133":-0.002968015935383247,"134":0.0160206028915148,"135":-0.005992854667705422,"136":0.0018929907458629888,"137":0.009670187851780972,"138":-0.005182765708636144,"139":-0.005764157143474652,"140":-0.001300613934385615,"141":0.009152208975686593,"142":0.019505490851791346,"143":0.023577400625173772,"144":0.017106558188818472,"145":0.018537570750405512,"146":-0.0037084304203033464,"147":0.009280093857272687,"148":-0.0029315211100512106,"149":0.007075651853063174,"150":0.01730063751255933,"151":-0.007780543981030578,"152":0.014339342846693541,"153":0.005194654770663912,"154":-0.008346853385494422,"155":0.02442986539284559,"156":0.00950046303674058,"157":-0.011868415500197323,"158":-0.007593961860237718,"159":-0.009332647354490587,"160":0.006650358005520752,"161":-0.0021577627259847646,"162":0.012682607593220369,"163":-0.023599077949668715,"164":0.0029021349676061317,"165":0.006179469384863985,"166":-0.0022318034008307194,"167":0.023725963387237887,"168":0.01706069997211576,"169":0.007422044676842705,"170":0.003828001836045945,"171":-0.0005926181966601409,"172":-0.00820386724759782,"173":0.0014234507590015287,"174":0.013253593741918937,"175":0.0037215314929982036,"176":-0.012439772732569462,"177":-0.009728279829280932,"178":0.004144290514443899,"179":0.012297390225764853,"180":-0.0029802056110901152,"181":0.010851860271299429,"182":0.018736774406399745,"183":-0.0019204391356740151,"184":0.011478248083929906,"185":0.008867347476538372,"186":-0.005392683044317219,"187":0.008461491996470453,"188":0.0028196961281425964,"189":0.012059421670323945,"190":0.010685994488661414,"191":-0.012243538484976493,"192":0.032622385184264996,"193":0.029903744633408436,"194":0.012063497241581355,"195":-0.005173518615407952,"196":-0.028755856666271347,"197":0.010030419990375692,"198":-0.002159017994702672,"199":0.023682554060333254,"200":-0.0012278068132892356,"201":0.003374403691124832,"202":-0.011527573351643505,"203":0.010060041099280263,"204":0.011297801156651365,"205":-0.0047096743653578035,"206":-0.003964574258003714,"207":-0.019160566258499462,"208":0.012930077163139268,"209":0.00008691362220244019,"210":0.012332612000745796,"211":0.011005140645714293,"212":0.01098704500171786,"213":0.0028414548306412413,"214":0.011867820507929732,"215":-0.006852828668904299,"216":0.009091341247405554,"217":0.005151459171954123,"218":-0.023890914316866272,"219":0.010781457319116564,"220":0.012793464884971203,"221":-0.02510853441300168,"222":-0.0017038844879182957,"223":-0.005066544522836052,"224":-0.006884701646948443,"225":0.010399332972571432,"226":0.0024471911404006187,"227":0.0036361069014232156,"228":0.006421970571221873,"229":0.008566057013383088,"230":-0.006461682193728234,"231":0.00701104655884505,"232":0.00025670723648485726,"233":-0.0008482319737056411,"234":0.009650337460022968,"235":0.02433140895811817,"236":-0.0007692335246094295,"237":0.030567862987972316,"238":0.005102784176893453,"239":0.010994907188994681,"240":0.005218286150439041,"241":0.002870007482550982,"242":-0.00013200350055052066,"243":0.005871567567672286,"244":-0.01536989073129794,"245":-0.018885685061547808,"246":0.00002223457659014988,"247":-0.0016488333695835547,"248":0.014154599326135733,"249":-0.004554026774882736,"250":-0.02105513596973453,"251":-0.013461560893114689,"252":-0.00020655558045825089,"253":0.021005731397310982,"254":0.0023675687967622057,"255":0.0021722184093297477,"256":0.009240072448601614,"257":-0.010391730953834808,"258":0.005255998598933493,"259":0.020249898029278752,"260":0.007066777069984006,"261":0.00670918490647051,"262":0.0008606390443301942,"263":-0.00004921381557930384,"264":-0.0020817633200625064,"265":0.009958954081950954,"266":0.02482732633176781,"267":-0.007241748757471103,"268":-0.0009066660944817214,"269":0.00971777852193134,"270":-0.006539443077963516,"271":-0.004024942331505524,"272":-0.00243417630785253,"273":0.024465002882687065,"274":-0.0009469820728047678,"275":0.014860422382377562,"276":0.003660385556548483,"277":0.023702109354562417,"278":-0.006037607205226268,"279":0.004919792444542413,"280":0.003193611066296573,"281":0.015533727679087195,"282":-0.011342997927407483,"283":0.00916833615787599,"284":0.002293972388981547,"285":0.004752550183803947,"286":0.021503459522120558,"287":0.027604118406989748,"288":0.001463671941589368,"289":-0.007532501986813539,"290":-0.018603213787363657,"291":-0.0034432814768051165,"292":-0.0074046079564503145,"293":-0.01758291223823777,"294":-0.011102363031721931,"295":0.003185101907430841,"296":-0.015717197802287232,"297":0.015963393972921555,"298":0.013244801998210954,"299":0.005511297995946377,"300":-0.008349667785027557,"301":-0.010016401184491937,"302":0.001802081030296301,"303":-0.017168174297814767,"304":-0.018803908797629307,"305":0.017827099939138648,"306":0.0010636606590792034,"307":-0.019115869302156904,"308":-0.0006417837107562623,"309":0.00249133597259855,"310":-0.009502836631871368,"311":0.002550703892556368,"312":-0.011301871212980878,"313":-0.013095149633929347,"314":-0.00994823831846249,"315":0.006454686071184503,"316":0.00662745073209992,"317":-0.008793180509607701,"318":0.0012184728543062498,"319":0.0003328291868675608,"320":0.0026396766764703733,"321":0.05261624110528996,"322":-0.04200208749598814,"323":0.009064402295793531,"324":0.022713519655983984,"325":-0.0001423381033085886,"326":-0.014618279253705813,"327":-0.012928967111013238,"328":0.0021018082490238425,"329":0.0165859987665963,"330":-0.015387862667240891,"331":-0.0017776835413287999,"332":-0.00687716362527294,"333":-0.01770057963167489,"334":0.0029825706269886974,"335":0.005856315942495385,"336":-0.00526172683988678,"337":0.019676172009282365,"338":-0.0026025601294506727,"339":0.03014353776811856,"340":0.0010175850252496317,"341":0.011188316196549327,"342":0.008013258457559475,"343":0.01221272300553685,"344":0.003594403999165581,"345":0.02075464205561342,"346":0.0008156637726046502,"347":0.0006307572807230488,"348":-0.0007449811726859376,"349":0.011724500781363303,"350":0.03412497022762024,"351":0.0035155538147858007,"352":-0.003960621158906132,"353":0.004099992889706091,"354":-0.017518728816355095,"355":-0.01259657438791057,"356":-0.005909098721434686,"357":-0.004228946325302115,"358":-0.014212901814218665,"359":-0.018725905109338494,"360":-0.012518905866241737,"361":0.00392841830352989,"362":-0.001466309990927563,"363":0.013368127691007946,"364":-0.038008074582907746,"365":0.012158015712556324,"366":-0.0008491957104464115,"367":0.003922271404735719,"368":0.021424968289440856,"369":0.010960447680022717,"370":-0.0011108626125164224,"371":0.002410326296274768,"372":0.00397235302980256,"373":0.004528502121687861,"374":-0.0010355225909824948,"375":0.019970054165156126,"376":0.018190416914304893,"377":-0.02390112118887642,"378":0.008791222276131291,"379":0.0004130610803686722,"380":-0.014630035655758234,"381":0.020720803443451626,"382":0.01668858133609824,"383":0.0002905349997332557,"384":0.010722798847450433,"385":-0.017114097560527484,"386":-0.015025996912834618,"387":-0.007649490774790367,"388":-0.012279819662702498,"389":-0.004214443665310162,"390":-0.00393484201361161,"391":0.002199717751165108,"392":0.012307636051342082,"393":-0.015542377849799994,"394":0.012521774750912694,"395":0.002931291685340258,"396":-0.005630840763849586,"397":0.007250135493671711,"398":-0.007014661815271319,"399":0.017430757925127424,"400":0.0013906316162277962,"401":-0.010081446081421638,"402":-0.035728629279012436,"403":0.00853234214504887,"404":0.002317385665032286,"405":0.02275300104141011,"406":0.03352932009280106,"407":-0.003435312977979034,"408":-0.004417977243281745,"409":-0.019765154579440055,"410":0.002355036788434238,"411":0.00218166510620054,"412":-0.0004399434748023502,"413":0.006516337416086319,"414":-0.013322554364792889,"415":0.003893363707326123,"416":0.015427867268848705,"417":-0.0023210455540081626,"418":0.005083259692782476,"419":0.03498071921700564,"420":-0.01161638688675103,"421":-0.009295029553742718,"422":0.008146070806856259,"423":-0.0028448220402550843,"424":-0.003230053228495384,"425":0.007514462743953752,"426":0.01412620882170131,"427":0.010277318280392923,"428":0.005561865703296787,"429":-0.0005846212876663366,"430":-0.007769610444960417,"431":0.01948084989107454,"432":-0.017732691090458375,"433":0.013027007398365133,"434":-0.021750381634421844,"435":-0.014862500889806965,"436":0.0008015350867481612,"437":-0.008456738777142902,"438":0.00025576346264618427,"439":0.013533773720458168,"440":-0.008803008309978258,"441":0.00012362368797262137,"442":-0.005228890837801789,"443":0.013121436199782325,"444":-0.00523276016415667,"445":0.012517596238362972,"446":-0.005293162069647167,"447":-0.0015253182200667297,"448":0.0049688096612711735,"449":-0.00889829767680201,"450":0.0013363085512938476,"451":0.006484699699927578,"452":-0.0069640914241679225,"453":0.001398062690236545,"454":-0.0004921075460879347,"455":0.01728999029484084,"456":0.010951677261769214,"457":-0.0019584914510937146,"458":0.012079853862479869,"459":0.004161889463931272,"460":-0.012618744279113081,"461":-0.001026228319182448,"462":-0.01930002885628049,"463":0.015259103975132169,"464":-0.002138757027633386,"465":0.0017864969295081582,"466":0.023655310572315045,"467":0.009327435822415573,"468":0.004232553576472516,"469":0.013635665677342122,"470":-0.0007981681408463241,"471":0.002107744766011341,"472":0.009261888237258584,"473":-0.005084572135923772,"474":-0.003794310185340177,"475":0.027154082454299323,"476":0.012177589653360918,"477":-0.01820974252651448,"478":0.0030221240557519995,"479":0.012463216066267739,"480":-0.007241072997501373,"481":0.007705616652971667,"482":0.014126432883156884,"483":0.00719944203035696,"484":-0.008435319809884751,"485":0.0315448516638349,"486":0.017479226082799202,"487":-0.0025436107967581976,"488":0.0043790359579534725,"489":0.005017249978143987,"490":-0.00448074129774477,"491":0.007003465538044415,"492":0.0001787483763929805,"493":-0.008216927172016383,"494":0.007158018134195518,"495":-0.003970283353784436,"496":0.009891002827572376,"497":0.013960659977608533,"498":0.005129837142903404,"499":0.016011427283487454,"500":-0.016188605870395688,"501":-0.013090654814345563,"502":-0.0014119251061472245,"503":-0.013512357057775716,"504":-0.004366441642866129,"505":-0.006845823427017711,"506":0.008136409758257109,"507":0.0028182768199680897,"508":0.014106889915486894,"509":0.012754647591501038,"510":0.001502708471687978,"511":0.007785430425889449,"512":0.008942871796370754,"513":-0.0029238713444686634,"514":-0.0090520584513764,"515":-0.001157265468785276,"516":-0.01094092003053082,"517":0.0030109006079359407,"518":0.025215139812066464,"519":-0.002792137472665985,"520":-0.010240551070422137,"521":0.004857661730904591,"522":0.013031179589192308,"523":-0.013769279388450241,"524":-0.007799216058573816,"525":0.009054015164639094,"526":0.0001966794931414846,"527":0.014034605221362406,"528":0.011262551308794996,"529":0.013643563800014616,"530":0.014749933817368074,"531":-0.02334920180309337,"532":0.00442329464946918,"533":-0.00853393579549402,"534":0.020816236512377524,"535":-0.019965816225109893,"536":0.016990381316696387,"537":0.0022198689579075678,"538":0.006521493646439122,"539":-0.02350620224589467,"540":0.001079041134111353,"541":0.033408140248114,"542":0.007981581070760392,"543":0.0029250021653759468,"544":0.024759976435436905,"545":-0.006087343933247623,"546":-0.0025530108533845207,"547":-0.005853503060096109,"548":0.01976817453356304,"549":-0.006749903575511585,"550":0.004029403116462756,"551":0.008171135845422943,"552":-0.0042663663406089895,"553":-0.021566026359802624,"554":0.00797182761434323,"555":-0.002906657801507253,"556":0.0033685261813322254,"557":0.008327951543551216,"558":0.016893611485360387,"559":-0.00809833494058661,"560":-0.016115877265596736,"561":0.013952704878357468,"562":0.01962808877947622,"563":-0.02165160938396969,"564":0.015107465167999363,"565":0.016610520150956307,"566":0.008212146947751211,"567":-0.00601097707726348,"568":-0.009854733743048853,"569":0.012049284411334304,"570":0.0016653313316636214,"571":0.017100398889226223,"572":0.006530612846387967,"573":0.014507395912628646,"574":-0.0006282191860345779,"575":0.002110394998113416,"576":-0.022150975290520857,"577":0.0019093295776185795,"578":0.00003385399663143825,"579":0.001384752034292838,"580":-0.004872850385557156,"581":0.016123000793545464,"582":-0.0011122666487250294,"583":-0.006771295499571955,"584":0.0006780033636925215,"585":0.004812054122009926,"586":-0.019277880777968506,"587":0.0016663321317317526,"588":-0.0019304505522068271,"589":-0.014138757282017194,"590":-0.016141057943424544,"591":-0.010331852789048704,"592":0.011456540413402194,"593":-0.01613103032925778,"594":0.020124696332676252,"595":-0.006396402398987771,"596":0.011363027211069835,"597":0.0017312849151099453,"598":-0.006821214855435486,"599":0.018177999062394232,"600":-0.011768421594335703,"601":-0.02774535707440958,"602":-0.016280105355004647,"603":-0.009529633641839574,"604":-0.006788889019706373,"605":-0.007064708324314387,"606":-0.01215911679596148,"607":0.012329456043724658,"608":0.0028002972370970466,"609":-0.00977824922742612,"610":0.010004332642430638,"611":0.014130037516241098,"612":0.006411713976367837,"613":0.005750458318181781,"614":0.008968086652751246,"615":-0.001083889968884301,"616":-0.008038692003248641,"617":0.0065725272207288535,"618":0.006215818734906502,"619":-0.00025093375918866035,"620":0.006721499424072345,"621":0.006532130313637963,"622":0.007318113056630117,"623":-0.02188058856189439,"624":0.005235582323277965,"625":0.018987576190985067,"626":-0.0034056488655635556,"627":-0.008782901587376433,"628":-0.029697066152266124,"629":0.007648845709573598,"630":-0.003331756365087582,"631":0.004212073328395494,"632":0.008083473382620882,"633":0.01044685373341903,"634":0.016666316818805274,"635":-0.0008484668733319938,"636":0.017291100775051117,"637":0.024509654758351616,"638":0.011232687441424508,"639":0.009429729437112847,"640":0.017221279624844186,"641":0.011354181040027321,"642":0.005994605816558514,"643":0.008376090819168782,"644":-0.0061239628725931585,"645":-0.009118193788006233,"646":0.0005493222079838223,"647":-0.0024114260708390524,"648":-0.018518934910006616,"649":-0.024676718247085883,"650":0.013390615118954084,"651":0.016684431768125462,"652":0.003919319628456732,"653":0.01765132507114181,"654":0.0037778287183566394,"655":-0.0015076291365040762,"656":-0.002778824584207099,"657":-0.0014209705690559063,"658":-0.008578261831777453,"659":0.00533059674165161,"660":0.012378487746654844,"661":0.013892603593016792,"662":0.010693878225448483,"663":-0.018337571259736687,"664":0.021535574929437803,"665":-0.008642192784068019,"666":-0.017263070024250825,"667":-0.02051289111035596,"668":0.007276163090027814,"669":-0.005756750197970276,"670":-0.008250270032821591,"671":0.004003995828237811,"672":0.009135352645639336,"673":-0.024335865587674612,"674":-0.01397026965418798,"675":0.015593164109588194,"676":-0.002025341865682408,"677":-0.005650377633702701,"678":0.009594003809961527,"679":0.002786707637162327,"680":-0.0044051497968259235,"681":0.025810152020349135,"682":0.0025980006603319146,"683":0.014995612286738307,"684":0.005986865358545098,"685":0.007061053365568674,"686":0.0066902090314381124,"687":0.000002908872380706489,"688":0.0024442234533354674,"689":-0.006491892835973725,"690":-0.007213163212758512,"691":-0.0024654592875818933,"692":0.010943376990609155,"693":0.01402070598540079,"694":-0.006921084032329182,"695":0.015194234321423219,"696":0.006988068463184831,"697":-0.013625839799219773,"698":0.00042873862488408134,"699":0.008061833977014732,"700":0.009371233194583337,"701":0.008258975176276061,"702":0.009534665873077578,"703":0.007370288683983417,"704":0.0031712021059010016,"705":-0.000715755017492173,"706":-0.003958976740853481,"707":0.0180738002875851,"708":0.002324046871926358,"709":-0.003347195128615678,"710":0.011183553076842328,"711":0.015835743858178798,"712":-0.011320746708693189,"713":-0.007657234276199547,"714":0.008528592774179484,"715":0.004841080992245154,"716":-0.014351875752576081,"717":-0.002625301744758661,"718":-0.00759544361336289,"719":-0.004687823883476194,"720":-0.00502973647626976,"721":-0.010127872470998963,"722":0.033175514004217505,"723":-0.000011919621839436311,"724":0.00041146569803592113,"725":0.011198932225590857,"726":0.0067100227092744364,"727":-0.017110348715494623,"728":0.004054833582303265,"729":0.019984272440328136,"730":-0.013067360108129613,"731":0.007022227558792243,"732":0.001789830101985897,"733":0.013566671980279164,"734":0.015118590962770016,"735":-0.0048943566835521965,"736":0.011414278680374446,"737":0.01913877415264677,"738":-0.01647003389838343,"739":0.011140837428921371,"740":-0.00364663101162899,"741":-0.01033519311010406,"742":-0.0062696584075036055,"743":-0.00855727511827367,"744":0.005059881722295787,"745":-0.007924990558996097,"746":-0.00556198045944414,"747":0.02456265538925617,"748":0.013311442103483983,"749":0.02525131772496611,"750":-0.008919447371436602,"751":0.004419537576477351,"752":0.006259623107268587,"753":0.0089957260860117,"754":-0.001992272754286008,"755":-0.006983440601066439,"756":-0.007615065645164104,"757":0.006242269181187497,"758":0.0025837499115709634,"759":0.009742113091471515,"760":-0.0013826341779798752,"761":-0.009138444956977588,"762":0.03114604248858548,"763":0.020809686128343573,"764":0.018676948601130377,"765":-0.016083272095410918,"766":-0.008554046961092993,"767":0.026343304387128917,"768":0.014742512674355243,"769":-0.014100240216068505,"770":0.013250246424489805,"771":0.005036125590807366,"772":-0.016111262268406593,"773":0.019021810283756907,"774":0.0172486661108967,"775":0.0019463894128752427,"776":0.0014875348054088106,"777":0.00987536913649415,"778":0.004093867647769458,"779":0.0070715372332618405,"780":-0.024038033118217134,"781":-0.000768968348594118,"782":0.02480059117965687,"783":-0.006524602453980762,"784":-0.007487776636987386,"785":-0.007186856994513459,"786":0.00239893138744205,"787":0.0169662169269942,"788":-0.013128922808849896,"789":0.01056444530831039,"790":-0.0032244648913125106,"791":0.031259202670562626,"792":-0.006696517187417671,"793":0.003430276728947764,"794":-0.01542421686206432,"795":-0.005682678595260544,"796":0.03720610418779222,"797":-0.0008766517419969847,"798":0.01650065652936034,"799":-0.010179262221115029,"800":0.020131735333403598,"801":0.019235342884328682,"802":0.001134120589321209,"803":0.0006709550797350863,"804":-0.013035801860569563,"805":-0.014994071571372041,"806":0.001996192287647081,"807":0.01220427614868757,"808":0.008064019159117393,"809":-0.01997129237979462,"810":0.013585388095060423,"811":0.006640403345008643,"812":0.013554195667044917,"813":0.02799254467241042,"814":-0.02476176473003037,"815":-0.008413711304840837,"816":-0.0013327224766929116,"817":-0.007125883083230881,"818":-0.006325713865841038,"819":-0.0057916497325019,"820":0.023314055723566093,"821":-0.0084651502833042,"822":0.007400464165782336,"823":0.006265407423347777,"824":-0.005975528075893771,"825":0.017470228576516627,"826":0.0057914933126498366,"827":0.016605539191536293,"828":0.006315222154662289,"829":-0.00016047613464883624,"830":0.005587269832594747,"831":0.011588965052418672,"832":-0.0009974739911037594,"833":0.0011065962688116121,"834":-0.013996344608778757,"835":-0.014664949931381413,"836":0.03802231917872906,"837":0.009835680308402098,"838":0.0760378098632646,"839":0.0019816160441586553,"840":-0.021852026528198305,"841":0.004817541344583384,"842":-0.003131764249083411,"843":-0.011775520782385578,"844":0.0073092667483246965,"845":0.0613899442823846,"846":0.0037454604739700246,"847":-0.018675551385506875,"848":0.010414941488767081,"849":0.013261776270200882,"850":-0.012977640674581072,"851":-0.005428572108177509,"852":0.06302919192327508,"853":0.013431306338579004,"854":-0.009900712014995768,"855":0.020893067642039832,"856":0.007386931318322954,"857":-0.0026937042414830747,"858":-0.004012847950607316,"859":0.08844145975226861,"860":-0.0036029871701321325,"861":0.002599947848304771,"862":0.016885217336227155,"863":0.008054638192332299,"864":0.004153199958462536,"865":0.009129627124816226,"866":0.014611603295077439,"867":-0.009132260333225607,"868":-0.0038559356111963774,"869":-0.0008139634417066192,"870":0.013930532245045356,"871":-0.007641177704017932,"872":-0.005394945930210327,"873":0.008415894689676566,"874":0.005323520286749827,"875":0.010218084771803455,"876":-0.014481506574196416,"877":0.00042807017302860963,"878":0.0039021002429245615,"879":0.001791395812093436,"880":0.03631129665538273,"881":-0.008102599988901622,"882":0.007241518217332942,"883":-0.008828907087844949,"884":-0.009556408435310209,"885":-0.006737407164900082,"886":-0.0023996735131887447,"887":0.016812442280758847,"888":-0.014459992644589716,"889":-0.002776319153234523,"890":-0.0009409157761110247,"891":0.016467243715535217,"892":-0.012716301950343655,"893":0.0006380623733809853,"894":0.003270059748244955,"895":0.007753756225598497,"896":0.0026641965569795378,"897":-0.012801783688087513,"898":0.0012762030786922097,"899":-0.0038598869655816852,"900":0.0027267768939422013,"901":0.007906971785932491,"902":0.028761551270959893,"903":0.01731421666029314,"904":-0.004049321734471386,"905":0.0016106198357784577,"906":0.01669258745349079,"907":0.008415387366520841,"908":0.01842447055348848,"909":0.005048676263482196,"910":-0.0126854213136019,"911":0.016273307219668087,"912":0.005161831645828735,"913":-0.008760109210864305,"914":-0.01358165163497708,"915":0.0008495539788349605,"916":-0.003093292446949156,"917":-0.013919782516338916,"918":0.021110745522580313,"919":-0.016638977943611875,"920":0.0043695628836916845,"921":-0.003630049142551948,"922":-0.003598510723795558,"923":0.02977380631190875,"924":0.005393852139681073,"925":0.004777786899661938,"926":0.009395651309799299,"927":0.00386077924154192,"928":0.00039536630395474914,"929":-0.01666147485491643,"930":-0.0011770074591660586,"931":0.005327310212040372,"932":0.012205687681840644,"933":-0.007137367899236222,"934":-0.006342537691473548,"935":0.0021173613148269244,"936":0.022270521383502186,"937":0.011258850380930389,"938":0.003947173978195754,"939":-0.007588700698833746,"940":0.013697298772503934,"941":-0.012375646372472397,"942":0.014822571521279382,"943":0.026963989622177026,"944":0.006283922209363749,"945":-0.010351310060319937,"946":0.000649840572753569,"947":-0.015764084464487252,"948":-0.008228535305369905,"949":0.0028796164757858246,"950":0.024524824979761734,"951":0.0069193651430799336,"952":-0.005430610652593917,"953":-0.010115511618027559,"954":-0.012876780131794103,"955":-0.0009609849488790193,"956":-0.010834170103831685,"957":0.05179482679600475,"958":-0.011695597088200229,"959":0.002623198859776956,"960":0.00495333462344075,"961":-0.02549734338824713,"962":-0.02082646010711205,"963":-0.009278221813035496,"964":0.033303329882095556,"965":0.014015172827283378,"966":0.004380783673146931,"967":-0.00479796567023045,"968":0.008022448514078077,"969":-0.0028983470954013837,"970":0.010920682086579139,"971":0.007767970525416492,"972":-0.016623011517475774,"973":-0.010215828688603948,"974":0.0021355178328238415,"975":-0.0249458369514629,"976":0.03247772209742652,"977":0.005455642023091931,"978":0.0018898681432455845,"979":-0.0027143370945695486,"980":0.010145214996730096,"981":-0.030493676506226784,"982":0.009374901033136896,"983":-0.0034024926523487636,"984":0.007722937644886554,"985":0.00688505477909079,"986":0.01800965953754223,"987":-0.007420308056493515,"988":0.0014609952454201578,"989":0.02321772681326303,"990":0.003422642653504249,"991":0.012553384781649314,"992":0.007565589612134914,"993":-0.003793330940593597,"994":-0.007104508411509953,"995":0.003867519203319491,"996":0.0013384996031121554,"997":0.004412526378827373,"998":-0.015776338528195863,"999":0.01478701379266326,"1000":0.009332103635354246,"1001":0.003568674601629958,"1002":-0.010907879699178951,"1003":-0.011021670088241085,"1004":-0.0017352872070868718,"1005":-0.0004314173923836681,"1006":0.010888649395955602,"1007":-0.001821719659277559,"1008":0.0030870003782083565,"1009":0.00022742759770118796,"1010":-0.015119580359382755,"1011":0.022502496280244002,"1012":0.023484347411606578,"1013":0.007384396135104276,"1014":0.010075707842909844,"1015":-0.0055173086699853505,"1016":0.011039103760622324,"1017":0.0017195526865202947,"1018":-0.0055987262899315025,"1019":0.007191534059310638,"1020":-0.0006402398102956661,"1021":0.005643796892943473,"1022":-0.017566224776299252,"1023":0.0032842267709062745,"1024":-0.014333770704256916,"1025":0.012207483848814111,"1026":0.019482484050085555,"1027":-0.006756329729065445,"1028":-0.004676278272573659,"1029":-0.000848305366760574,"1030":-0.0031694779027387574,"1031":0.022285476773844674,"1032":-0.024329637711772437,"1033":0.019852453519656327,"1034":0.013084060814802694,"1035":-0.010552266691136451,"1036":-0.01355615537381489,"1037":0.015230075025840626,"1038":0.018417781948822123,"1039":0.003245665772769572,"1040":0.0033735845262989317,"1041":0.013105680031053418,"1042":-0.008283891965883118,"1043":-0.0030243543012638346,"1044":-0.002590924410908584,"1045":-0.021769910017449344,"1046":0.004535424522172477,"1047":0.027070693962531093,"1048":-0.001825004277923748,"1049":-0.03917990774896691,"1050":-0.016226680222117054,"1051":0.0011632866167802767,"1052":-0.012677774221323683,"1053":-0.004042289374436922,"1054":0.0006503251059100436,"1055":0.020391027653002197,"1056":-0.017115551991746854,"1057":0.0008772103419809323,"1058":-0.011324979482135917,"1059":0.002379624713150224,"1060":0.0031108632160033074,"1061":0.03722069320363311,"1062":0.011150043868940095,"1063":0.0044597235809883595,"1064":-0.012357899302681672,"1065":-0.0006674386949641504,"1066":0.004472062529419322,"1067":0.0190516545243261,"1068":0.009215161875970202,"1069":-0.003942692882787771,"1070":0.003304153736233119,"1071":0.004581614758692735,"1072":-0.018562592619433705,"1073":-0.019606226206096634,"1074":-0.007616539459544533,"1075":0.00498769370528756,"1076":-0.012393958634480664,"1077":0.0016676482597677473,"1078":0.02564868160449807,"1079":0.019188117240946063,"1080":0.0010517254179513958,"1081":0.011857940904630606,"1082":-0.014391883575176125,"1083":-0.007681663390695967,"1084":0.000623746604678159,"1085":0.0018526425693295356,"1086":0.002394724027166133,"1087":0.008040727131139746,"1088":0.0031939583821878944,"1089":-0.02120364864444326,"1090":0.0031169208546594804,"1091":-0.012838338427221941,"1092":-0.029602245914697983,"1093":0.0034763006056899954,"1094":0.003254906299273309,"1095":0.0005402690334415093,"1096":0.015687910385042164,"1097":-0.002828475279786664,"1098":0.005759947086822207,"1099":-0.0036269087754308158,"1100":-0.01048964432856559,"1101":0.002920075432642855,"1102":-0.008037964244832206,"1103":-0.010711516661009389,"1104":0.0020882525691804385,"1105":0.002616225634525171,"1106":-0.004465971922837253,"1107":-0.006694818872738651,"1108":0.0023283288239228546,"1109":-0.03897508660447211,"1110":0.0008535733893517375,"1111":-0.011346507594699821,"1112":-0.008586607641711022,"1113":0.009786687671958725,"1114":0.01175597359172545,"1115":-0.00611121161995357,"1116":-0.002478204316267789,"1117":-0.008934301737515474,"1118":-0.0052839981383842,"1119":-0.0065520624143162514,"1120":-0.011003614848067946,"1121":0.00511077020402136,"1122":0.015170311792331265,"1123":-0.018109443904671296,"1124":0.007215420006440002,"1125":-0.018105808418607223,"1126":0.0006386950518853494,"1127":0.014019939575704478,"1128":-0.014562443916517662,"1129":0.00461337413134824,"1130":0.0008614671993918462,"1131":-0.03267433009770942,"1132":0.0008869612877102348,"1133":0.004306735747805008,"1134":-0.019758923255176548,"1135":-0.003645461307703572,"1136":0.0019052732767835489,"1137":0.0024837952398751285,"1138":-0.03405447863641408,"1139":0.02796363460525765,"1140":-0.0021478365910917053,"1141":-0.005854650663655077,"1142":0.0006383496159506448,"1143":-0.02720617075779777,"1144":-0.0026995237678153644,"1145":0.007031125556541295,"1146":0.01356606568423842,"1147":-0.013218515898200568,"1148":0.005921631275452999,"1149":0.00045912234578392315,"1150":0.01902954660974853,"1151":-0.003720538714820686,"1152":-0.007685741140918171,"1153":-0.003944435494084469,"1154":-0.003808977213754126,"1155":-0.00764628108899335,"1156":-0.0007010316361694382,"1157":0.012342991206475437,"1158":0.024096885193946267,"1159":0.017443688078647056,"1160":-0.001075375001803278,"1161":0.008653117049175464,"1162":-0.005293187374807706,"1163":-0.012718256842850677,"1164":-0.003199516264797217,"1165":0.015222194977644056,"1166":-0.007661421177324577,"1167":-0.0004849578139645208,"1168":-0.0007152611401486189,"1169":0.012981135965741965,"1170":-0.0028858966900644715,"1171":0.018973364659251726,"1172":0.0018701655693457236,"1173":-0.004259645205735705,"1174":-0.012581522919623297,"1175":-0.022228284057421565,"1176":0.0023733683573753266,"1177":-0.00004243569294258895,"1178":-0.0021571311327161164,"1179":0.004048892459478441,"1180":-0.004183453954398113,"1181":0.004440680806095665,"1182":-0.013963118206348874,"1183":-0.01248722139571673,"1184":0.005820087312441182,"1185":-0.0028702846541402657,"1186":0.003688457925380138,"1187":-0.011621496800941714,"1188":-0.008029656857997763,"1189":0.004735379454062379,"1190":0.005152642239411778,"1191":0.016775387575563697,"1192":-0.02393531226497644,"1193":0.00396090456871771,"1194":0.02125544822597798,"1195":0.006389412700928238,"1196":-0.005664557045157609,"1197":0.022121064149396505,"1198":-0.03339189071780962,"1199":0.014002612447291037,"1200":0.0005969419857919446,"1201":-0.0015895460993203003,"1202":0.01880282856970413,"1203":-0.0038244331127525095,"1204":-0.012023787619630572,"1205":0.0078923717417178,"1206":-0.027451368349322856,"1207":0.002144719065222515,"1208":-0.0032813704820819746,"1209":-0.00765845857912103,"1210":0.008903075396254657,"1211":-0.02459366847132133,"1212":0.023671565282995508,"1213":0.004780061351850446,"1214":0.0009733481982879588,"1215":0.017271025388500363,"1216":-0.00694461492387921,"1217":0.0029402909877817166,"1218":-0.02415501674902926,"1219":-0.0021662020762179585,"1220":-0.0021016157906086704,"1221":-0.029843751599433806,"1222":0.023641350907733838,"1223":0.009282148934601884,"1224":-0.00848647060355946,"1225":0.03023935111714849,"1226":-0.014462136548269009,"1227":-0.01353317576407801,"1228":-0.0038580045192341335,"1229":0.004935648395208632,"1230":0.01644462037606807,"1231":0.017578363992461946,"1232":0.007799599616590506,"1233":0.009767859389929861,"1234":-0.005658513838844725,"1235":-0.022858851196441463,"1236":0.020614092031684968,"1237":0.006530004852609178,"1238":-0.009655197470896512,"1239":0.003636151445535617,"1240":0.008771991354852196,"1241":0.013542780755037013,"1242":-0.01281602544096133,"1243":0.022270753785837365,"1244":0.007314517779065674,"1245":0.014169382275630252,"1246":0.0210794733271491,"1247":0.006528608301207521,"1248":-0.017157486359733964,"1249":-0.004046680436303409,"1250":0.004798845194223707,"1251":0.018553543658452357,"1252":-0.007579205950726705,"1253":-0.000987387896214636,"1254":0.00439286902072698,"1255":-0.00252364432399703,"1256":-0.016137839286742058,"1257":0.0021761842602097924,"1258":-0.0007433887744896401,"1259":-0.0008739449386147648,"1260":0.019468170937236007,"1261":-0.019107046744848276,"1262":-0.006739504925603902,"1263":-0.0338558961880103,"1264":0.020193461357276524,"1265":-0.011626700373865621,"1266":0.0017084617925488704,"1267":-0.006388143500082819,"1268":-0.01080919832293476,"1269":0.007883577971159557,"1270":0.006595802826276475,"1271":-0.008633637888247435,"1272":-0.016331317481354607,"1273":0.002491617874322886,"1274":0.01692826916349848,"1275":0.009771108503424778,"1276":0.005238521596426424,"1277":-0.003612489902375922,"1278":0.0068819812115477,"1279":-0.0006489730792852623,"1280":-0.008884784956135362,"1281":0.0041091721191191515,"1282":0.0016770335660103552,"1283":-0.008433041034289207,"1284":0.01330745951937797,"1285":0.016445697433533437,"1286":-0.00701423117185437,"1287":-0.01283576354382445,"1288":0.01669836244896308,"1289":-0.0010060609971740367,"1290":-0.004033687317311046,"1291":0.0036387656534085247,"1292":0.0024120085608496902,"1293":0.003652143039763358,"1294":0.00772437940432888,"1295":0.01453522898822091,"1296":-0.016107362986200142,"1297":0.0011066060414560886,"1298":0.016256152192346864,"1299":-0.0007867314408372677,"1300":-0.005546112286682347,"1301":-0.009550716190490824,"1302":0.014278660495143434,"1303":-0.011811298544328244,"1304":-0.009226062222899163,"1305":0.029766665025720104,"1306":-0.0025610660224810755,"1307":0.0020961239341201663,"1308":-0.016649301149784995,"1309":0.006980669357963799,"1310":0.032772466826813985,"1311":0.003590498205165524,"1312":-0.005516184854976924,"1313":0.0034129125585691785,"1314":-0.01323317282739405,"1315":0.004860881310553071,"1316":0.006608813188663814,"1317":0.00925573066139452,"1318":-0.00007501411755629346,"1319":0.012686203425248439,"1320":0.006488341510054954,"1321":-0.010553014551278462,"1322":0.004515299832371838,"1323":-0.0010169078210582594,"1324":0.012031688469302077,"1325":0.007112059814657743,"1326":-0.004011797891308076,"1327":0.008319039759387888,"1328":0.008326473169827374,"1329":0.0020055762147383337,"1330":-0.011499880709670703,"1331":-0.007579562701244059,"1332":-0.01771749872323459,"1333":0.0047840215703568775,"1334":-0.0009503520829583904,"1335":-0.00895506689898436,"1336":0.03027285733837365,"1337":-0.012277349900262488,"1338":-0.017211655596087946,"1339":0.014061290101330842,"1340":-0.007765524022687624,"1341":0.0008933144394212967,"1342":0.031529321789662966,"1343":-0.00012685822522087888,"1344":0.0077046134483992985,"1345":-0.012881283773795793,"1346":0.0019142669960847576,"1347":0.022584107551369397,"1348":-0.004063515332443008,"1349":0.031739236286087144,"1350":-0.005771453954989477,"1351":0.0164101694744859,"1352":0.0014835594267363817,"1353":0.004165397874699135,"1354":0.013712298963112093,"1355":-0.0031496163826766213,"1356":-0.00016371555776214795,"1357":0.005899625103938153,"1358":-0.017748611523902204,"1359":-0.005687331555305013,"1360":0.014362650092069744,"1361":0.010934795583026269,"1362":0.007145821678901159,"1363":-0.011633782903980622,"1364":-0.003580146058252471,"1365":0.01148591526309377,"1366":-0.0008309987144851575,"1367":0.007190314145452149,"1368":0.001360817866670732,"1369":-0.017306894700168416,"1370":0.008449627340699702,"1371":0.004653949961620006,"1372":-0.025619333639916052,"1373":0.003829724239325173,"1374":-0.0011000036772303872,"1375":0.008852341014887063,"1376":-0.002210858856833204,"1377":-0.029369098336536354,"1378":-0.017201033987347646,"1379":0.00027927867153645713,"1380":-0.011349493466371435,"1381":-0.005089723195582594,"1382":0.006111900341558385,"1383":-0.005456819547368104,"1384":-0.007251602315199002,"1385":0.00012230006387881827,"1386":-0.012292354495347034,"1387":-0.018014725318947822,"1388":0.0020425810410888245,"1389":-0.014365493773930671,"1390":-0.007854835711107285,"1391":0.005478487789747974,"1392":-0.013124121159650615,"1393":0.007765069969179347,"1394":-0.0021475081830651345,"1395":-0.018132942682765597,"1396":0.010255278792155773,"1397":-0.0014027920336279645,"1398":-0.029628164931981654,"1399":0.014029584319063124,"1400":-0.006164508334258435,"1401":0.007205317125865431,"1402":0.009038069681143126,"1403":0.008342517991326017,"1404":-0.011874690845118292,"1405":-0.008177077759860877,"1406":-0.008610563487448894,"1407":0.002105070226912474,"1408":-0.017267091069827167,"1409":-0.00004920573590832045,"1410":0.01141662549673108,"1411":0.0054479720809957975,"1412":0.0033674313454361018,"1413":-0.03102764479614859,"1414":0.0138610433249535,"1415":-0.0019982327975009294,"1416":0.005143627064328756,"1417":0.007910272284361046,"1418":-0.003713279871166855,"1419":0.009769629230652586,"1420":0.02663002778959805,"1421":0.03856228781583168,"1422":-0.013637267944577541,"1423":-0.008575231491529476,"1424":0.004372886730940481,"1425":-0.018549975359934377,"1426":-0.007172513497351987,"1427":0.009100116093468377,"1428":0.001181957766260035,"1429":0.022649721556802952,"1430":-0.018102517427807926,"1431":0.0028913076305530855,"1432":0.004258727164520343,"1433":-0.01917167541010004,"1434":-0.006694076413364299,"1435":-0.007745182587297515,"1436":-0.0022436698583294637,"1437":0.005857969390517563,"1438":-0.015908951236827767,"1439":-0.0042560924067244175,"1440":-0.027493383138496467,"1441":-0.0008933847421435953,"1442":0.0049608970287528175,"1443":-0.02065526027390478,"1444":-0.010835315317772425,"1445":0.008436898046125949,"1446":0.010061339907186667,"1447":-0.0019956420117332417,"1448":0.003822963291087908,"1449":0.017651647173455205,"1450":-0.0113076289828612,"1451":-0.012623707628764478,"1452":-0.016629475159595262,"1453":0.005715959654304989,"1454":0.006458342170568436,"1455":0.014464153066701254,"1456":-0.006414743195308748,"1457":-0.00642418302014831,"1458":-0.007703754408767033,"1459":0.005388605840969048,"1460":0.002653911882309121,"1461":0.017807538005694703,"1462":0.002193136090915376,"1463":0.0032133198059651398,"1464":-0.010794806547887618,"1465":-0.0023996085241707295,"1466":-0.008145431591170942,"1467":-0.007561116915746901,"1468":-0.00720556435873644,"1469":0.002270277459079055,"1470":-0.009414504898529564,"1471":-0.018278849673260388,"1472":-0.006614823600139712,"1473":0.035311542127910246,"1474":0.002004682336878049,"1475":-0.013646286235670414,"1476":0.0010072014038871202,"1477":-0.0160253348351296,"1478":-0.0028589062874088927,"1479":-0.0017098558002263445,"1480":-0.0093605097611011,"1481":-0.012292542278117952,"1482":0.028738615972981732,"1483":0.004775890932464491,"1484":-0.013505400984776046,"1485":-0.005270926042408207,"1486":0.009892152750681097,"1487":0.004198628103784247,"1488":0.002163404930685657,"1489":-0.00179587687059368,"1490":-0.00024396208964428794,"1491":0.01916665490865988,"1492":-0.007666262094305037,"1493":-0.007140624729515674,"1494":-0.024660570948417882,"1495":-0.027206699982174523,"1496":0.011587714101372867,"1497":0.007522035141529081,"1498":-0.009625540288946527,"1499":0.0024320253587407953,"1500":0.022695387928992648,"1501":0.014432038539331239,"1502":0.003281028081809242,"1503":-0.01573683389078072,"1504":-0.005820694238421918,"1505":0.013676863117623683,"1506":0.025792912188989367,"1507":-0.01006559642727901,"1508":-0.010107878637522267,"1509":-0.0016323372671481976,"1510":0.020069568162393272,"1511":0.007881931068498724,"1512":-0.022578676683024212,"1513":0.00532123045579715,"1514":-0.0025622087277230765,"1515":-0.0012943120553724696,"1516":0.006737726164201781,"1517":-0.012863911428697418,"1518":0.004117243162921363,"1519":-0.007049790424634685,"1520":-0.016374272479122272,"1521":-0.02504895552533437,"1522":0.003902256111186633,"1523":0.0007680486060184947,"1524":0.0006162820737914466,"1525":0.005033658915929037,"1526":-0.01919174227691523,"1527":-0.013350200539834012,"1528":0.006755408982494091,"1529":-0.016021468851563296,"1530":0.01679954007044595,"1531":-0.009493719574731762,"1532":0.00793598450566615,"1533":0.00019733318162757746,"1534":0.012949282338935875,"1535":0.010845289053607264,"1536":0.012313576099402796,"1537":-0.0003539146148590156,"1538":0.009901141627351432,"1539":0.001420927819478799,"1540":-0.007236708272369973,"1541":0.012128899129491324,"1542":0.0028210924543700337,"1543":-0.017902925447617294,"1544":-0.01249240518062037,"1545":-0.02500790091481806,"1546":0.01571847252234821,"1547":-0.000574623436569996,"1548":-0.011561066955688044,"1549":0.004109849944423716,"1550":-0.006116143520445634,"1551":-0.015721557818274254,"1552":0.0009552754322139723,"1553":-0.008913624658764491,"1554":-0.009407759392619293,"1555":0.0037327728075816817,"1556":-0.0023063523039265287,"1557":0.011076735806412831,"1558":-0.004256899475708893,"1559":-0.018115690272194136,"1560":-0.021365161719589736,"1561":-0.012922692115289165,"1562":-0.017653973199681573,"1563":-0.009970982194799279,"1564":0.027283600562760964,"1565":-0.017917618451736745,"1566":-0.0034428392000368274,"1567":0.018670095599953182,"1568":-0.005554336695153152,"1569":-0.019830609730234306,"1570":0.013935858120599316,"1571":0.0024202303281717153,"1572":-0.012639125511383709,"1573":-0.005842213983593769,"1574":0.0262412421991894,"1575":-0.020334018853617027,"1576":-0.008268011612936811,"1577":0.004926701238545993,"1578":-0.004899563048751742,"1579":-0.0002470196656591495,"1580":-0.02234510588574346,"1581":0.017452148687176917,"1582":0.009228174781464215,"1583":0.0023099753013287668,"1584":-0.015161562322152366,"1585":0.007236169616997583,"1586":0.021364089878184264,"1587":0.016037593560351664,"1588":-0.0059645955084927016,"1589":0.017063613402804885,"1590":0.004843147042627317,"1591":0.015239036785844814,"1592":0.0008811899475978616,"1593":-0.004291490220096803,"1594":0.005698083082821227,"1595":0.0036467271733441778,"1596":0.01983046487887272,"1597":-0.0022020909318102777,"1598":-0.01592344546099209,"1599":-0.015962183105105554,"1600":0.012651421620858324,"1601":0.004930404178338041,"1602":-0.01258106026077049,"1603":-0.01921097075343626,"1604":-0.00027981956864060053,"1605":-0.0015468697503788287,"1606":0.015125985426470312,"1607":-0.008747801147485397,"1608":-0.005440148435421692,"1609":0.0029148898240074408,"1610":0.023722373223473543,"1611":-0.014217730767947776,"1612":0.017293238676732842,"1613":0.008194582640163841,"1614":0.004786465093870953,"1615":-0.002727227722538347,"1616":-0.0014477886775197371,"1617":-0.011949279849056077,"1618":-0.001749851088087373,"1619":0.0027670681230702212,"1620":0.009532560894486067,"1621":-0.02474296912013502,"1622":0.02564412842409313,"1623":-0.0005714641839381076,"1624":0.0005199394365809246,"1625":-0.014921276708505241,"1626":-0.002022672906588924,"1627":-0.018827752094477127,"1628":-0.01027793862398495,"1629":-0.012473124979734969,"1630":-0.015651760179765287,"1631":-0.002540960272216519,"1632":-0.0028487389100135393,"1633":0.010019063585735144,"1634":0.004021182497131671,"1635":-0.011369630187643856,"1636":0.005924083230296758,"1637":-0.005798185512630758,"1638":-0.0029140585645014206,"1639":-0.014269104089613611,"1640":0.00026000520995355313,"1641":0.012263533190237218,"1642":0.0027539346406076685,"1643":-0.006502137249623457,"1644":0.01250902573806923,"1645":-0.0044292918413050076,"1646":0.022230668610549,"1647":-0.007414949296012009,"1648":0.00747056190481244,"1649":0.01148785486244992,"1650":-0.0003835335435765126,"1651":-0.007222506070642793,"1652":0.01165721801051167,"1653":0.014180953890005458,"1654":-0.0032238757548898943,"1655":-0.011480292923581123,"1656":-0.011695097146204987,"1657":0.004018643912980725,"1658":-0.0012564260238650071,"1659":-0.000601539618865774,"1660":0.0008093288280805543,"1661":-0.007131273653983926,"1662":0.0025008941020589607,"1663":-0.016177746784911202,"1664":-0.012573321431811588,"1665":0.016850086102551454,"1666":-0.0037084577641443976,"1667":-0.01556950271681615,"1668":-0.0005258960724097608,"1669":-0.006632231680768863,"1670":0.025853967719094928,"1671":-0.007726698013899287,"1672":0.001203972544467331,"1673":-0.0010194824478616908,"1674":0.001508620394060102,"1675":-0.005395143771641314,"1676":-0.006259523533337486,"1677":0.021936318269927448,"1678":-0.00023024205263693254,"1679":0.012089953018935127,"1680":0.00023102512373285208,"1681":0.009097237696720684,"1682":-0.0030781237472390405,"1683":0.00598309108727812,"1684":-0.010106755422695932,"1685":0.005141143397475454,"1686":0.013946673655250269,"1687":0.011936429394925938,"1688":0.0011897298406709266,"1689":-0.008872616353898875,"1690":0.01759912024422666,"1691":-0.003925800870070169,"1692":-0.011908382271049536,"1693":0.0003265033284556678,"1694":-0.024119013019599157,"1695":0.005999476361421467,"1696":0.0032423041876283617,"1697":-0.0004138382885380337,"1698":-0.018577272265924046,"1699":-0.004377094798261412,"1700":0.0008311486021571114,"1701":0.01671123267769942,"1702":0.009446933909817446,"1703":-0.008592976027119044,"1704":-0.0007552665462635396,"1705":-0.006230648483692489,"1706":0.0206365239816067,"1707":0.020352966725769552,"1708":-0.003442893879173844,"1709":0.01763554600020818,"1710":0.010218347054450086,"1711":0.01968832453697432,"1712":-0.022224929173859657,"1713":-0.0009368112756288773,"1714":0.010901790342742941,"1715":0.007780685700830142,"1716":-0.020711702586955198,"1717":-0.0042794893546666615,"1718":-0.01926920393739291,"1719":-0.0003120572714078815,"1720":0.006342655188168801,"1721":0.013179174445531615,"1722":-0.026189395347989343,"1723":-0.025452220761502213,"1724":-0.01709923523077958,"1725":0.023053161762907788,"1726":-0.005898494195466893,"1727":-0.006307843845069322,"1728":0.007564577761800415,"1729":-0.023806822176961,"1730":0.011226493383369535,"1731":0.02314825368071135,"1732":0.02129631591149109,"1733":0.0003966743797445319,"1734":-0.009428097767976942,"1735":0.016258907303463,"1736":0.004147095922247968,"1737":-0.0011436378633008083,"1738":-0.005845026704004399,"1739":0.007773898045680285,"1740":-0.02207650858035367,"1741":0.012018164061683967,"1742":-0.0013632213284571005,"1743":-0.0033385745821446363,"1744":0.011169905566203347,"1745":0.0004823817846963095,"1746":-0.00855763182816108,"1747":-0.002259120799172981,"1748":0.007265530148926052,"1749":0.02915575838796444,"1750":-0.027834833282761175,"1751":0.0025656063515892965,"1752":-0.003464884227947602,"1753":-0.01707522936660564,"1754":0.008304919275575594,"1755":-0.007164499325120015,"1756":0.008402179039446086,"1757":0.020542806801504717,"1758":0.008873918682322537,"1759":-0.0009324252627726402,"1760":0.005870553193144897,"1761":0.0022730208455990168,"1762":-0.0009927825050066392,"1763":0.0003199796767727101,"1764":0.0013234275617832825,"1765":0.006620972738375734,"1766":-0.0140010890529364,"1767":-0.009526261917772191,"1768":-0.016495149379664505,"1769":-0.028112016534386077,"1770":0.002384714561045564,"1771":0.00947027167399183,"1772":-0.0022410818360864677,"1773":0.012551266133925576,"1774":0.012784826277459568,"1775":-0.012208715726867207,"1776":0.0005989581542465037,"1777":0.019245331864854415,"1778":0.021881906948273362,"1779":-0.011747955596824568,"1780":-0.03843443912749152,"1781":0.0025366376479589066,"1782":0.012003880036070997,"1783":0.0006250894907393407,"1784":-0.007867490024909465,"1785":0.006435457164415884,"1786":0.008450301778919157,"1787":-0.0007113248922283095,"1788":0.003942383614326443,"1789":-0.003042385166562334,"1790":-0.006681569799850786,"1791":0.0064755599761868255,"1792":0.0001659000290386767,"1793":0.004290986724983143,"1794":0.01747267759013022,"1795":-0.006829089904475644,"1796":0.01600229959938913,"1797":-0.007008449546120613,"1798":0.005701600352378139,"1799":0.009197704914445467,"1800":-0.00750055160474403,"1801":-0.012929266651007708,"1802":0.009050437078444525,"1803":-0.0050620468392801815,"1804":-0.0016396180719662383,"1805":0.007678941014176876,"1806":-0.007619976817423045,"1807":0.00709470317950216,"1808":-0.008821754085754276,"1809":-0.00588636482299885,"1810":0.0053777813550594964,"1811":-0.004036307781822804,"1812":0.008927439300746859,"1813":0.015648539828860983,"1814":0.014113893014166323,"1815":0.011018705765206303,"1816":0.0010124766725898193,"1817":0.01023188885524552,"1818":-0.007230090589706207,"1819":0.006099727208836401,"1820":0.005308215732563948,"1821":-0.01070764979124978,"1822":0.011139217373560608,"1823":0.013034326575269727,"1824":0.01986811303693476,"1825":-0.009894266848475716,"1826":-0.010002469070678015,"1827":-0.01600498588385087,"1828":0.0012454479716030266,"1829":-0.0005622750212080311,"1830":0.01082033819541748,"1831":0.013715319088714338,"1832":0.0044355772189067985,"1833":-0.01666455707016836,"1834":0.0028842203668185996,"1835":0.01972029571928281,"1836":-0.0050172775267207015,"1837":0.001851947491377822,"1838":-0.01743100279733481,"1839":-0.019178600754319517,"1840":0.018531259045143633,"1841":-0.03671445122473051,"1842":0.011784245661285827,"1843":0.009113643018828574,"1844":0.013505388867282545,"1845":-0.012544803417375287,"1846":0.025240555383508185,"1847":-0.004211433384051766,"1848":-0.005503958472448621,"1849":0.0013475332431086295,"1850":-0.014453516498236762,"1851":0.012160827991323297,"1852":-0.02140273484924982,"1853":0.010662728694356144,"1854":0.010029547742163643,"1855":0.007658653422438577,"1856":0.011495615774820968,"1857":0.008912998693789354,"1858":0.002091993937755833,"1859":0.01331180345488334,"1860":0.0023199489464335627,"1861":0.004398319030521296,"1862":0.004829483336850059,"1863":0.020238059768739613,"1864":0.008254921760708658,"1865":0.01130572644294902,"1866":-0.011754773502124378,"1867":0.002335884528634207,"1868":-0.00712332211699582,"1869":-0.002402237238815595,"1870":0.008564658712792921,"1871":-0.030665796023189737,"1872":0.008860471994763452,"1873":0.004235248038812553,"1874":0.0032547296753822797,"1875":0.004137732924905958,"1876":-0.005106563598336468,"1877":-0.0026557943775510472,"1878":-0.022338511021090527,"1879":-0.007271724985956349,"1880":-0.015195714519762211,"1881":0.00888029946654477,"1882":-0.0031383720667003782,"1883":-0.005920199487830333,"1884":-0.025483256015103307,"1885":0.013658913111988972,"1886":-0.01608405638580779,"1887":0.01288264097806372,"1888":-0.007053539577910609,"1889":-0.0018589682996262293,"1890":0.0054678030570062585,"1891":0.025826210865711387,"1892":0.016239812378918785,"1893":-0.008644717766707144,"1894":0.022642843769680846,"1895":0.007449302600946926,"1896":0.018976922084418306,"1897":0.008924726839262879,"1898":0.015729577270713623,"1899":0.0013813992260593491,"1900":-0.013495142648091419,"1901":-0.019597137578123477,"1902":-0.02284136282595428,"1903":-0.0008516122854074153,"1904":-0.0024364192230834263,"1905":0.012300124276087765,"1906":0.009115098837386974,"1907":-0.005411759753350684,"1908":0.008643807455204367,"1909":0.005360042125290618,"1910":-0.012806742644560085,"1911":-0.003925210467484424,"1912":0.007369829253557555,"1913":-0.0023676575248923245,"1914":0.0017471534734161758,"1915":0.02159054465562817,"1916":0.00477086402519517,"1917":-0.006659348283058399,"1918":0.0008434954499329253,"1919":-0.0036120267778992337,"1920":-0.00868800631444974,"1921":0.0065609610386437875,"1922":0.01025135273073426,"1923":0.003030203303391294,"1924":0.02204625755057051,"1925":0.008222012776650602,"1926":-0.017460621871762817,"1927":0.0029882561836809727,"1928":-0.014742928072711776,"1929":0.02761054695768894,"1930":0.010559675576841768,"1931":0.004266170600521094,"1932":0.00952397809737306,"1933":-0.013424584458937013,"1934":0.0233891973827173,"1935":-0.026129095406356908,"1936":0.010677288549909514,"1937":0.007062931413767061,"1938":0.006038285815302299,"1939":-0.0030025889331788676,"1940":0.0008779524197570429,"1941":-0.004693891885056346,"1942":0.013971128756579942,"1943":0.00043019731287393027,"1944":-0.012023747842162152,"1945":-0.022990298326747552,"1946":-0.009769463529106352,"1947":-0.025058856839351346,"1948":0.0011938583492212796,"1949":0.017340737064075202,"1950":0.016608335379882808,"1951":-0.007191055127585653,"1952":-0.0036907299168848517,"1953":0.003959328325864528,"1954":-0.008093388280530262,"1955":-0.01321807434520512,"1956":-0.009686483275929058,"1957":0.0005458261669301159,"1958":-0.018782474134569828,"1959":-0.004428568294463397,"1960":-0.0011771356198568956,"1961":-0.013494526384501692,"1962":-0.02388965335883182,"1963":0.01746703823119935,"1964":0.0006326249082523408,"1965":-0.002369897034589287,"1966":-0.025061538587319684,"1967":0.005160256205578311,"1968":-0.022989199503941175,"1969":0.0011459946304816831,"1970":0.0058376935990924386,"1971":-0.000024146183163274894,"1972":-0.02035350994460955,"1973":0.019646596863540325,"1974":-0.010476605018964453,"1975":-0.007851524727246427,"1976":0.018832260994713912,"1977":0.012014336568238358,"1978":-0.007445892552339817,"1979":-0.0002663721272466549,"1980":-0.008346355462800518,"1981":0.026623545196782242,"1982":-0.004412186455564819,"1983":0.021997445157727027,"1984":-0.015403957997729886,"1985":0.030829019744019748,"1986":0.0062129507626406165,"1987":0.03342188989150353,"1988":0.026992423540148563,"1989":-0.02725782231474424,"1990":-0.00035168370553454635,"1991":-0.004805251447761061,"1992":0.013521659364427244,"1993":0.0025223219736060258,"1994":0.008524824999463164,"1995":-0.0009066885930105703,"1996":0.0072943889970049575,"1997":0.007549273692529608,"1998":-0.004270654023665957,"1999":-0.006581427649509494,"2000":0.005177426524295501,"2001":-0.005391059056150725,"2002":-0.014209712381664543,"2003":0.009729662669824037,"2004":-0.003860033971604217,"2005":0.003546291521245423,"2006":-0.004307195920139425,"2007":-0.014528817430603271,"2008":0.030193179591677846,"2009":-0.011466128707963404,"2010":0.0052706342699103525,"2011":-0.010985109843797943,"2012":0.017993912328823324,"2013":0.00036181639743258315,"2014":0.02503100233850409,"2015":-0.017667082772900657,"2016":-0.0006130190079634901,"2017":0.007916212485918967,"2018":-0.005369683357030886,"2019":0.01413291655950359,"2020":0.013894667062003515,"2021":0.00020392043372395222,"2022":-0.007948893751417156,"2023":-0.0026786066926823096,"2024":-0.015234566056970511,"2025":-0.004872623012666155,"2026":0.0053695797480771785,"2027":0.0029846737475638795,"2028":0.014138818298348975,"2029":-0.0028455236363542045,"2030":0.014847442741923704,"2031":0.005175211224397042,"2032":0.015861137841367175,"2033":0.00011796944151359972,"2034":-0.005251664633081197,"2035":-0.005182327698971085,"2036":0.004956565867572168,"2037":-0.011564701597372098,"2038":-0.01688796492845493,"2039":-0.001970134424964858,"2040":0.005361678748366242,"2041":-0.013701873896317707,"2042":-0.011729527048654063,"2043":0.005775812510390719,"2044":0.00004242524354418778,"2045":0.0039976823413601405,"2046":0.0028286095407006814,"2047":0.007962862532870168,"2048":-0.003017604177256619,"2049":0.00047391427547600174,"2050":0.009160075553782572,"2051":0.019453841768901796,"2052":0.000031469983456152316,"2053":-0.004876148119731332,"2054":0.011884965500944734,"2055":0.015120842872344982,"2056":-0.0038303714202557668,"2057":0.0360304731913849,"2058":0.001173205145823045,"2059":0.028865127227227127,"2060":-0.011445149771273358,"2061":0.019769522272559507,"2062":-0.006258289820840106,"2063":-0.019117810856198316,"2064":-0.0028829752298240616,"2065":-0.011268411900419429,"2066":0.015199823135843681,"2067":0.015910985623418597,"2068":0.0075704161893877875,"2069":-0.004452898678433773,"2070":0.015343807013508669,"2071":0.018958195601780803,"2072":-0.003925001597668986,"2073":-0.0033623507740694184,"2074":-0.011443507255701623,"2075":-0.014084319569675685,"2076":0.021696347093937415,"2077":-0.0057199951025503435,"2078":-0.008205540845162692,"2079":-0.0017717539162270626,"2080":0.0030852961581126783,"2081":0.01601938814670782,"2082":-0.0035202255969582876,"2083":0.018415087325162997,"2084":0.0007507283547438543,"2085":-0.006618154845758251,"2086":-0.002711356203657309,"2087":0.011173935627431955,"2088":0.0010112171957286208,"2089":-0.02022835685203963,"2090":0.015817339166768474,"2091":0.00805109459625171,"2092":0.002597124628864038,"2093":0.0043047366421259045,"2094":0.0066553285506901014,"2095":-0.0024818538576777197,"2096":0.008772584140474795,"2097":-0.0060390156500257156,"2098":0.002577882296259574,"2099":0.016322315312794957,"2100":0.01707114041429108,"2101":0.01290507764834705,"2102":0.01960564431254191,"2103":0.003693123782085643,"2104":-0.006618817461932225,"2105":0.007473600309831406,"2106":-0.007176927147115653,"2107":0.012937146641172058,"2108":-0.0025259003251584195,"2109":0.006301203215327487,"2110":-0.024021301820832324,"2111":-0.023872846618983378,"2112":-0.02260556851298289,"2113":-0.02506960475996967,"2114":-0.014374924682536299,"2115":0.006192753519906843,"2116":0.0039034474515400545,"2117":0.018049226684859684,"2118":-0.02303128628506266,"2119":0.0031724382182936016,"2120":-0.012468300774529373,"2121":-0.014163781481071117,"2122":-0.0004688611277098953,"2123":-0.014437510412018009,"2124":0.007917341750938493,"2125":0.022244070474887325,"2126":0.009942736571881479,"2127":0.028995978838280444,"2128":0.017716660720076195,"2129":-0.01636971166372741,"2130":0.020555881298212435,"2131":0.006555203169016695,"2132":0.03746298851187835,"2133":0.0177989490590318,"2134":-0.014488395436650758,"2135":0.008044436630482824,"2136":0.0034781223954402822,"2137":0.0056457379550336325,"2138":0.009797665859030474,"2139":-0.022165550383977897,"2140":0.0216131623239473,"2141":-0.008196720954170322,"2142":0.0009012811460676825,"2143":0.005973952536167566,"2144":0.007120445259243053,"2145":0.0025735483289285785,"2146":0.016751374796134973,"2147":0.009679234628036526,"2148":0.008673661705542325,"2149":-0.008888606891458452,"2150":0.028070812185169557,"2151":0.008039435272979553,"2152":0.029635305100792268,"2153":-0.011024408585879974,"2154":-0.021885777277496594,"2155":0.0022216076348960446,"2156":0.010554001371914498,"2157":0.010495114941769189,"2158":-0.014868906264981094,"2159":0.0028817008365937618,"2160":0.015073250890907445,"2161":-0.013284929277679634,"2162":-0.014114015449234529,"2163":0.013880817878602148,"2164":-0.0011154707618343295,"2165":-0.014931924056350701,"2166":-0.003879929045587759,"2167":-0.005914063870540754,"2168":-0.0028895688644488124,"2169":0.003689481210846462,"2170":0.014978331638076978,"2171":0.00799672646328834,"2172":0.0015136567783324928,"2173":0.0009649862794672336,"2174":-0.004846688135579837,"2175":-0.02012328311787948,"2176":-0.010218253394649794,"2177":0.014927985869741815,"2178":-0.013694295345733692,"2179":-0.008673809988870393,"2180":0.0021665547891893218,"2181":-0.01687169071152694,"2182":-0.007926242158600575,"2183":0.004822371187915881,"2184":-0.003941699731109179,"2185":-0.0013894226238105416,"2186":0.022175716826214765,"2187":0.015192831061136398,"2188":-0.012250632242547538,"2189":-0.011400977599629799,"2190":-0.0012766611755108566,"2191":-0.005336258406772586,"2192":-0.013036649833654367,"2193":0.015964010404178403,"2194":-0.00952489618886064,"2195":-0.014484267655991742,"2196":0.002470588663384026,"2197":0.005042606437221264,"2198":0.002808171773308446,"2199":0.018644855361341212,"2200":0.009928817447193018,"2201":0.012734674166256158,"2202":-0.01725501762432565,"2203":-0.007611735644425123,"2204":-0.005719240749406131,"2205":0.010213930614159112,"2206":-0.0072357347923421465,"2207":-0.01691802041265756,"2208":0.0019232289901366568,"2209":0.013270447682616303,"2210":-0.006156825430167676,"2211":-0.000637603897001028,"2212":0.004346320054401104,"2213":-0.00643590487838229,"2214":-0.016200867279658693,"2215":-0.005525730637528297,"2216":-0.01996467665148117,"2217":0.016115012925748032,"2218":0.009222754733961776,"2219":0.004717913527539694,"2220":-0.0015780478492494552,"2221":-0.006990212035598136,"2222":0.005501664421099364,"2223":-0.002530206986515169,"2224":0.007793523346638639,"2225":0.004872732690200307,"2226":-0.01347077949122952,"2227":-0.014217963263482548,"2228":-0.014796196292147018,"2229":0.010250911657868103,"2230":0.008491103965392707,"2231":0.004525378297058464,"2232":-0.004261645981843537,"2233":-0.021055587519924736,"2234":-0.007505577665465836,"2235":0.015553824349605864,"2236":-0.005735633533024435,"2237":-0.010937789508019767,"2238":-0.01735080150996313,"2239":-0.004370834273498335,"2240":-0.014882752590599931,"2241":0.01957973543493916,"2242":0.000326600342430105,"2243":-0.000699732488749529,"2244":-0.013154898965518096,"2245":0.004484266267347158,"2246":0.012303366510791412,"2247":0.00223929360683786,"2248":0.027533917736456345,"2249":0.01717575370207778,"2250":-0.011623068791485234,"2251":-0.005267814378381547,"2252":-0.01218793818866052,"2253":0.023376332652695078,"2254":0.015508939444523605,"2255":0.0022907960030151865,"2256":-0.003931654122318387,"2257":0.006143721199002308,"2258":-0.01511892193405207,"2259":-0.005566471406929361,"2260":0.022677877044538674,"2261":0.01072570416588766,"2262":0.020262881961539823,"2263":0.00942132126183841,"2264":0.0018335366164958337,"2265":-0.011283552726911368,"2266":0.011950968937001353,"2267":-0.019981269281318787,"2268":-0.005914588909446118,"2269":-0.0028881940319188375,"2270":0.007513643987056098,"2271":0.016603245760631602,"2272":-0.005162891156521591,"2273":-0.01842807117847673,"2274":0.016802850406765244,"2275":0.004555163830939304,"2276":-0.012682456750774746,"2277":0.0014089753469181546,"2278":-0.008287412568956114,"2279":0.021753309614491883,"2280":0.0013662940507243712,"2281":0.009139278611804599,"2282":-0.010947323780434556,"2283":-0.005183979821172294,"2284":0.002847183078948485,"2285":-0.0019189308817556478,"2286":-0.018155954359536576,"2287":-0.0044550926925825615,"2288":0.012839391772101022,"2289":0.0031422485198211135,"2290":-0.007717583801936741,"2291":-0.019589671329958477,"2292":-0.01639159566466417,"2293":0.014925768263915147,"2294":-0.019475808868000186,"2295":0.0002819099065325837,"2296":0.005054296499671951,"2297":0.014840839892813554,"2298":0.014582970210213183,"2299":-0.006810473022584574,"2300":-0.00038141183931410244,"2301":-0.0018647960232685678,"2302":-0.012617444341147751,"2303":-0.03259862354970941,"2304":-0.001512998574947369,"2305":-0.017445619693464285,"2306":-0.0005580423982096868,"2307":-0.0012411922028735774,"2308":-0.01194842445226208,"2309":-0.0005243876776690512,"2310":0.005199813509844771,"2311":-0.02715987908523015,"2312":0.00370018388587745,"2313":-0.0035432361974858666,"2314":0.003190021538240327,"2315":0.006595670263558087,"2316":0.012944705911851227,"2317":0.0008336509976219969,"2318":-0.013587051372323904,"2319":0.01661588474035809,"2320":-0.01557100191649452,"2321":-0.017308158411337104,"2322":-0.02752811715389694,"2323":-0.02144984286660032,"2324":-0.009084068672354187,"2325":0.008134122594178528,"2326":0.004993575923413804,"2327":-0.006033348800126425,"2328":-0.005197794408287798,"2329":0.0024994285808544025,"2330":-0.022458678017350873,"2331":-0.00715232042942193,"2332":0.010640676252818122,"2333":0.009795347749734014,"2334":0.005799361448765376,"2335":-0.016064690406660857,"2336":-0.005746387613180523,"2337":0.0016775995969856886,"2338":-0.00899147858299034,"2339":-0.008157971402038064,"2340":0.003816627278891064,"2341":0.0027261414392832444,"2342":0.031951097830760715,"2343":0.016345090154010124,"2344":-0.00004630077360529553,"2345":-0.00829758853583928,"2346":0.008571099052127445,"2347":0.00844534860906639,"2348":0.029014268240253233,"2349":0.0043789341234209585,"2350":0.008002909003534177,"2351":0.008376555521523442,"2352":0.014957163247561904,"2353":-0.00046830769314251225,"2354":0.014587714085576513,"2355":-0.02089372663328735,"2356":0.01595064977842065,"2357":0.014472495908959555,"2358":-0.004474260745022458,"2359":-0.006242456059809983,"2360":-0.0027658336315891817,"2361":-0.0058140279453486945,"2362":-0.002201756900574616,"2363":0.007194122649316159,"2364":-0.013573678427584187,"2365":0.00465834640796227,"2366":0.023948405115566868,"2367":-0.000428164178133055,"2368":0.02181174097978543,"2369":-0.010178344206647535,"2370":-0.003571431647807842,"2371":0.009975202281739624,"2372":-0.002881273674721688,"2373":-0.01437934370080583,"2374":-0.021258024647783366,"2375":-0.0036304343252718755,"2376":0.008592131889167527,"2377":0.001476856182176114,"2378":0.014360198682872475,"2379":0.008663528206614196,"2380":0.0033482152837559643,"2381":-0.017255998360432765,"2382":0.013390132248350145,"2383":-0.014456704290152594,"2384":-0.004814976052878085,"2385":0.004070005335064776,"2386":0.00867244655588395,"2387":0.006328851181533942,"2388":0.0008052538413717917,"2389":0.018754238579624518,"2390":-0.0018127963753984695,"2391":0.0024981263866526607,"2392":0.02909916850450188,"2393":0.00746573592618468,"2394":-0.0006992154829231183,"2395":-0.006394097281087576,"2396":-0.010899436425978924,"2397":-0.002081134424956424,"2398":-0.0013272220042846463,"2399":-0.00057633176506049,"2400":-0.01758163816064568,"2401":-0.023480067840997657,"2402":-0.006592600397387342,"2403":-0.010258911007601674,"2404":0.001957546906919852,"2405":0.011442329333339418,"2406":-0.011325625132144057,"2407":0.0004908043031998849,"2408":-0.010851493982228996,"2409":0.005201151330275115,"2410":-0.0011985454319970743,"2411":0.00008993863801423585,"2412":-0.0015759585118601646,"2413":-0.009954111189528464,"2414":0.003444518547029423,"2415":-0.0026003909738279833,"2416":-0.0029802176468178244,"2417":0.016527634655047575,"2418":-0.00955163382365714,"2419":-0.0037013288672975153,"2420":-0.02380529272299925,"2421":0.020814798016633967,"2422":-0.0016613510952546413,"2423":0.009505914804580785,"2424":0.00913741862396083,"2425":-0.0217417473615832,"2426":0.01380941391132546,"2427":-0.005778585982567244,"2428":0.003942431258389998,"2429":-0.0068640428253253965,"2430":0.005187533730198426,"2431":-0.008192305862291475,"2432":0.013532334310527897,"2433":0.018234141696780688,"2434":0.019801164999295365,"2435":0.0038099038017955548,"2436":-0.012171971211628028,"2437":-0.007837586455885674,"2438":0.01948622227514256,"2439":0.018839884837447977,"2440":-0.015372489088354868,"2441":0.0031943756742570974,"2442":-0.013082020563420931,"2443":0.02020618947207811,"2444":-0.01518270311569149,"2445":-0.004044673031902702,"2446":0.0024290202361076435,"2447":0.00644332037078712,"2448":0.02093268063280812,"2449":0.017311984945412404,"2450":0.00895373357405721,"2451":-0.0047776369055957295,"2452":0.004855303146901237,"2453":0.02150602769696802,"2454":-0.0068069028828182734,"2455":0.01677960807838158,"2456":0.006208122033681508,"2457":0.01826963340225353,"2458":-0.006703150055540197,"2459":-0.01008898400263919,"2460":0.0012781989138086858,"2461":-0.012582231412424616,"2462":0.0014561781379414866,"2463":0.011480973649591398,"2464":-0.02112018247099758,"2465":0.009956860794882448,"2466":0.014170054344237713,"2467":-0.018935428026931978,"2468":-0.012149235817320773,"2469":-0.025293857658945318,"2470":-0.012507541170788061,"2471":0.00702466779416631,"2472":0.000760034759675845,"2473":0.014026164540575209,"2474":0.02274881205896715,"2475":-0.007037814419447964,"2476":0.00593911148119571,"2477":-0.009872343670955087,"2478":-0.003294927749350889,"2479":-0.0024468748907791518,"2480":0.018207178822227672,"2481":0.00016466148647205383,"2482":0.009845326070286061,"2483":-0.01865192603632013,"2484":0.017707582019455492,"2485":-0.01485945893307523,"2486":-0.002608850071178326,"2487":-0.0031791744930839017,"2488":-0.006954949532142851,"2489":-0.009671331732204629,"2490":-0.0037163423598059334,"2491":-0.007791350139163672,"2492":0.004371999971585015,"2493":0.01098320583305569,"2494":-0.017617756042833964,"2495":0.009416004238196671,"2496":0.005087547116609407,"2497":0.012705357302667177,"2498":0.0029719420580074504,"2499":0.0071208985615440175,"2500":0.0035310047528472983,"2501":0.01267771851435761,"2502":-0.025048990287014267,"2503":0.002358080144972152,"2504":-0.0006687074539426214,"2505":-0.0062935202047427604,"2506":-0.00147795273742956,"2507":0.0028911224918860864,"2508":0.014219110239112915,"2509":-0.009413609574895917,"2510":-0.012712261200106576,"2511":-0.0024051911562279937,"2512":-0.008696764006009189,"2513":-0.0047839280010197344,"2514":-0.018291699125333176,"2515":-0.0035886317893456736,"2516":-0.009227081056644678,"2517":0.00028948647151649944,"2518":0.010689961566560838,"2519":-0.0005020309821824428,"2520":-0.003961249901401701,"2521":0.003803186651115725,"2522":-0.0033397185721341254,"2523":-0.020176500461773526,"2524":0.004654672533808471,"2525":0.0014414252854055422,"2526":-0.004624435156498857,"2527":0.0071328475560684165,"2528":-0.008095045281361445,"2529":-0.00625860292598756,"2530":0.023520244610400275,"2531":0.0036766390525685157,"2532":0.002302277511435137,"2533":0.010251996306181073,"2534":-0.0019566405018227044,"2535":0.024329155746240914,"2536":0.01048848900299202,"2537":0.007946740891247637,"2538":0.005494545201699141,"2539":0.004518256906538246,"2540":0.010829196966826366,"2541":0.0011469102370855971,"2542":-0.0036487984437025916,"2543":-0.018804159463793543,"2544":-0.019180887507506614,"2545":0.0008648205141581457,"2546":0.0015628031425394071,"2547":0.0030455625560143326,"2548":0.0016777156859939435,"2549":-0.013160747024508878,"2550":0.0025967410778069727,"2551":-0.012470475905261178,"2552":0.009802707765673777,"2553":0.004350408773561193,"2554":-0.009313986882109554,"2555":0.004257276454627268,"2556":-0.0018935765592056162,"2557":-0.003099408887076903,"2558":-0.014253665234046581,"2559":0.009791392896600365,"2560":0.0019518617494500318,"2561":-0.0021270876647452135,"2562":-0.002740813772413401,"2563":0.008604256860296209,"2564":0.018259767709459716,"2565":-0.00994964343380404,"2566":-0.012411006100261199,"2567":-0.028832137148780825,"2568":-0.011837846645114312,"2569":-0.016665470999686263,"2570":0.004520853558134355,"2571":0.004751501874769295,"2572":-0.038917224275863645,"2573":0.0028032322862740827,"2574":-0.00027583469880979115,"2575":0.012158669003158647,"2576":-0.013501578985644618,"2577":0.019318894229103684,"2578":-0.002185546739393163,"2579":0.0015934847183317787,"2580":-0.01986841657496254,"2581":-0.005217291752538787,"2582":0.010086706672409108,"2583":0.019359575366823967,"2584":-0.009413178647902335,"2585":-0.010761680006798884,"2586":-0.012107138726904354,"2587":-0.005067977345495698,"2588":-0.0012301588755936224,"2589":0.0030715899545430336,"2590":0.00392655170190349,"2591":0.008580392676797319,"2592":0.008758730611260257,"2593":-0.009360010431678494,"2594":-0.0006563125702130704,"2595":-0.0020840514351383793,"2596":0.019811529995442733,"2597":0.003683972844844434,"2598":0.011410725739228368,"2599":-0.014827965834004137,"2600":0.010021230323779506,"2601":-0.011345054273943405,"2602":0.0046329753973490696,"2603":0.00494095097789639,"2604":0.012215160686533395,"2605":-0.007680448578672005,"2606":-0.006509855273330039,"2607":0.014533469289434938,"2608":0.019780331140575848,"2609":-0.014054674837530756,"2610":-0.012796158523462295,"2611":0.016738301714845975,"2612":-0.011309438810969309,"2613":-0.006005694755677255,"2614":-0.000024545600960073283,"2615":0.01063605317531644,"2616":-0.01524481015466484,"2617":-0.01380503008092679,"2618":-0.017064700191740036,"2619":-0.01729167124714077,"2620":-0.008186262035535108,"2621":0.002650121229658828,"2622":-0.009741872315993398,"2623":0.007900175411221556,"2624":-0.000892543039335199,"2625":0.002522576771375279,"2626":-0.01636686687320312,"2627":0.013784873729198068,"2628":0.0008234271013535844,"2629":-0.0023225484458135217,"2630":0.01049651743330531,"2631":0.0024511776895771503,"2632":0.009277541591438319,"2633":-0.003159582477592091,"2634":-0.008035240321796077,"2635":0.011775095416369516,"2636":0.018683303328039094,"2637":0.009146509315953616,"2638":0.012729167829324149,"2639":0.013539751050923898,"2640":0.006254771768851479,"2641":0.016108833027125777,"2642":-0.0015330684476608184,"2643":0.002091150745095844,"2644":0.0088741767764882,"2645":0.0032751681293341603,"2646":0.01110851077827224,"2647":0.0011583966802812904,"2648":-0.012181041478691968,"2649":-0.00590555866060575,"2650":0.00435880473353458,"2651":-0.0014077552635657802,"2652":-0.019475867325966616,"2653":0.001757526354017466,"2654":-0.013274761141802847,"2655":0.00138866869624821,"2656":-0.0030101145819814395,"2657":0.010269511098078828,"2658":0.007012122740685588,"2659":0.007759643353463254,"2660":0.0012258691357773823,"2661":-0.02741739355935959,"2662":0.016575026113104054,"2663":0.005593666055927038,"2664":0.011336777482928308,"2665":-0.011688259913333813,"2666":-0.0012902819498228806,"2667":0.012496424845234402,"2668":-0.007335508720494526,"2669":-0.011278471464653612,"2670":0.009479899466327846,"2671":-0.001693782340678484,"2672":0.004640768836322391,"2673":-0.028252161015466973,"2674":0.002655680338379301,"2675":0.015233296828443101,"2676":-0.030327307833881528,"2677":0.014238683464968798,"2678":0.013860932577397567,"2679":0.005703991158906164,"2680":-0.01427734765509811,"2681":-0.0015804849458336226,"2682":0.001833874172208321,"2683":0.00227780627767934,"2684":0.008042923860795767,"2685":0.008040068779227298,"2686":0.0041967720907551635,"2687":-0.016018138816124114,"2688":-0.01515229208771028,"2689":0.01080404206782658,"2690":0.004486685927386198,"2691":0.008848461392902948,"2692":0.0019585092003755007,"2693":0.006454466081343441,"2694":0.0028232232827878705,"2695":-0.004281184464152369,"2696":-0.016685772871388026,"2697":-0.007168703567551926,"2698":0.019823591375733706,"2699":0.0023805790148701787,"2700":-0.0015600899047596328,"2701":0.018338760106372764,"2702":0.008684877547171817,"2703":0.0013739758471648133,"2704":-0.018317421208660697,"2705":0.019947094503113934,"2706":0.006223056149290112,"2707":-0.005104771262717787,"2708":0.025645214665840254,"2709":-0.007366394584314076,"2710":0.004474821742068067,"2711":0.025387460123580268,"2712":-0.002973483854484285,"2713":-0.007034894537326786,"2714":0.006044129196774653,"2715":-0.0016923408761640802,"2716":0.0029682120221220867,"2717":-0.0257509690743153,"2718":0.002546634731508385,"2719":0.021804668705423684,"2720":-0.019864178484822567,"2721":-0.002142692813716821,"2722":0.00499027503373528,"2723":0.0018122150614868304,"2724":-0.01620171259363778,"2725":-0.030760624037382316,"2726":-0.008866138889016694,"2727":-0.01972613871501191,"2728":-0.003012231248346229,"2729":0.008373053615936175,"2730":0.02656775067608877,"2731":0.00449785084842498,"2732":-0.008583114823106804,"2733":-0.02181371677013814,"2734":-0.020366921365820616,"2735":0.0015543563035441573,"2736":-0.014644860024562778,"2737":0.003030363125072908,"2738":0.018097386031760993,"2739":0.006507214392109509,"2740":-0.006262355774246769,"2741":0.002753104633495295,"2742":-0.0023737116225086914,"2743":0.003736287580536914,"2744":-0.024845078413043994,"2745":-0.0021111983504715132,"2746":0.006959745247816193,"2747":-0.023183213657457444,"2748":-0.010949977384117373,"2749":0.034543536967993664,"2750":0.007833964798936175,"2751":-0.003442512176702922,"2752":0.00036586604946646246,"2753":0.019913379639601506,"2754":-0.007307231671225888,"2755":0.0009434507576924807,"2756":0.015445259315427578,"2757":0.012334250556308659,"2758":0.0014559534485058534,"2759":0.005375876885893551,"2760":0.007116703878274156,"2761":0.01773738517215793,"2762":0.012390513169789737,"2763":0.002704426536639184,"2764":-0.005745497250488268,"2765":-0.014182505436391307,"2766":0.015856075001713578,"2767":0.016337392783526868,"2768":0.005002812869458527,"2769":-0.02211764629776445,"2770":0.013343989019085616,"2771":0.0035095810108701857,"2772":-0.004416756195453219,"2773":0.027957404111290645,"2774":0.015179697369579675,"2775":0.014917390344916865,"2776":-0.0017007747279671618,"2777":-0.0091403144976387,"2778":-0.011566011696092244,"2779":0.023222304503064038,"2780":0.006421859169610671,"2781":-0.01732991632069068,"2782":-0.0061402183809269656,"2783":0.013679712975696997,"2784":-0.007552589831243319,"2785":0.02719002668937659,"2786":0.004171538125512146,"2787":0.012887398985909843,"2788":-0.012841944668352203,"2789":-0.003308010022138127,"2790":-0.008257588201719292,"2791":-0.023172369500892936,"2792":0.013346912109923576,"2793":0.013504927388653859,"2794":-0.0015973450965464798,"2795":0.009508345005639018,"2796":-0.016316781846086075,"2797":-0.006396262286325245,"2798":0.0061678419267494665,"2799":-0.006700518560617896,"2800":0.024133781516423213,"2801":0.0065039312774028725,"2802":0.010318712118356749,"2803":-0.003154060876441614,"2804":0.021642086212128694,"2805":0.008253315540695406,"2806":-0.02022875502399093,"2807":0.008789541086085043,"2808":-0.024002096304092977,"2809":0.006524080774567202,"2810":0.012958886248402263,"2811":0.014183019138637424,"2812":0.01174313421622999,"2813":-0.000853659384323875,"2814":-0.000543964709158695,"2815":0.008247505874386123,"2816":0.01959999317433752,"2817":0.020803975194202157,"2818":0.014170526280677153,"2819":0.02535699925450699,"2820":-0.0057536194292972685,"2821":-0.012412325810783748,"2822":0.020032444710158706,"2823":0.011582819468986982,"2824":-0.008329959067371393,"2825":-0.0032513924076256412,"2826":0.015017875543385224,"2827":0.01723578497894149,"2828":-0.004365105437243673,"2829":0.01613094827107577,"2830":0.004507246828742437,"2831":-0.0012292721504960581,"2832":-0.016100248459491012,"2833":-0.012180259494439792,"2834":0.003879698302148383,"2835":-0.0243777976001899,"2836":0.01004762666093914,"2837":0.012132490259172068,"2838":-0.008765087931549809,"2839":-0.011859903451538222,"2840":-0.0016567690082937988,"2841":0.007974205683061071,"2842":-0.01477128331031539,"2843":0.0039040598919475355,"2844":0.0011056763961825764,"2845":0.0181720550639625,"2846":0.019380775688851607,"2847":-0.004738617109437812,"2848":-0.013066737525892354,"2849":0.0056713208881368285,"2850":-0.0033428354440221985,"2851":0.004944529445508069,"2852":-0.012243816185299516,"2853":-0.012249791155755939,"2854":-0.012998299615954336,"2855":-0.004347145975388467,"2856":0.0026293034329307116,"2857":0.00465641685450597,"2858":0.016742739689162775,"2859":0.0013418388646194057,"2860":-0.003184435183733509,"2861":0.009920754847034112,"2862":0.010900945639730555,"2863":0.0014166788385850202,"2864":0.013627249346554944,"2865":-0.017920633382792275,"2866":-0.0025750432064848695,"2867":-0.013736837494970964,"2868":0.004028713766351691,"2869":0.017891284228805954,"2870":-0.009880636219586639,"2871":0.0038346566776453405,"2872":0.010407929167029165,"2873":-0.012190149906088965,"2874":0.009672922896688219,"2875":-0.0031104381618877333,"2876":0.007365719352454161,"2877":0.007860595672667753,"2878":-0.011051012642149229,"2879":-0.003020299070129767,"2880":-0.0032515317645969294,"2881":0.023105883739173418,"2882":-0.007784985419605743,"2883":0.017549702345857107,"2884":0.0032344545835844567,"2885":0.021749632634756058,"2886":0.010325547770138584,"2887":-0.003981713511253333,"2888":0.0017363748082022791,"2889":-0.0016778131955144894,"2890":0.013041052712577387,"2891":-0.015170464238763249,"2892":0.020606051244906644,"2893":0.0059296417073194125,"2894":0.0028898227974226876,"2895":-0.007380974976132308,"2896":0.019236916519146708,"2897":-0.013478824539038632,"2898":-0.006038058221818758,"2899":0.013534730250255622,"2900":0.020145066369266624,"2901":-0.014665566676148453,"2902":-0.008406187430479045,"2903":0.013664782799215016,"2904":0.006032111708220327,"2905":-0.00010878472008045363,"2906":-0.025127422829369462,"2907":0.0015931788154010128,"2908":0.008539472376654467,"2909":-0.004048494224291938,"2910":0.008262880811721928,"2911":-0.016369203427937545,"2912":-0.011486801784715528,"2913":0.020057710288825543,"2914":0.02148513878018749,"2915":-0.019275409311108428,"2916":-0.01726004150235959,"2917":0.021131692800724147,"2918":-0.00505109876444573,"2919":0.004871386685472193,"2920":0.01134256248784653,"2921":0.007140283210313097,"2922":-0.007060609845231659,"2923":0.011131787215075918,"2924":-0.005572112335401501,"2925":-0.0023709780880470945,"2926":-0.012776503450352257,"2927":0.01715799423110636,"2928":0.00006665361214270145,"2929":-0.008181253419380455,"2930":-0.006428377097874892,"2931":-0.0069275950574955785,"2932":-0.012191475770389254,"2933":-0.01925609382597004,"2934":0.0015564310752359599,"2935":0.0012619704859500997,"2936":-0.0034221733631265277,"2937":0.009221571606721827,"2938":-0.012131900078378922,"2939":0.016434171995416986,"2940":-0.007535148291736677,"2941":0.0026702095510860234,"2942":-0.020111889389029768,"2943":0.014626518633073753,"2944":0.0030685058266025586,"2945":0.013026069921919955,"2946":0.0014755402381187931,"2947":0.00407650943975845,"2948":-0.03184569557370755,"2949":0.014919939531770123,"2950":0.015378553159402812,"2951":-0.008402435484851247,"2952":-0.009406106591046898,"2953":-0.002282090653745009,"2954":0.01372131335889803,"2955":0.009813171574911439,"2956":0.010569401099924816,"2957":0.005971109063689739,"2958":-0.003079826313819248,"2959":0.010840443154395491,"2960":0.006415042478314597,"2961":0.002951949592497034,"2962":-0.019149979423382597,"2963":-0.005388440884555601,"2964":0.027141088148837783,"2965":-0.019341364361750824,"2966":0.01800051881504174,"2967":-0.012867536344923753,"2968":-0.005411234723117719,"2969":0.0030629605089177265,"2970":-0.010435186689003662,"2971":-0.016845393859226496,"2972":0.0005048944302967928,"2973":0.014760769475389571,"2974":0.0072905645110642354,"2975":-0.013180392170948766,"2976":-0.007937044150734917,"2977":-0.005377194777158363,"2978":-0.02387324833949086,"2979":0.009940798220973917,"2980":0.006214365226471701,"2981":0.010448075894850186,"2982":-0.01653979331720094,"2983":-0.0042711972200144025,"2984":-0.015098249564784554,"2985":0.0036020574045527907,"2986":-0.0021098177372237624,"2987":0.0032641820023729937,"2988":-0.0009362826531890072,"2989":-0.018693219262183855,"2990":-0.009088801315732763,"2991":0.006075535056963398,"2992":0.0007482975844111452,"2993":0.011721704718189278,"2994":-0.0024919211077533573,"2995":0.02462671997253764,"2996":0.014286332389982311,"2997":0.0031747878907916875,"2998":-0.011679414620253386,"2999":0.0006810978736873634,"3000":0.0022279372170664336,"3001":-0.01733148700969694,"3002":-0.0010331566018654409,"3003":0.0064010982390510125,"3004":0.007422637215640458,"3005":-0.01414740165633785,"3006":-0.0010264770729261554,"3007":0.0075317414737941825,"3008":0.024747202282200197,"3009":0.0015728520029680611,"3010":-0.006702533198500686,"3011":0.0172793517696036,"3012":-0.0056854116063215845,"3013":0.017281549733198915,"3014":0.004326871021114379,"3015":0.0028801614638432177,"3016":-0.010286293605264767,"3017":0.004389609847848152,"3018":0.030805118432257115,"3019":-0.002499505239052635,"3020":-0.002007517591673167,"3021":0.029302275971080264,"3022":-0.016229128646238457,"3023":0.0100136872191869,"3024":0.004974399371336896,"3025":-0.017342477306528513,"3026":-0.00122839377755514,"3027":-0.012465300243407182,"3028":-0.014931973916980801,"3029":-0.006044033128607788,"3030":-0.010053769867378859,"3031":0.007025630449061417,"3032":-0.006034744703002607,"3033":-0.00016801089582439067,"3034":-0.01025154547977793,"3035":-0.006227714843288684,"3036":0.0007384136652463789,"3037":0.001721538392574963,"3038":0.02488103850741062,"3039":-0.024701130362145145,"3040":-0.015485196951394524,"3041":0.0051022385364361995,"3042":-0.013394900949086772,"3043":0.012108511472574586,"3044":-0.017559232919047825,"3045":0.01616080084253183,"3046":0.0107638193291208,"3047":-0.020973121318962586,"3048":0.005239343655928953,"3049":-0.008183566797749828,"3050":-0.008865093678709182,"3051":0.005306752521260711,"3052":-0.0085174070423869,"3053":-0.0018704141198540938,"3054":-0.005245057028876366,"3055":-0.042358517521147485,"3056":0.025204977327099445,"3057":0.004708826076048953,"3058":-0.024575792600976296,"3059":0.024477624308569954,"3060":0.007864423192318976,"3061":-0.005851415683488215,"3062":0.004641166847905667,"3063":-0.0036356904622955096,"3064":0.011778066596982998,"3065":-0.02431724596709278,"3066":-0.017106756923195583,"3067":-0.005976925980707973,"3068":0.012181368566564266,"3069":-0.014702912712034373,"3070":-0.028098972625243586,"3071":0.004590582250486145,"3072":0.013699929862638275,"3073":0.007545633579711762,"3074":0.0030794182346254766,"3075":0.011118151157852009,"3076":-0.0013014095382205722,"3077":0.007637148437256021,"3078":-0.0029502755033816346,"3079":-0.004046229726991631,"3080":-0.014424518177383643,"3081":0.0005774153233102799,"3082":-0.004504185698561436,"3083":0.021917057172272027,"3084":-0.01227626059648341,"3085":0.004269604793391126,"3086":0.006907024774534337,"3087":0.01785298476278191,"3088":0.00768651389716066,"3089":-0.010765264793578618,"3090":0.044054899528638614,"3091":-0.0004327987769410946,"3092":0.009510553484157767,"3093":-0.016726884936991173,"3094":0.018079923665902088,"3095":-0.0029341832484809133,"3096":0.00453063259163357,"3097":0.006419973696771365,"3098":0.00032478334869068026,"3099":0.0226416437358568,"3100":0.0004152330711315463,"3101":0.006276201238435719,"3102":-0.015350369686439356,"3103":0.0013413736982630497,"3104":-0.020503356383569114,"3105":-0.004530359083078306,"3106":-0.022685348073649473,"3107":-0.006813495778294984,"3108":-0.0013237542464013985,"3109":0.003304962065463335,"3110":-0.00025378696950238293,"3111":-0.0014778462490357108,"3112":-0.009697904888988659,"3113":0.011456599901323672,"3114":-0.011259939699904782,"3115":-0.0010844042848223055,"3116":-0.013313089888373946,"3117":0.01846575424645057,"3118":-0.00022482371091239986,"3119":0.004427370160548186,"3120":-0.0017147232657864814,"3121":0.0010002549193031268,"3122":0.0004288685964109064,"3123":0.012701353081008289,"3124":0.016310809752295787,"3125":-0.003029474376682522,"3126":0.01625675771708621,"3127":0.005255026060944777,"3128":-0.0013296837387015328,"3129":0.013812614967371978,"3130":0.005542465601976256,"3131":-0.006879601698535956,"3132":-0.004401819279101203,"3133":0.02570012392591437,"3134":0.005814686882210344,"3135":0.013078315177130498,"3136":0.007661010677015738,"3137":0.008802282473780933,"3138":0.0037663603965286626,"3139":-0.0005808096477315299,"3140":0.008611009191201844,"3141":0.005792871566478429,"3142":-0.01341374266341226,"3143":0.02023845671669257,"3144":-0.01648520750028272,"3145":-0.008575011329625338,"3146":0.007477770100676411,"3147":0.02963909181061997,"3148":-0.00547804464935441,"3149":0.00017921751091049692,"3150":-0.016899685963658418,"3151":0.013559753291007393,"3152":0.011907194870169557,"3153":0.0070742495357208,"3154":-0.001216395379415434,"3155":0.017166308282980474,"3156":0.002494781554894162,"3157":0.03156999086436708,"3158":-0.006701458717109742,"3159":0.0021673450911923837,"3160":0.004410659599017818,"3161":0.0003557703365308339,"3162":0.010482609069253676,"3163":-0.0012295601609479624,"3164":-0.0029868919565975553,"3165":-0.004833688486168745,"3166":-0.0006643703785282773,"3167":0.012773055779520053,"3168":-0.0017418706908605927,"3169":0.00007141976688680154,"3170":0.01613285723552218,"3171":-0.016564062713276987,"3172":-0.017521718009242182,"3173":0.0035449065060537107,"3174":0.004972084465028401,"3175":-0.0023665768110480564,"3176":-0.02446472445178411,"3177":-0.00608912994370449,"3178":0.00903532114925634,"3179":0.0033412712211863035,"3180":-0.010403241717219893,"3181":0.014727736932005664,"3182":-0.0063066195561016425,"3183":-0.009052834051105074,"3184":0.0007350640935684928,"3185":-0.006020945981792017,"3186":0.003245793035533221,"3187":0.013341671880236229,"3188":-0.013007400232900814,"3189":0.0014456481944595304,"3190":0.002594553037915677,"3191":0.010459700979961448,"3192":0.017388633840295112,"3193":0.007601932268583382,"3194":-0.010022164170190518,"3195":0.015246802876096515,"3196":-0.015339890426843979,"3197":-0.012640519551389826,"3198":0.0080364977847144,"3199":-0.006260811428726947,"3200":0.018111685648260604,"3201":-0.011930836169813136,"3202":0.015287044737860673,"3203":0.01871975717797269,"3204":0.020527346648264357,"3205":-0.005014249837398277,"3206":0.007131882327881991,"3207":-0.011258265844772648,"3208":-0.009362895492088663,"3209":0.0027538639969215224,"3210":0.034110691774736544,"3211":-0.013680403105764256,"3212":0.017710570650794358,"3213":-0.012498682596097006,"3214":-0.009395415819990453,"3215":0.010715783566655784,"3216":-0.010145729608305953,"3217":0.004591136481045988,"3218":-0.003247832781882127,"3219":-0.008116557936065074,"3220":-0.004449390869081282,"3221":-0.015321307630158848,"3222":-0.0010178881023137477,"3223":-0.002023031560132063,"3224":0.004420590951950387,"3225":0.0010568375061557693,"3226":0.022112861111675885,"3227":0.009039317535342005,"3228":-0.005941161751010929,"3229":-0.019277261157629372,"3230":-0.013667473592381671,"3231":-0.010056079296848038,"3232":-0.007611029015815201,"3233":-0.006251009139707684,"3234":-0.002234335318613247,"3235":0.0006520417266600296,"3236":-0.005296156740535657,"3237":0.007187442932802736,"3238":0.001987437627960848,"3239":-0.015825611341896684,"3240":0.028213651064008007,"3241":-0.033088783935830125,"3242":-0.004656378707391275,"3243":0.00557813358223605,"3244":0.0013876637372885877,"3245":-0.001579871782753189,"3246":-0.007053741777281973,"3247":0.012839265439956825,"3248":-0.019063633506315812,"3249":0.00008326206784166529,"3250":-0.010832886531288244,"3251":0.02074871880736091,"3252":0.008396791563491202,"3253":0.01501066992017634,"3254":0.004176772331373705,"3255":-0.029349827699658826,"3256":0.0057408465936199795,"3257":-0.007397681430185474,"3258":-0.013524062599411623,"3259":-0.005321910204864102,"3260":0.013024690469456314,"3261":0.0020236676766130684,"3262":0.0025967799335300345,"3263":-0.03335902634915399,"3264":-0.012084468372153047,"3265":-0.027335823421074226,"3266":-0.0030316710259579156,"3267":0.013309895183916008,"3268":0.0008360819975667165,"3269":-0.0022497137234018007,"3270":0.01741711787518027,"3271":0.03290290093191025,"3272":0.007257228426071331,"3273":-0.014029251785539716,"3274":-0.02827424960702419,"3275":-0.016653117344643444,"3276":0.003625312550840103,"3277":-0.010783642051039207,"3278":0.0004715814407607046,"3279":-0.0011211234367280861,"3280":0.01943850755499475,"3281":0.006656107290518328,"3282":0.0024635603615719742,"3283":0.0252864641080177,"3284":0.0009422177190494892,"3285":-0.030026710060302997,"3286":-0.006862692790037509,"3287":-0.01613424559640592,"3288":0.006975691563866695,"3289":-0.005024565823790237,"3290":-0.00809774396810244,"3291":0.009022389989963006,"3292":0.010939946892205751,"3293":-0.0007104718991242438,"3294":0.00642390205323921,"3295":0.0017703576149772106,"3296":0.004869029120590233,"3297":-0.004859992966482329,"3298":0.012176388686000681,"3299":0.008659310042690525,"3300":-0.00212747622360566,"3301":-0.018126376208930928,"3302":0.009481544955342652,"3303":0.010425437058541966,"3304":0.006761614150041619,"3305":-0.0016173589206076012,"3306":0.010526469158198345,"3307":-0.008991752865902106,"3308":-0.01481561977743701,"3309":-0.014226222581438356,"3310":-0.0034602888573226553,"3311":0.029187198775748865,"3312":-0.010377191639083058,"3313":0.01708262873900665,"3314":0.014588561815734966,"3315":0.001864354032056589,"3316":-0.010753476272813109,"3317":0.018848302102449175,"3318":0.019841468495337036,"3319":0.016196250857624238,"3320":0.0035611885278225884,"3321":0.002014527947092289,"3322":-0.00665756034732754,"3323":-0.008180551762650309,"3324":0.005291760199793984,"3325":0.006399389508153021,"3326":-0.014792067097570263,"3327":-0.013462648577121417,"3328":-0.009979063455593214,"3329":-0.009312838985283204,"3330":-0.011829398077942402,"3331":-0.0031860550629734157,"3332":-0.01687420468662945,"3333":0.023180038475426695,"3334":-0.004732865961494859,"3335":-0.004336609273290259,"3336":-0.012230579064057761,"3337":0.01051771504383595,"3338":-0.012902506765712196,"3339":0.0032065246801188927,"3340":-0.0017937268367356287,"3341":-0.028548161528741452,"3342":-0.0016272119668162687,"3343":-0.0023206677233758377,"3344":-0.01053098647807691,"3345":-0.007843223893090594,"3346":0.026834456476067747,"3347":-0.0024976015599066453,"3348":-0.0010220309096320454,"3349":-0.0029595836178322576,"3350":-0.006935635273541328,"3351":-0.002914608980070193,"3352":0.01480208946528091,"3353":-0.012076847605422256,"3354":-0.009927376582846323,"3355":-0.01090675524278268,"3356":0.016962670744724944,"3357":0.0028593423894005226,"3358":0.018635856950620235,"3359":0.00564634320332535,"3360":0.006672910134000651,"3361":0.014185978769064654,"3362":0.034550978535882876,"3363":0.003481521765717771,"3364":0.006303823963608708,"3365":-0.01742881915351767,"3366":-0.009229333710087544,"3367":0.0114691173912582,"3368":-0.013394043908251548,"3369":0.017614800145188847,"3370":-0.005729686159129409,"3371":-0.0025279158932241365,"3372":-0.005825235396217652,"3373":0.02087645046534528,"3374":0.012143572870699336,"3375":-0.0003217876959150217,"3376":-0.012449142718524589,"3377":-0.023827470036515124,"3378":0.020609430847143236,"3379":-0.010671778154640443,"3380":-0.00484288566863704,"3381":0.043762730567880596,"3382":-0.020894269203609313,"3383":-0.003568082438397878,"3384":0.009859078623699643,"3385":0.006305906322680126,"3386":0.004290151253124661,"3387":0.0037607000694459595,"3388":-0.02071178547860938,"3389":0.0024141439570598312,"3390":-0.0159352585743319,"3391":-0.006036286403666719,"3392":0.013950410714771388,"3393":-0.01261150337654684,"3394":0.01903411766305926,"3395":-0.00037191346930320917,"3396":-0.0038518139857101545,"3397":-0.004999217729724852,"3398":0.004153493629983176,"3399":0.0037762262851490365,"3400":0.004962488788118544,"3401":0.0029816300088332933,"3402":0.009661214288860449,"3403":0.0021050879882674248,"3404":0.00344355109867177,"3405":-0.022591104189654886,"3406":0.01925653158495538,"3407":0.006457088957093342,"3408":-0.0006054636086203348,"3409":0.022048052373574777,"3410":0.01616330955743386,"3411":0.011592711545895671,"3412":-0.008163508694832192,"3413":-0.027022149705912987,"3414":0.016532992587837272,"3415":0.013423576528965541,"3416":0.006220868404410964,"3417":-0.019073836484438146,"3418":-0.01287558319134561,"3419":0.0018915922156587895,"3420":0.0007357656071820569,"3421":0.0008638171724614491,"3422":-0.0055531104235149314,"3423":-0.013981905866394192,"3424":-0.0038955386697201596,"3425":0.007815752265784934,"3426":0.004944375414956306,"3427":0.013479993435049452,"3428":0.004076713283271024,"3429":0.0026608528508650585,"3430":0.02603011187521473,"3431":-0.0023719653169475235,"3432":0.0022572336159090234,"3433":0.014477254083675005,"3434":0.0021212209305021303,"3435":-0.009818343425323072,"3436":0.003845773081627028,"3437":-0.002414584266286639,"3438":-0.001493672129586216,"3439":0.0025136761025081186,"3440":0.012543576321777128,"3441":0.023723575933757218,"3442":-0.004003665824246573,"3443":0.0035421297060836913,"3444":0.002780475345350142,"3445":-0.018625859323268094,"3446":-0.005584739989019111,"3447":0.007780711327779802,"3448":-0.011336569371576429,"3449":-0.005276671643177065,"3450":0.017600425782855034,"3451":0.01776562381937756,"3452":0.023707575840447498,"3453":-0.0007069775654601693,"3454":0.029411744844024975,"3455":0.02244087676094377,"3456":0.010670533731901926,"3457":0.009989922050597488,"3458":0.007673089388805338,"3459":0.013705369119094066,"3460":-0.010558025351463189,"3461":-0.009560460222892071,"3462":0.006406563849045238,"3463":-0.017104118819533876,"3464":-0.00010686457821941782,"3465":-0.0034718737018020105,"3466":-0.033359761763750065,"3467":-0.02685685516256533,"3468":-0.009051811119482443,"3469":0.00288823859244851,"3470":-0.003254733547636513,"3471":0.002904778392795587,"3472":0.00906904791219438,"3473":-0.0072606383855961494,