
//<![CDATA[

// a few things don't have var in front of them - they update already existing variables the game needs
lanesSide = 1;
patchesAhead = 10;
patchesBehind = 2;
trainIterations = 10000;

var num_inputs = (lanesSide * 2 + 1) * (patchesAhead + patchesBehind);
var num_actions = 5;
var temporal_window = 3;
var network_size = num_inputs * temporal_window + num_actions * temporal_window + num_inputs;

var layer_defs = [];
layer_defs.push({
    type: 'input',
    out_sx: 1,
    out_sy: 1,
    out_depth: network_size
});
layer_defs.push({
    type:'conv', 
    sx:3, 
    filters:8, 
    stride:1, 
    pad:2, 
    activation:'relu'});
layer_defs.push({
    type:'conv', 
    sx:3, 
    filters:4, 
    stride:1, 
    pad:2, 
    activation:'relu'});
layer_defs.push({
    type: 'fc',
    num_neurons: 20,
    activation: 'relu'
});
layer_defs.push({
    type: 'fc',
    num_neurons: 5,
    activation: 'relu'
});
layer_defs.push({
    type: 'regression',
    num_neurons: num_actions
});

var tdtrainer_options = {
    learning_rate: 0.001,
    momentum: 0.01,
    batch_size: 64,
    l2_decay: 0.01
};

var opt = {};
opt.temporal_window = temporal_window;
opt.experience_size = 3000;
opt.start_learn_threshold = 500;
opt.gamma = 0.1;
opt.learning_steps_total = 10000;
opt.learning_steps_burnin = 1000;
opt.epsilon_min = 0.01;
opt.epsilon_test_time = 0.0;
opt.layer_defs = layer_defs;
opt.tdtrainer_options = tdtrainer_options;

brain = new deepqlearn.Brain(num_inputs, num_actions, opt);

learn = function (state, lastReward) {
    brain.backward(lastReward);
    var action = brain.forward(state);

    draw_net();
    draw_stats();

    return action;
}

//]]>
    
/*###########*/
if (brain) {
brain.value_net.fromJSON({"layers":[{"out_depth":159,"out_sx":1,"out_sy":1,"layer_type":"input"},{"sx":3,"sy":3,"stride":1,"in_depth":159,"out_depth":8,"out_sx":3,"out_sy":3,"layer_type":"conv","l1_decay_mul":0,"l2_decay_mul":1,"pad":2,"filters":[{"sx":3,"sy":3,"depth":159,"w":{"0":-0.013460886504277547,"1":-0.059315607868676956,"2":0.004112781447283404,"3":-0.050934749224257,"4":0.018007060426097912,"5":0.05855616611332257,"6":0.017641378376950338,"7":-0.044170654406034154,"8":0.014648147888259815,"9":0.011572681810386117,"10":-0.003673953950983655,"11":-0.07030410336530563,"12":-0.00048587900492381894,"13":0.011640397611425981,"14":-0.0004751870102823636,"15":0.017441510603816,"16":-0.04820949483706271,"17":0.019685047007647095,"18":-0.017333732238934637,"19":0.03510093904927179,"20":0.0012739975964272073,"21":-0.04003482793881183,"22":-0.01699116112249741,"23":0.03652343691285828,"24":-0.01847937947584498,"25":0.020115396544557268,"26":-0.011539165342952934,"27":-0.009256904833682088,"28":-0.0008389646018286161,"29":-0.05423319998631521,"30":-0.00443349596511778,"31":-0.1525984614018864,"32":-0.023598574471702445,"33":0.0287541829614809,"34":-0.15825539034974564,"35":0.028449255427880897,"36":-0.020789469590337707,"37":-0.028069330039203474,"38":0.012896443858968648,"39":0.008348200467670604,"40":-0.0035616507234519784,"41":-0.013181760658944606,"42":-0.015897774005582604,"43":-0.018660788058204873,"44":0.005417926048251373,"45":0.008252716614427575,"46":-0.01642323203320132,"47":-0.02570979503620985,"48":-0.05629913994847449,"49":0.04907847315398806,"50":-0.010597342004743644,"51":0.028151379437016878,"52":0.015014440183659725,"53":0.037515502491471446,"54":-0.005625810972648942,"55":-0.014110244917406391,"56":0.029496579541127492,"57":-0.009030213416712563,"58":0.028014625271921105,"59":-0.0028275567355216546,"60":0.029670480385421704,"61":0.04694803572717869,"62":0.019043864630548867,"63":0.02528023379912365,"64":0.00031522405490753264,"65":0.009329731588133027,"66":0.024700116642174284,"67":-0.08156967302350107,"68":-0.03203186999060592,"69":0.02538524927589518,"70":-0.023795390174900958,"71":0.022707952347104116,"72":0.026941746827344727,"73":0.01884895701725854,"74":0.027220161606977746,"75":0.06938139675185273,"76":0.051772243697180295,"77":-0.0063672050891258325,"78":-0.04254178826791985,"79":-0.005430939991453184,"80":-0.009860621309365358,"81":-0.027797945593664053,"82":0.022004780725012815,"83":-0.04151931672589847,"84":0.00024438618849591487,"85":-0.0030527446529606574,"86":-0.0021680530139183336,"87":0.06763456921051417,"88":0.009813548844208573,"89":0.00959188759470611,"90":0.0016466985765374719,"91":-0.012588869329768288,"92":0.04105336709357944,"93":0.02869906529283972,"94":-0.01412586624227918,"95":0.01746323584849581,"96":0.02724583253342726,"97":0.04499998669578776,"98":-0.017667949590088165,"99":0.015085900578956667,"100":0.016315647442023375,"101":0.0069082717757980834,"102":0.0006217208549629794,"103":0.018994919088209695,"104":-0.012881352304702375,"105":-0.03737149956276358,"106":-0.026697520889055276,"107":-0.051831641769634625,"108":-0.022579800257633564,"109":0.0213589604062371,"110":0.028288205007798124,"111":-0.05275251770377092,"112":-0.037202905979917565,"113":0.05944417385911133,"114":0.017524008646432786,"115":0.06485375541637611,"116":0.02339592288731932,"117":0.033454148937623246,"118":0.04100844485946718,"119":0.04855417608744421,"120":0.03716568581959794,"121":0.0014671697522723405,"122":-0.011607036250232999,"123":-0.025558112717191318,"124":0.01001741427214679,"125":0.035345828367097966,"126":-0.024029839591585004,"127":-0.0023335984571859147,"128":-0.04831499120761768,"129":0.030731465758767524,"130":0.018435208214533812,"131":0.02897082487331034,"132":-0.0021771385457147355,"133":0.0005335833736863103,"134":0.03839184916665884,"135":-0.008058871130101385,"136":-0.009104362679863823,"137":0.014483039707495263,"138":0.020925595588762655,"139":-0.02048861957645014,"140":-0.002719867549477882,"141":0.05498903060662749,"142":-0.01737834659836337,"143":0.012567742073214618,"144":0.026736365325934597,"145":0.015632452666680636,"146":0.003514303395340315,"147":0.031092335333845946,"148":-0.04244606638952959,"149":-0.04995550808127465,"150":-0.022202765629359918,"151":-0.06101105735002768,"152":-0.0852421291508844,"153":0.020722759969324735,"154":0.011415678605200262,"155":0.06033472234872136,"156":0.07772511202654295,"157":0.02836483115673201,"158":0.026260445258448874,"159":-0.007929909743936734,"160":-0.02012895253711204,"161":0.03561220349440305,"162":0.017744709971921433,"163":-0.04396178139859487,"164":0.027958661632963167,"165":-0.011300173576417674,"166":0.003874904167992175,"167":-0.039027223813636394,"168":-0.005040226633389589,"169":0.062488929462780965,"170":0.010046245224223083,"171":-0.012052740979722653,"172":0.003425051280745278,"173":0.02228134290963026,"174":-0.017420027312609394,"175":-0.005009730794726835,"176":0.007170174270521577,"177":0.029431377379437327,"178":-0.04315157403687461,"179":-0.006435719528132935,"180":0.043408630966290905,"181":-0.016099209178864204,"182":0.039303464729761525,"183":-0.0013746919772692268,"184":0.026840717196965392,"185":-0.003312893486282961,"186":-0.00532031683538085,"187":0.028741087728045112,"188":0.031093786028126697,"189":-0.03643642561014258,"190":0.07677912725749132,"191":0.03348757823393572,"192":-0.005388942087930728,"193":0.06251526365338538,"194":-0.014603647668708761,"195":0.05136658016509301,"196":0.060172863662428265,"197":-0.008654381685439364,"198":0.003104019237160452,"199":0.02521236202988842,"200":-0.03532182435448149,"201":0.012123184491603467,"202":-0.03845757422134376,"203":0.05762780034103257,"204":-0.014603538225677025,"205":0.013208623045703768,"206":-0.01059631954566381,"207":0.03362510443890633,"208":0.03749783213493387,"209":0.002771653987462509,"210":-0.00156469856127565,"211":0.011451226825928485,"212":-0.004188155100728418,"213":0.016528763999276906,"214":0.015645598603354537,"215":-0.012757874122809583,"216":0.024787887167916058,"217":-0.08935260554277122,"218":0.0004290334046316707,"219":-0.005069682011305109,"220":0.0011090174539176178,"221":-0.02163942091353547,"222":-0.018221725464654843,"223":0.011529979265052337,"224":0.004304833123738211,"225":-0.026518711255321115,"226":0.03353768959787927,"227":0.03270908043339472,"228":0.013247293310444672,"229":-0.00847633192090238,"230":-0.017087766273357185,"231":-0.05386762347307603,"232":-0.0208200606992087,"233":-0.017394015959030687,"234":-0.004907861976484481,"235":-0.028115760506299138,"236":0.014429145756504889,"237":0.008645984965527945,"238":0.0017466242387538156,"239":-0.0023521954930914297,"240":-0.04346217004400303,"241":0.005718332632590769,"242":-0.0013438166325932628,"243":-0.01630300385876148,"244":-0.022554911148003592,"245":0.01876518545548953,"246":-0.04068545025092627,"247":0.005250114255489329,"248":0.035618511266980894,"249":0.03486542134289504,"250":-0.015190329608222433,"251":-0.05992028580579064,"252":0.001924681252979406,"253":-0.008820043988221133,"254":-0.06259103119726746,"255":-0.03317227986719508,"256":0.019955631930098732,"257":-0.0001864670553783931,"258":-0.038674389507195546,"259":0.03314574456721242,"260":0.00494018677188496,"261":-0.013238144873736889,"262":-0.03409406804321862,"263":-0.06631173669368394,"264":0.0007949113161871906,"265":-0.0009568635608393658,"266":-0.012060712907949035,"267":-0.0020118395424421317,"268":-0.019378516625733606,"269":0.0055214505394543065,"270":0.003984919802211098,"271":0.010799215067092315,"272":0.001502560230283654,"273":-0.012590045384599177,"274":0.010936889629746725,"275":0.0048003755055630315,"276":0.04669407566771083,"277":0.016342499042872966,"278":-0.05319520092584511,"279":-0.013022943157274692,"280":0.026255466809362766,"281":0.007524921190998381,"282":-0.0135495915479181,"283":-0.03445798063056525,"284":-0.03420263282548542,"285":-0.016082614329504502,"286":0.015993959355076352,"287":0.004042935189563676,"288":0.015967551490304197,"289":0.005857320397581024,"290":-0.007440942452461957,"291":0.0044612185113343476,"292":-0.04947807259591421,"293":-0.009205463582494399,"294":0.020406386034131398,"295":0.010782867354961442,"296":-0.033538737828032246,"297":-0.04761222100007269,"298":-0.01140186669291562,"299":0.00970607489687654,"300":0.009516973661622975,"301":0.059576156602868025,"302":-0.00024020327074899506,"303":-0.019807827380750508,"304":0.004689089931574327,"305":-0.006821835231770489,"306":-0.042598413699723954,"307":-0.001624145739773157,"308":-0.01668355042536435,"309":-0.01875345097341547,"310":0.012684115091560302,"311":-0.0015772790389166342,"312":-0.021410829657878133,"313":0.0003362404336846024,"314":0.031474164485366746,"315":-0.013121614988178269,"316":-0.0015337244350898422,"317":0.031163527411862534,"318":0.015595811368210609,"319":-0.007304317660513697,"320":0.0006847127762658982,"321":-0.0021274417813149566,"322":0.007624647479717878,"323":-0.024094383258608177,"324":0.017504976183820676,"325":-0.015076937333933497,"326":-0.004173916157609011,"327":-0.012467300277195333,"328":0.009935109402067595,"329":-0.014688683395420128,"330":-0.017434691349275437,"331":-0.005248290891760284,"332":-0.009027952776968058,"333":-0.0038509034095746213,"334":0.015004608380883818,"335":0.025163279494680932,"336":0.006721343354311316,"337":0.004459022177207901,"338":-0.0024048932715568694,"339":0.010676742077926583,"340":-0.008629438697660951,"341":0.015011898220457261,"342":-0.02675895926339227,"343":-0.046937327842644296,"344":-0.008964635370550724,"345":0.016733974750532125,"346":-0.04471498025326873,"347":0.005161900953092469,"348":0.0019498507861867875,"349":-0.006256922152048592,"350":0.013482287198173838,"351":0.015707011642327712,"352":0.01916452748175421,"353":0.002555115405470101,"354":0.04460663395935329,"355":0.001646908880540844,"356":0.021804031365454342,"357":-0.010973535091874029,"358":-0.056181673585613906,"359":-0.043983360037489115,"360":-0.026650895269823942,"361":0.040596321119118255,"362":-0.053220981512859804,"363":0.010898866058439016,"364":-0.014850271658079287,"365":0.04842804706821261,"366":-0.023012157397943704,"367":-0.0032473577543244867,"368":0.023862990962628707,"369":0.009309791042575746,"370":0.0037070268400601703,"371":-0.016989417721767378,"372":0.0023650609873972586,"373":0.020916081638826547,"374":0.0507323074805748,"375":0.029221047804151048,"376":0.03616148529815226,"377":0.022165230074171722,"378":0.027067788555371692,"379":0.0032833296715224225,"380":0.006241863111399405,"381":0.011275890534970634,"382":-0.02573519561816444,"383":-0.012063363342457157,"384":0.0019235318137640317,"385":-0.000007769145188416939,"386":0.0003723161239908459,"387":-0.01937332126529291,"388":-0.02183461491432101,"389":-0.01941809736763076,"390":-0.0015581988593278795,"391":-0.007415228717734718,"392":0.017827503919142257,"393":0.01563114417211874,"394":0.0012909310516187038,"395":-0.04722501348721547,"396":0.02094082532837042,"397":-0.013596681486283521,"398":0.01797719865446913,"399":-0.04294143067779448,"400":-0.029750848483114867,"401":-0.01426522279577195,"402":0.016453483264929132,"403":0.036618047861072284,"404":0.03144026862555245,"405":0.0709716803005277,"406":0.0016298165357443027,"407":-0.017129010973349727,"408":-0.0128885821754059,"409":0.03870763195882432,"410":0.03538018815279473,"411":0.012174757424327737,"412":-0.018725995420455083,"413":0.023513834717096796,"414":0.007962948374234646,"415":-0.011197156628100903,"416":0.04088601167104318,"417":-0.018143116709419538,"418":0.001957865938642373,"419":-0.0036649886614136544,"420":0.02081549936950542,"421":-0.0298838041377627,"422":0.001611543829882387,"423":-0.009055908948624094,"424":0.004739421764016555,"425":-0.002898900513719126,"426":-0.004548817059123272,"427":-0.020297370137535947,"428":0.032280474528295244,"429":0.008133313342590962,"430":-0.015271538223836761,"431":-0.00712311049271205,"432":-0.020290623418332942,"433":-0.06435976695358238,"434":-0.009557986426719066,"435":-0.011823214289136288,"436":0.025759423765652916,"437":0.02451310866991295,"438":0.04615435474081858,"439":0.03197620177740727,"440":-0.006508974554392334,"441":0.010327642073418387,"442":0.020126370287234515,"443":-0.03555858366245361,"444":0.04808769573320098,"445":0.004066290788830056,"446":0.012711248692611423,"447":0.0009138650725536328,"448":0.02659463879162357,"449":-0.010979061873280542,"450":-0.008781969972292667,"451":-0.027987376063427927,"452":-0.021436295495975293,"453":-0.013754270964531528,"454":-0.012091449468875456,"455":-0.06609903842945113,"456":0.017155789860826817,"457":-0.01624063037413335,"458":-0.021415895600681616,"459":-0.014509757356224366,"460":-0.018864063828021634,"461":0.013401021586264864,"462":-0.007144452443455396,"463":-0.000274270666948031,"464":0.007465484582712294,"465":0.022170072199351486,"466":0.012741437667092325,"467":-0.021821321569416175,"468":-0.03709931734615827,"469":0.015723900230794126,"470":0.004313342813211339,"471":-0.017869988414620768,"472":-0.004189149929126656,"473":-0.011374867827428187,"474":0.013815304178927965,"475":-0.017934106128183514,"476":-0.0016799105823002301,"477":0.021431651443071256,"478":-0.011329284713916714,"479":0.02105366904186186,"480":0.015323678199557295,"481":0.0324189141948557,"482":0.023204197632192506,"483":-0.022927842488875076,"484":0.014786793771031726,"485":-0.00913168880477946,"486":0.04670999300414525,"487":-0.03257396307343875,"488":0.017698295901882467,"489":0.006512469659154089,"490":-0.05291870195616619,"491":0.0004019607132105437,"492":0.06976910992012023,"493":-0.0074301231952442265,"494":0.03226041580627891,"495":0.016834173531156696,"496":0.039074761506124434,"497":-0.02649296001408168,"498":0.012163403113493412,"499":-0.01350357621407256,"500":0.016818729487728033,"501":-0.03785759896320722,"502":0.011925010916005011,"503":-0.03820894643258692,"504":-0.025934301102472957,"505":0.005518595569881482,"506":0.030520712009251983,"507":0.03343978065932909,"508":-0.009097887381617271,"509":0.03319937691373599,"510":0.0072969459754743315,"511":-0.008543989229462942,"512":-0.0024526087745648335,"513":0.036469407852688776,"514":0.011337807138031489,"515":-0.005069335548758563,"516":0.022787115008135305,"517":-0.0305721317616066,"518":-0.03913458545697549,"519":0.0009099486647409126,"520":0.001941374969221732,"521":0.013812234328132618,"522":-0.00210959624051975,"523":0.039561408428601015,"524":-0.038414992388026085,"525":-0.008407423699153595,"526":-0.012772163414920507,"527":-0.006737024424520994,"528":0.000767296210153625,"529":0.03030312010388883,"530":0.029037013557030568,"531":-0.01325064282606225,"532":0.01655295524955975,"533":0.0322272507177724,"534":0.00016905170938457358,"535":0.05794603532239777,"536":0.017598539802769774,"537":-0.030061544465881572,"538":-0.006984127443553702,"539":0.006922142764505705,"540":-0.0036345481100539573,"541":-0.01240547004598848,"542":0.006656859900565194,"543":0.02698777076282734,"544":0.006267957674623711,"545":-0.05519161447648283,"546":0.05113944760300257,"547":-0.05285820867884325,"548":0.03300448806095895,"549":-0.016569847408364237,"550":0.01235126861428062,"551":-0.04497726923410387,"552":0.01648533127570797,"553":0.009271870343521563,"554":0.017520071327568713,"555":-0.034748211383435826,"556":0.011146704536211137,"557":0.01956264050581335,"558":0.023296649823625844,"559":-0.0362841913724917,"560":-0.0003127893863877189,"561":-0.005275042028825814,"562":0.005475372955404629,"563":0.016610627784847044,"564":0.022150124160636938,"565":0.0018087602371468466,"566":0.014900722025203504,"567":-0.0057797378345490445,"568":0.03861020228172502,"569":0.0216476502091217,"570":0.009902925984270283,"571":0.017975877842843536,"572":-0.01275705632884375,"573":0.00045013248490816875,"574":0.060659894427677996,"575":-0.008863715046100758,"576":-0.020084741322389268,"577":-0.02322076759826228,"578":-0.01359904375788132,"579":-0.02502760558681642,"580":-0.0059332884746194775,"581":-0.0006484696474054863,"582":0.011619763233800564,"583":-0.012926011204651559,"584":-0.002904929795044738,"585":0.03769055198159438,"586":-0.012764177779116282,"587":-0.0045949026871647146,"588":0.023507761118491226,"589":0.0030802632296230855,"590":-0.027009251745263793,"591":-0.016093556882483165,"592":-0.01753709180295752,"593":-0.030169632448269847,"594":-0.045424978184701016,"595":-0.011899876551800047,"596":-0.03658459165062888,"597":0.021611628403719885,"598":0.02930332157441114,"599":0.007910941500671129,"600":-0.037769033103805916,"601":0.007171670417385283,"602":0.03704931168478909,"603":-0.030310256332881036,"604":0.01954243459824448,"605":0.0006324042280929656,"606":-0.018271970971799015,"607":-0.026316504990772472,"608":-0.01146579895453501,"609":0.0010095789171214386,"610":0.031150624120728457,"611":0.008598567530765046,"612":0.057521575051929244,"613":-0.012213853608890558,"614":-0.006303110116529901,"615":-0.0233620006364534,"616":-0.036345608169948744,"617":-0.014609697563061585,"618":0.002668991101761372,"619":-0.025942546057906305,"620":-0.011801965303753291,"621":-0.042342573570979446,"622":-0.031028605415974967,"623":0.036150279114301985,"624":0.017087896864411603,"625":0.0510155623826065,"626":0.0005741785954373678,"627":0.027229827605080567,"628":0.020193666584828636,"629":0.020717067762022444,"630":-0.04617102925577106,"631":-0.019571699737374552,"632":0.007917909923905696,"633":-0.020993037194486978,"634":-0.006936979841253551,"635":-0.015668732245417944,"636":0.003017136850153808,"637":0.010012356646792876,"638":-0.03779729184976268,"639":0.0030207811266023932,"640":0.02200861960621874,"641":0.040679737773432506,"642":0.03683466823885394,"643":0.06735228251879607,"644":-0.023969472009626874,"645":0.019059800781068868,"646":0.027511084225077267,"647":-0.01194746436163365,"648":0.011787630748655811,"649":0.04538862824464973,"650":0.05564000041011029,"651":0.02612658848900556,"652":-0.0011624506345108451,"653":0.03914109265329061,"654":-0.04892782826324919,"655":0.003973109177469935,"656":0.01468944792105656,"657":0.050210762658543205,"658":0.03001126112629731,"659":0.018929302579514477,"660":0.0050588570157189885,"661":-0.06832473297383683,"662":-0.02149534451414421,"663":-0.0033498472892527584,"664":-0.008021475263547217,"665":0.029276232575245087,"666":0.014601143185672594,"667":0.15190752709685673,"668":0.004567317294918256,"669":0.028599389067084754,"670":0.08002323245592025,"671":0.02169113508747011,"672":0.026845557317426993,"673":-0.0738970866351514,"674":0.04193848983263529,"675":-0.011352060964995709,"676":-0.007329519236585584,"677":0.022776452713760522,"678":0.0030952590291810694,"679":0.023868319550250934,"680":0.017908335197097877,"681":0.01715025573071226,"682":0.022336464112622804,"683":-0.01316654034566786,"684":0.05105912630568735,"685":0.0300077920987274,"686":-0.0008569384854120596,"687":0.016094823502725092,"688":-0.009966237862904695,"689":0.039108590583445,"690":0.0023608020191853304,"691":0.024474131955051725,"692":-0.014245602552089823,"693":-0.0383088168227996,"694":-0.0007336494415782455,"695":-0.0006576929309643952,"696":0.02441133555622506,"697":-0.03723102438498999,"698":-0.009967183064243918,"699":0.058084085737227426,"700":0.009532990547634426,"701":-0.033552122535932115,"702":0.024412317625255975,"703":0.027283084893539433,"704":0.001898212734051476,"705":0.005797994008055279,"706":0.012343396104761532,"707":0.026827770905573384,"708":0.0018649930941953827,"709":-0.037331638702978724,"710":0.0016899511675059924,"711":0.02090932474362569,"712":0.036100072763371,"713":0.02368625882962424,"714":0.008364583840721548,"715":0.02668145990102374,"716":0.0218656451287962,"717":0.03354685001002869,"718":-0.009232132896992162,"719":0.005907612572103954,"720":-0.0006817594726444958,"721":-0.02376132513261632,"722":0.04466172692985699,"723":0.005013161743905612,"724":-0.01103598529621998,"725":0.004497778877428418,"726":0.044170947335554794,"727":-0.02944027532733357,"728":0.0222072780311158,"729":-0.003040783576831847,"730":0.009741526760658672,"731":0.012082509472357596,"732":-0.02578658998905087,"733":-0.002381229862911795,"734":0.034932592907836256,"735":-0.044241500025814715,"736":0.0741270282235301,"737":-0.020302509120927507,"738":0.05698960854327633,"739":0.020488988691262748,"740":0.003443824678340907,"741":-0.005547725703121718,"742":-0.03464158985260554,"743":0.020339425606910974,"744":0.022162909279803248,"745":-0.08079597061341033,"746":-0.017674401375139537,"747":-0.012377301661781947,"748":0.057512950666056294,"749":0.039054697768548106,"750":0.028309575957274066,"751":0.041276902062094015,"752":0.011422974032187245,"753":0.012617635259005543,"754":0.01213558825569779,"755":-0.01106547959286401,"756":0.00412191300711486,"757":0.020719486582177208,"758":0.02747145745518679,"759":-0.017646007945673226,"760":0.006250490653162769,"761":-0.012646829571933598,"762":-0.002198433275184144,"763":-0.011498641740684316,"764":0.008526500579367616,"765":-0.04540905060002522,"766":-0.030998783665511263,"767":0.0008551693442136004,"768":-0.018367690290116603,"769":0.027670540483446977,"770":-0.01922592320903919,"771":-0.03738643061747726,"772":-0.015772119099699628,"773":0.004010495484654584,"774":-0.026347572520545516,"775":-0.03467260438391705,"776":-0.017316356804288672,"777":-0.028170105250841793,"778":-0.036849769062857446,"779":0.02260584130055213,"780":-0.01962780722841022,"781":0.002526153360757284,"782":0.02066513421392196,"783":0.0037278683922906063,"784":0.034268378455981546,"785":-0.008275273400904361,"786":-0.0024833807936374087,"787":-0.0009428928797011954,"788":0.002858814187241963,"789":0.021097742013778682,"790":-0.046685851334264776,"791":-0.008576438454430603,"792":-0.01458312907204238,"793":0.018963326769577758,"794":0.006236115333546219,"795":0.03566920283617553,"796":0.00973638266033185,"797":0.010096442025178282,"798":-0.02922050373712064,"799":-0.009586609228496456,"800":-0.0025359420271132828,"801":0.044223201756787525,"802":0.010278649409298242,"803":-0.012810849044807183,"804":-0.010360469886465712,"805":0.044556692667063115,"806":-0.002311480215062925,"807":-0.009904278664581727,"808":0.04428979642920831,"809":-0.0013729563660301726,"810":-0.023816715709634156,"811":0.05208901416013584,"812":0.051165924651166414,"813":-0.0045230811626355725,"814":0.021551400888053643,"815":0.024709646678101552,"816":0.03143637291423492,"817":0.015263339614642938,"818":0.021419339964119866,"819":0.01039897430170537,"820":-0.06188368943331448,"821":-0.02615675406921548,"822":0.04120658773769136,"823":0.016826664735946305,"824":0.02491013713308522,"825":0.035484633907658554,"826":0.15770794012999734,"827":-0.025757051284511293,"828":0.021180661902335567,"829":0.18814644946008305,"830":0.018824474121783105,"831":0.022079106355190538,"832":-0.025045707023720224,"833":0.02341881958625004,"834":-0.048235335432721835,"835":0.01047225666593968,"836":0.00810035351489256,"837":-0.013466848215221821,"838":0.006446712328420669,"839":0.01926956739586176,"840":0.023666695898621238,"841":-0.0011720620041146723,"842":-0.034661583176462736,"843":-0.0003223642926815967,"844":0.03846128867602756,"845":0.037298769702449615,"846":-0.032728213696424535,"847":0.050846646852685924,"848":0.0007215612406267516,"849":0.024987200156161116,"850":0.026452619335324903,"851":-0.047236433595933734,"852":0.002243716698871762,"853":-0.06868007768971991,"854":0.02617885117044432,"855":0.016213655028560887,"856":-0.05871818850634386,"857":-0.003706777109141741,"858":0.02914537921163237,"859":-0.010939509637583375,"860":0.014382185528044615,"861":-0.025614449272290982,"862":-0.005431301397300125,"863":0.023799311337909655,"864":0.04762755982143106,"865":0.010925663469889645,"866":-0.019486946786795124,"867":-0.03560948906749285,"868":0.00887175394753653,"869":0.014081360521320637,"870":-0.0037141549895416503,"871":-0.01608595120395915,"872":0.012379840651848828,"873":0.017330228372897584,"874":-0.02297543740207592,"875":0.04601271853596376,"876":0.012058828153278998,"877":0.0034195621579908493,"878":0.012998687615096498,"879":-0.02823433566588566,"880":-0.021602778184303374,"881":0.04906376449459597,"882":0.00729227947242619,"883":-0.022142662183466166,"884":-0.024549296886735242,"885":-0.0546453889439846,"886":-0.0075597883824782665,"887":0.017648307730560708,"888":-0.013509466318345938,"889":-0.004429909223405212,"890":0.03807317885023285,"891":-0.07290327384578968,"892":-0.03277918720743102,"893":-0.022603901256642744,"894":-0.0037756979844957256,"895":0.033695482724260165,"896":-0.01420433395846104,"897":0.023491902508120013,"898":0.010648217294584884,"899":-0.0019280100588983649,"900":-0.02554450686424592,"901":0.02898374083339528,"902":-0.0003859789163724415,"903":-0.04351681626453625,"904":0.000003842397037838723,"905":-0.009386063177976836,"906":0.04058697877448021,"907":0.007917457607867136,"908":-0.00831226284529651,"909":-0.026396494848229955,"910":-0.01037734097546937,"911":-0.027646362282689938,"912":-0.007924914596315651,"913":-0.023065406925927602,"914":0.016901549387038025,"915":-0.020441202591799417,"916":-0.011421968049717783,"917":-0.016925130370809092,"918":-0.018195324204521815,"919":0.018097286762928592,"920":0.02227900286472432,"921":0.015579830559926663,"922":-0.0025379136257105716,"923":-0.029877410979468933,"924":0.01242992545543339,"925":0.04025178086629746,"926":0.019192446976995396,"927":0.004031833755664041,"928":-0.028398179201503084,"929":-0.005464534878461763,"930":0.02311679403090885,"931":-0.049661055495395866,"932":-0.008148272051773651,"933":0.03420858410759624,"934":-0.011600950808486906,"935":-0.049542219849112265,"936":-0.0011637015219329683,"937":0.03414591490207189,"938":-0.029061230246795567,"939":-0.006843008028163401,"940":-0.007510953021813582,"941":0.027113916061557497,"942":0.003988754795967407,"943":-0.02090857197052017,"944":-0.005681354675194226,"945":0.048345063098012606,"946":0.05505886546263627,"947":0.0073502367826266445,"948":0.010361933733625277,"949":0.00007892535410813353,"950":0.010352872385928887,"951":0.025321091730275615,"952":0.0043887766353702526,"953":0.024005511155137577,"954":0.00498386770727284,"955":0.0021819788135507535,"956":0.009284926923188603,"957":-0.0285753192688267,"958":0.012626346805646371,"959":-0.0075776363744629515,"960":-0.01419198460658462,"961":0.009907522454041884,"962":0.002136875867053032,"963":0.047927892953980256,"964":0.005762244315404239,"965":0.040271123602895795,"966":0.004871690652742526,"967":0.0019480254441767574,"968":-0.012758665110970012,"969":0.02315593617300987,"970":-0.001965009599924112,"971":0.005466372064971954,"972":0.022090916671824286,"973":0.009923646873456015,"974":0.030661911804329017,"975":-0.03239471438002671,"976":0.0027276287651366794,"977":0.00595950709769435,"978":-0.029539797941403073,"979":-0.01763400828099727,"980":0.013940715291828575,"981":-0.00519092954673357,"982":0.030316644395118414,"983":0.03292667872848672,"984":-0.0421870197769087,"985":0.025379532552134588,"986":-0.0011982401619378743,"987":0.001994825234019535,"988":0.007349903375269436,"989":-0.013755286591200112,"990":-0.010906183461028049,"991":-0.017970753180574547,"992":-0.018558648060700674,"993":-0.02508810177048074,"994":-0.016826132188640434,"995":0.02136960913850014,"996":-0.006944605279731289,"997":-0.005512647008269185,"998":0.02079025565871671,"999":0.021246666582749554,"1000":-0.04873586832929425,"1001":-0.028890558373888677,"1002":0.016777217488988035,"1003":0.023661676585136085,"1004":-0.02978986797845492,"1005":0.020442925469488372,"1006":0.005218095442571168,"1007":-0.01389492906757425,"1008":0.022679212828598957,"1009":-0.011587983482583082,"1010":-0.0319687318419379,"1011":-0.0005971279927471131,"1012":-0.0013321395011799157,"1013":0.05871246509220424,"1014":-0.01664734901014587,"1015":-0.01162150677644492,"1016":-0.004797555633725713,"1017":0.035422600871942066,"1018":0.03741738153677719,"1019":0.051131326846113635,"1020":-0.0260244652044838,"1021":-0.026198356687991864,"1022":-0.015674757395072198,"1023":-0.004775647557558704,"1024":-0.008346670698596024,"1025":0.002227550036226861,"1026":-0.03725191376233816,"1027":0.045652689979186145,"1028":0.048269250541534234,"1029":0.05085474926106924,"1030":-0.010694856340537006,"1031":-0.0004326762021814503,"1032":-0.02735614229135368,"1033":-0.03091444556733469,"1034":-0.0009804220883579862,"1035":-0.01945092059778174,"1036":-0.0437107807084015,"1037":-0.028787752710601258,"1038":-0.004464541603299319,"1039":-0.057624186606262215,"1040":-0.025893122371034295,"1041":0.015491496556538649,"1042":0.027782820344373103,"1043":0.022744424294177955,"1044":0.011880802361330165,"1045":0.008120266040894742,"1046":0.00490630209329503,"1047":-0.0005055275604348654,"1048":-0.022875029435164725,"1049":0.052294487559250626,"1050":0.044612903251523534,"1051":0.011555283750075515,"1052":0.025126530582877775,"1053":0.05066859863290586,"1054":-0.04235621245832867,"1055":0.029843027282663057,"1056":-0.004638693207513217,"1057":0.003008797082410671,"1058":0.01554284525139069,"1059":0.04994558045326434,"1060":-0.005136605911378178,"1061":0.022273648138085838,"1062":-0.05838436756267321,"1063":0.015445239681334712,"1064":-0.025507641930276277,"1065":-0.013154216666523194,"1066":-0.057208792240854046,"1067":-0.02259426839276776,"1068":-0.006291632696961862,"1069":0.029440436780653285,"1070":-0.021310359037327305,"1071":0.01872885675682538,"1072":-0.012029920305162603,"1073":0.006171988613988102,"1074":-0.021670372464555433,"1075":-0.021325235880597086,"1076":0.0020218330531946646,"1077":0.03060596749588278,"1078":-0.04726459375356655,"1079":0.03654125064140123,"1080":-0.028457278247354046,"1081":-0.01281108427514576,"1082":0.01658835341237897,"1083":0.003915660972229884,"1084":0.02002607330522519,"1085":0.013499654516017605,"1086":0.0057645502922282175,"1087":-0.007552404752410069,"1088":-0.03911337078637581,"1089":-0.005702501564121255,"1090":-0.018597973300188995,"1091":0.0018729738130782083,"1092":-0.019977434083394544,"1093":0.030564400956131107,"1094":-0.04774219449617798,"1095":0.02656023427255144,"1096":0.0031335478431852954,"1097":-0.003940678305040406,"1098":0.0163590151093446,"1099":0.002207977546913179,"1100":0.004733731856358727,"1101":-0.03286076421928729,"1102":-0.026298989933070175,"1103":-0.02256985111023546,"1104":0.0008691626049409516,"1105":-0.005473481633309527,"1106":-0.020628929823578737,"1107":0.024029688901418336,"1108":-0.021683556325702194,"1109":0.01713688186756374,"1110":-0.0006766981537171469,"1111":0.035630812667278466,"1112":0.016825231417121545,"1113":0.031522034277563074,"1114":-0.019803013942951538,"1115":-0.0016174128311987087,"1116":0.0016406332320010315,"1117":-0.016277715207669175,"1118":-0.024149595547841164,"1119":-0.00823507416556878,"1120":0.0474719687525868,"1121":-0.016975085826776832,"1122":-0.03359607642905018,"1123":-0.0045417983530545505,"1124":0.01805147888811504,"1125":-0.0154981069828838,"1126":0.035703531216435325,"1127":0.026529072656196532,"1128":0.024808517919770675,"1129":0.06471485514595492,"1130":-0.01225742508115459,"1131":-0.0628414978685605,"1132":0.016094571770017007,"1133":-0.021053280780055934,"1134":-0.024426679069795187,"1135":0.00492174088368948,"1136":0.0031957797335258596,"1137":0.0035108382828984903,"1138":-0.01503590698103771,"1139":0.006164149759091729,"1140":-0.016945432875851908,"1141":-0.017094917534323687,"1142":0.03940899305471896,"1143":0.025876287908596092,"1144":0.016652745766339183,"1145":0.05349054423611964,"1146":0.012582203448025651,"1147":0.039823893045789024,"1148":-0.003919477568465529,"1149":0.04638966474557831,"1150":0.02526289617260854,"1151":0.022088191638111432,"1152":-0.012832530043026731,"1153":-0.0032694758800958274,"1154":-0.012969786693307247,"1155":0.06422278959136227,"1156":0.040450601588713025,"1157":-0.02184492792536598,"1158":0.020349517341639554,"1159":0.004741478659601503,"1160":-0.01618225411381233,"1161":-0.050396838728298546,"1162":0.02293486961552951,"1163":-0.009847167878730623,"1164":0.01710482684181937,"1165":0.02333702807639414,"1166":0.01367400378675564,"1167":0.01081146183679387,"1168":-0.05087901682618433,"1169":-0.021530878283176465,"1170":-0.008293724181772448,"1171":-0.0318926207134331,"1172":-0.0024608692830539788,"1173":-0.01614350881431387,"1174":0.04279581492095048,"1175":-0.030288569337835875,"1176":0.06365921577023663,"1177":0.04054008825767198,"1178":0.00710923601798024,"1179":-0.0253115148202744,"1180":0.03003844116882709,"1181":-0.060463210061400756,"1182":0.025214960820146334,"1183":0.03675875736296353,"1184":0.07160396851681533,"1185":0.0006766502181224927,"1186":-0.019903686210547823,"1187":0.018316597159958228,"1188":0.026164885460497254,"1189":0.01310402377864215,"1190":-0.017248490223015618,"1191":-0.06781184082476481,"1192":0.011709468658458119,"1193":0.032342559160028456,"1194":-0.013147100034011008,"1195":0.04369618305828431,"1196":0.00022803729296218736,"1197":0.0386818675694307,"1198":0.008627819534431393,"1199":-0.028236085480036883,"1200":-0.05143993257050546,"1201":0.025588911021719948,"1202":0.008340056159741765,"1203":0.0035039087352978847,"1204":-0.028868095871496784,"1205":-0.0140426726682723,"1206":0.031291603216351306,"1207":0.0018171361932713664,"1208":0.033578168920940836,"1209":0.0010397823064888577,"1210":0.01407187749285419,"1211":0.013910719672383437,"1212":-0.04072529089288993,"1213":-0.01852036182469121,"1214":-0.02080772862332196,"1215":-0.0023945602928788657,"1216":0.007982206971521513,"1217":-0.029685683940459607,"1218":-0.003567000770243361,"1219":-0.006322977095931122,"1220":0.022134551124184124,"1221":0.01834966697762324,"1222":0.03584211395141964,"1223":-0.003966501929816913,"1224":0.025398573908929696,"1225":0.023944903769132844,"1226":-0.001153646424849065,"1227":-0.02250011649178098,"1228":0.005409830798367018,"1229":0.027734606205732724,"1230":-0.013045008203851937,"1231":0.0024471902901462943,"1232":0.03475311378901125,"1233":-0.011439186955784216,"1234":-0.0041433955834172306,"1235":0.01803043475310692,"1236":0.01777834616631208,"1237":0.020790691442775316,"1238":0.022917165852466916,"1239":0.016330690936740135,"1240":0.01321878408194608,"1241":0.06238298687682624,"1242":-0.08359049330465372,"1243":-0.0014621458322015396,"1244":-0.05246148952059026,"1245":-0.03558556418660679,"1246":-0.014484884743972417,"1247":0.00872171140926857,"1248":-0.019423995875345254,"1249":-0.06592459142868815,"1250":-0.01783609893140946,"1251":0.0591535510611502,"1252":-0.03853247231812507,"1253":-0.03603465804613567,"1254":0.011326417109693556,"1255":0.02695695211998517,"1256":-0.037170934687144705,"1257":-0.028786832227872768,"1258":-0.027701559933540055,"1259":-0.061254937432136655,"1260":0.050065404404054485,"1261":-0.022058621206649563,"1262":0.011052672707242986,"1263":-0.003359628859951129,"1264":0.0461218811983554,"1265":0.01682387571873607,"1266":0.009312762677429427,"1267":-0.016520961530716465,"1268":0.010304407805767319,"1269":-0.0338103393505199,"1270":-0.001984579229562286,"1271":0.00015246290112088878,"1272":0.03005610124820453,"1273":-0.016716880364985878,"1274":0.008056214623481973,"1275":0.01781369265227793,"1276":0.028859614144510763,"1277":-0.025357050647100934,"1278":0.056342375714956705,"1279":-0.018608109561036673,"1280":-0.020577276770156406,"1281":0.0015593642139827442,"1282":0.01707905526043965,"1283":-0.00834455854405415,"1284":-0.008046034147594883,"1285":0.010683545370504824,"1286":0.028130910108892796,"1287":-0.031193826767058577,"1288":0.03891033968513377,"1289":-0.002858682079414366,"1290":-0.02770465450529717,"1291":-0.013989709284966713,"1292":-0.05289296441268657,"1293":0.020233962225512124,"1294":0.004279851472969283,"1295":-0.042625861158309464,"1296":-0.03120395601017235,"1297":-0.02470376033779909,"1298":-0.003248387652438787,"1299":-0.01818676645594153,"1300":-0.0073886999267002845,"1301":-0.041617704821777846,"1302":-0.026449110969600866,"1303":0.015270452774084956,"1304":-0.01451512127869917,"1305":0.045165987348473026,"1306":0.002165904859175141,"1307":-0.013655412799216157,"1308":-0.04181928611029016,"1309":-0.026307434752131213,"1310":-0.015361405935435519,"1311":0.037931099649122633,"1312":-0.005098096247490047,"1313":-0.008345685745986386,"1314":0.004778926797910624,"1315":0.03683874616205678,"1316":-0.013504099150577417,"1317":0.0018649556933702746,"1318":0.0190973155157473,"1319":-0.02892773726407177,"1320":-0.014128985925984328,"1321":0.013644282567040658,"1322":0.02094000128879137,"1323":0.016572331729727982,"1324":0.016916881387008566,"1325":-0.03596672012010328,"1326":-0.061101625183150994,"1327":0.015485407377977219,"1328":0.004658187981102089,"1329":0.048191830916741764,"1330":0.004363013328277405,"1331":-0.0030504417350288773,"1332":-0.0036177539895036015,"1333":-0.013264883770567882,"1334":-0.005907335403955389,"1335":0.006897086971754637,"1336":-0.05554555779632425,"1337":0.043859804530479864,"1338":0.014631341993056745,"1339":-0.02977656133356437,"1340":0.030374300925166447,"1341":-0.01413656361060477,"1342":0.027933317272811016,"1343":-0.0015387414982228603,"1344":0.029093487916696654,"1345":0.00410964530829434,"1346":-0.006362520350477368,"1347":0.020075481207774207,"1348":-0.00024258777304471526,"1349":0.00441967733140042,"1350":-0.016943502619651326,"1351":0.019360659739929693,"1352":-0.0007476399407764198,"1353":-0.006958120641900094,"1354":0.047300179621095895,"1355":0.007199760310537746,"1356":-0.008979883657377072,"1357":0.041450594662042387,"1358":-0.015845483694753103,"1359":-0.012117541544150125,"1360":-0.0485816116258509,"1361":0.020848895507158464,"1362":-0.018415357011629118,"1363":-0.0057804733760918854,"1364":0.047858787755220046,"1365":0.0526302643344222,"1366":0.006081611945326116,"1367":0.03324446146483842,"1368":-0.034071822417083265,"1369":-0.010381340110043576,"1370":0.0019489079172636883,"1371":-0.011494854344024743,"1372":0.029409144759430142,"1373":-0.02751972078516401,"1374":0.04357933517161822,"1375":0.011498650810957264,"1376":0.01009174775367095,"1377":-0.022528645870243055,"1378":0.02196695705580713,"1379":-0.014599762111595246,"1380":0.04833012195758427,"1381":0.010671342900860366,"1382":0.009763335128256969,"1383":-0.015003618369273171,"1384":0.008133296124212113,"1385":0.00242407322155859,"1386":0.03180925040543088,"1387":0.014929545932380332,"1388":-0.003572505592413795,"1389":-0.004817486358443823,"1390":-0.04126292082572338,"1391":-0.013881827889582327,"1392":0.02640937259029,"1393":0.0006357566148685771,"1394":0.05095552321775185,"1395":-0.010117841294360408,"1396":0.005332274129281662,"1397":-0.003930388963304727,"1398":0.06873527863435454,"1399":0.018969636880504553,"1400":0.0134029344392821,"1401":0.020500392171419086,"1402":-0.0034482863368580727,"1403":0.013501546722119234,"1404":0.005249920746876194,"1405":0.009472652273011124,"1406":-0.0022357944712906312,"1407":-0.008031691246509242,"1408":-0.006330833634324955,"1409":0.05669966596003171,"1410":0.01894258440649486,"1411":-0.029975027571499353,"1412":-0.02137425542631411,"1413":-0.006022669820747878,"1414":-0.005610390091344402,"1415":-0.006165059155149244,"1416":0.007092598349671215,"1417":0.03631816939361283,"1418":-0.0034180936579964304,"1419":-0.03010169682895157,"1420":-0.02990492044873414,"1421":0.015860054584951305,"1422":0.025386567076930475,"1423":-0.01285046558234162,"1424":-0.031302385184441395,"1425":0.007009204519615657,"1426":-0.022678542314868277,"1427":0.016693744873703724,"1428":-0.0013456121058109637,"1429":0.015735536833745917,"1430":-0.030330784536690258}},{"sx":3,"sy":3,"depth":159,"w":{"0":0.029320721835694927,"1":-0.061417033008363146,"2":-0.02982064647725149,"3":-0.007363412654101898,"4":-0.020674850037043144,"5":0.012775229674452108,"6":-0.016000421669861882,"7":0.031706121195832514,"8":0.0344496684178262,"9":0.0016728565643887652,"10":0.00860540280648642,"11":0.020603909532017274,"12":0.0069971282444370305,"13":-0.005689490805489648,"14":-0.000667527015197325,"15":-0.01704718403355255,"16":-0.02243133396399628,"17":-0.031023229517759317,"18":-0.0218994405542498,"19":0.001717420083294327,"20":-0.021282834504293777,"21":0.007016539355892154,"22":0.016448602373408033,"23":0.03684502317491254,"24":-0.062236951647727475,"25":0.006357825216399806,"26":0.026317793121810967,"27":-0.011959398267304825,"28":0.022761333096690855,"29":-0.04072642265303315,"30":-0.027809099297898977,"31":-0.03660663380864027,"32":0.01726526533614929,"33":0.015038074471612265,"34":0.020138004101112696,"35":-0.04256694830924245,"36":0.06400874436703073,"37":-0.0437718383147273,"38":0.0007042273567514031,"39":0.012572663146007574,"40":0.03220928201357126,"41":0.026952811876320083,"42":-0.017634741755039887,"43":0.05938196788490085,"44":0.011694190787360231,"45":0.04189620514181836,"46":-0.013241937131294018,"47":0.029510397140323455,"48":0.02873284988508624,"49":0.0191698521645251,"50":0.03857703599059156,"51":0.029527751747880828,"52":-0.03422161491871774,"53":0.017418014907231757,"54":-0.01296801104380096,"55":0.026132040614014015,"56":0.03065526195992505,"57":-0.027903619134846163,"58":-0.00855855564062655,"59":0.03498424681237217,"60":-0.049644526386654356,"61":0.03659609518588316,"62":0.03788392455552207,"63":0.03425650495911089,"64":-0.021816613484191925,"65":-0.00827534276320354,"66":-0.02410141015381048,"67":-0.0018935338991047466,"68":-0.014399345435092066,"69":-0.004646776216623489,"70":0.011607634059469305,"71":0.03519505503554474,"72":-0.047845803001742855,"73":-0.0450450263875715,"74":-0.026651501398851026,"75":-0.01453652686351918,"76":-0.038927082738320164,"77":-0.004950584667845787,"78":0.032376706905982634,"79":-0.023522512083151075,"80":0.019112421088109198,"81":0.015367534042641967,"82":-0.027713945133751097,"83":0.012377600524315401,"84":-0.041624292563426674,"85":-0.001540997380401606,"86":0.009200350717024712,"87":0.030928847537132216,"88":-0.034382056803996065,"89":0.005283763042375441,"90":-0.021055451372378985,"91":0.06300754197975723,"92":-0.03653915024534365,"93":-0.01726160347591705,"94":0.07324255565815886,"95":-0.020627212935123547,"96":0.025304896941198647,"97":0.03613010950301642,"98":0.018533431814964856,"99":-0.06810336843264367,"100":0.0022436779526464603,"101":0.028953205986785788,"102":0.031386897580876275,"103":0.014022317811445117,"104":0.040545838420217785,"105":0.015948598207566743,"106":-0.008077424213778274,"107":-0.025167964053219163,"108":-0.005781545521695624,"109":0.030708192839519945,"110":-0.019236371719574312,"111":0.027125818385209433,"112":-0.02002842773563298,"113":-0.0222385989309232,"114":-0.014420164877256605,"115":0.0246912353231985,"116":-0.03299273966038429,"117":0.007149313311620995,"118":-0.011081337981832537,"119":0.0025444227106747774,"120":0.032664615869351314,"121":0.05773521613056406,"122":0.016593194445601752,"123":-0.028691135731105783,"124":-0.028340334668742036,"125":-0.015396085720404962,"126":-0.008321507781135778,"127":-0.014625198788106065,"128":-0.034701959994436586,"129":0.004561050865606642,"130":-0.0424455778518296,"131":-0.008306696999174438,"132":-0.02046164665366012,"133":-0.021305248556877068,"134":0.025033141733845136,"135":-0.025739442872339074,"136":-0.008689190731034406,"137":0.011430872156778009,"138":0.033476278272918374,"139":0.01702766311398653,"140":0.005089763497106444,"141":-0.04162478725525317,"142":-0.02790393057910879,"143":-0.008060276071423362,"144":0.007941832466256054,"145":0.01015333168531415,"146":0.036676325498446655,"147":-0.010406143735023783,"148":0.04017001318702669,"149":0.05363823474786766,"150":0.015385225643259122,"151":-0.006744035087252156,"152":0.007616035507375614,"153":-0.036570328876454034,"154":-0.0381522450689687,"155":0.026673302408633772,"156":0.00015133188315262535,"157":-0.017416329812546396,"158":-0.0188617717222249,"159":-0.006141961128506621,"160":-0.004797148229203461,"161":-0.015061397769534234,"162":-0.021969561945849318,"163":0.016353832441665047,"164":0.029588025728810245,"165":-0.014529126522777458,"166":-0.05219160009608256,"167":0.008979034896236415,"168":-0.015177831624290155,"169":-0.025645599289141188,"170":-0.0027027515529985187,"171":-0.026425558919394833,"172":-0.02376836067336948,"173":-0.01578327964661274,"174":0.03803282854256981,"175":0.015455563737292169,"176":0.02400351390954741,"177":-0.002717767221892974,"178":-0.006961927767125813,"179":-0.037466786087060854,"180":-0.0008482301299816523,"181":0.04071162960787037,"182":-0.048299602212441395,"183":-0.06358689307500558,"184":0.02473485057933052,"185":-0.02127432112583743,"186":0.0385637030881708,"187":0.03459153439146452,"188":-0.030456254636419013,"189":0.004211262891210887,"190":-0.012785432020984512,"191":0.01712098603318476,"192":-0.0068343960149236105,"193":-0.0026914582749772388,"194":0.0189771371537946,"195":-0.046383609309396785,"196":0.0010032504978323982,"197":0.012367272938372066,"198":-0.003985687954611298,"199":0.0092215538091341,"200":0.02316283589343601,"201":0.020087167594434054,"202":-0.0257148896847824,"203":-0.005593445347133179,"204":0.038555659974881216,"205":0.0027144846806280726,"206":-0.004530016452037486,"207":-0.010414281213208004,"208":-0.007890575107089093,"209":-0.009731207008671233,"210":0.04273277130291281,"211":-0.004965694208625282,"212":0.0008118866717441146,"213":0.021358487203209025,"214":0.04911805521685585,"215":-0.050125421940248306,"216":-0.02036161581639122,"217":0.015776925444599785,"218":-0.014572950070795248,"219":-0.006724365115736853,"220":-0.0015888842584386045,"221":0.012665778670034683,"222":-0.007231139636774936,"223":-0.006026541278406718,"224":-0.019112668406054148,"225":0.011127094187985128,"226":-0.037104715299525096,"227":0.03372599417448374,"228":0.023814786163841518,"229":-0.011966035533368152,"230":0.000053771085066059554,"231":0.004391944952739075,"232":0.005977613371338462,"233":0.005665819647515432,"234":0.014669411342395347,"235":0.005507505227319471,"236":0.007120750160914804,"237":-0.007588223120429939,"238":-0.03065698057742775,"239":0.049085100040871736,"240":0.051912935114433664,"241":0.016500589286237075,"242":0.01663498618906682,"243":-0.04175744270268667,"244":-0.04840301771552523,"245":0.0004840070249380091,"246":0.0223320507914202,"247":0.0011044902333869962,"248":-0.011996335439073528,"249":-0.04142533672495415,"250":-0.03193419157823275,"251":-0.009570465142984503,"252":-0.014100868244377522,"253":-0.0026273346660428618,"254":0.006386272755162667,"255":0.007547724608527461,"256":-0.040860191321360005,"257":0.025771204007259477,"258":-0.026432426852161236,"259":0.0015280269818994422,"260":0.031233416120515937,"261":-0.03914122134285114,"262":0.030712074601078602,"263":-0.013423449199672925,"264":0.054719687331168054,"265":-0.023303336571011735,"266":-0.02230412710322372,"267":-0.02864716006130956,"268":0.024134393255380127,"269":-0.038167183945231165,"270":0.008112844540408174,"271":0.015549427357712337,"272":-0.03462618356438999,"273":0.015947525827177296,"274":-0.022303126775108293,"275":0.025985688125016615,"276":0.012168894518826115,"277":0.00254759210129823,"278":-0.035694165284632304,"279":-0.025885100968090102,"280":-0.02889258683703021,"281":-0.005302912075125293,"282":-0.00854465055753224,"283":0.01830696730529766,"284":0.0035381144878617525,"285":0.027357527365455513,"286":-0.006727484668916598,"287":-0.002267356418495511,"288":0.0020671102929433857,"289":0.014528818089965069,"290":0.00028991158995617344,"291":0.02090449055047618,"292":0.01783277409538713,"293":-0.022723032008119884,"294":-0.052199720814773934,"295":0.023011578643802464,"296":0.02166211729977798,"297":-0.018157180062305683,"298":-0.00923984661829539,"299":0.013606131378798125,"300":-0.011127689263068815,"301":0.00006820160638828662,"302":0.014915210893018779,"303":-0.06502421454727096,"304":-0.005464493862178249,"305":-0.01639647525472009,"306":0.02667750098710135,"307":-0.016125080690731885,"308":0.013503224412505843,"309":-0.0021373465836596254,"310":-0.011212251222437892,"311":-0.022577400013716546,"312":-0.028865639376753547,"313":-0.03387525968688045,"314":0.005443030421880116,"315":0.007042675843659686,"316":0.016599265502273013,"317":-0.04109985785704425,"318":-0.019485158040316013,"319":0.028793768129773016,"320":-0.023563503794192954,"321":-0.04699131684860578,"322":-0.009412201262306158,"323":0.012941450916267682,"324":0.011343390963381892,"325":-0.03858656177160197,"326":0.018042496669148294,"327":0.03527874909099043,"328":-0.001204703000352537,"329":-0.020851563768497762,"330":-0.03581608377546599,"331":0.006692825839685987,"332":0.010495103417337222,"333":0.048061248049726044,"334":0.0026901667622438175,"335":0.03540170823003381,"336":-0.04485093166766048,"337":0.06883601878049407,"338":0.051116695126676485,"339":-0.00009303010637272577,"340":0.007168115897340067,"341":-0.04061726928219923,"342":-0.02111750622675229,"343":0.036402893264900274,"344":0.022964408263198774,"345":0.0381009043984527,"346":-0.033461188834483326,"347":0.00616235735550388,"348":-0.019814618224789155,"349":0.02527072543436787,"350":-0.0020796955351751294,"351":0.02677673282292362,"352":0.08772513798707858,"353":0.03255856319506728,"354":-0.03602187482669698,"355":0.024917971062998968,"356":0.008630470342844108,"357":0.008097452220276448,"358":0.003940390855505458,"359":0.0021935351369969614,"360":-0.016626884503901155,"361":-0.027500795431852177,"362":-0.033015168991531736,"363":-0.021991431231678737,"364":0.0018719456431301137,"365":0.02389078796184424,"366":-0.04381704121915453,"367":0.05574645861411721,"368":-0.017444243374359066,"369":0.006706791107311707,"370":0.029148697064204702,"371":-0.027375463625386898,"372":-0.0059447306396607745,"373":-0.015215861594987883,"374":0.0392164094338439,"375":-0.04025587954015369,"376":0.022464179557421086,"377":-0.005267744847064636,"378":-0.024508301553832053,"379":-0.02862086591658421,"380":0.04691494086103123,"381":-0.010450976456062177,"382":-0.027208216340332988,"383":-0.01890395989443697,"384":-0.00718515622531356,"385":-0.006825048658913127,"386":-0.00905154827744462,"387":0.055370114276979736,"388":-0.023926781523370477,"389":-0.031359293933701224,"390":-0.008833402521130688,"391":0.06286501078435278,"392":0.02589276142197801,"393":-0.013878618804771746,"394":-0.019879866563288124,"395":-0.03002545468998589,"396":-0.002730529593035556,"397":0.011659257693993274,"398":-0.017561637300064863,"399":0.040315861433087595,"400":-0.0023363967801829644,"401":-0.03484462966400695,"402":-0.006154008742209478,"403":0.06026090520858043,"404":0.008815083657594957,"405":0.008151099275144407,"406":-0.032867968698267726,"407":0.008775189703799974,"408":-0.036827137374596454,"409":-0.049737146845929524,"410":0.009664895917985528,"411":0.04176846361189388,"412":0.005013942026548266,"413":0.010762511653407653,"414":-0.023654181913834525,"415":0.03761531590205969,"416":0.00044213766972782094,"417":-0.00869282605019966,"418":0.03205723639292573,"419":-0.05967176559710683,"420":0.0005852148721906752,"421":0.00693680193319987,"422":-0.0063487798850113825,"423":-0.02626134167752434,"424":0.019201248064193627,"425":-0.019599124080017336,"426":-0.020081565547806553,"427":0.03699263238333091,"428":-0.012811736379107019,"429":0.006693843588813797,"430":0.019264088484746887,"431":-0.04865843023853732,"432":0.040182788305865885,"433":-0.031667115208290506,"434":0.04882267407390493,"435":-0.008744197916899961,"436":0.00409247033160467,"437":0.013058621554666791,"438":0.03822095631965773,"439":-0.021489378343697605,"440":-0.0052823994226969834,"441":-0.011654403286719905,"442":-0.014290996919124574,"443":0.012628189142813684,"444":-0.013049997155186262,"445":-0.016348317621194007,"446":-0.0028947767982978848,"447":0.0658290520942189,"448":0.009056230013605544,"449":0.03765046850553732,"450":-0.024310004528965985,"451":-0.006720408796219424,"452":0.04186544554181229,"453":-0.03441214140580846,"454":0.02950691501894559,"455":-0.001450703678595793,"456":-0.030201833123153818,"457":-0.04172048900697445,"458":0.030552450951670963,"459":-0.0016952784956142243,"460":0.003007971981054224,"461":0.00802654505186224,"462":0.01672387286609012,"463":0.03686322198366367,"464":-0.01844990243950983,"465":0.021783169031004527,"466":0.02193254760021589,"467":0.01053029766709263,"468":0.007294082136891769,"469":0.014713828542498879,"470":-0.04496588840687689,"471":0.03813745516310725,"472":-0.048414883564939615,"473":-0.0005066437149617388,"474":-0.02975624668134355,"475":-0.037062742708014754,"476":0.018146454513908283,"477":-0.009994488259232555,"478":-0.024420120994007005,"479":-0.009824011124260387,"480":-0.02002217934052846,"481":0.013663214424034972,"482":-0.0019044775531059407,"483":-0.012736188508108521,"484":0.052798851998848643,"485":-0.01638468542999029,"486":-0.01718461860605596,"487":0.025695965439599296,"488":0.0360049840482708,"489":0.022384754246675433,"490":0.006349741119063176,"491":0.017497389799121438,"492":0.03067259970255032,"493":0.04922332214832148,"494":-0.019580083991905924,"495":-0.011671905255717159,"496":0.046037330999520384,"497":0.012331538758857088,"498":-0.028541970946375936,"499":-0.040810688747541866,"500":0.0011557978231609594,"501":0.013218556571365439,"502":-0.011743184164117126,"503":-0.026666190352912334,"504":-0.019660369729262273,"505":-0.006904966056908294,"506":0.024716949260241976,"507":0.026019390918937277,"508":-0.032252584621436715,"509":-0.005334173112870886,"510":-0.045817992125030876,"511":0.06230658188152766,"512":0.03926437052729361,"513":-0.0004746080813936166,"514":0.01760849329765719,"515":-0.019756910286254373,"516":0.05034024438820673,"517":0.0195452807280393,"518":-0.007264556242566506,"519":0.029804727874644398,"520":0.020060057954720028,"521":0.00574879440158549,"522":0.00594914742294313,"523":0.04545476223336139,"524":0.01821808749363681,"525":-0.008492114074780018,"526":0.0005594696055141841,"527":-0.06822419686424609,"528":-0.045377814538713826,"529":0.009428956093840831,"530":-0.020324666949706967,"531":-0.023263630028918098,"532":-0.018151875931009205,"533":-0.0075752760560426685,"534":0.04756312102295855,"535":0.049303035794868964,"536":-0.06183303887926928,"537":-0.055337166268446106,"538":-0.007774374329303232,"539":0.08111616268630817,"540":0.011047364351190386,"541":-0.009095756854537597,"542":0.011438737131680062,"543":-0.03157440535276783,"544":0.0018960279313349035,"545":0.006141484109647156,"546":-0.007425638598883037,"547":0.015642523239384653,"548":-0.006522956029058384,"549":0.010952032312531041,"550":0.03654378174187408,"551":-0.015152324867987928,"552":0.01719632141060833,"553":-0.049058722121665746,"554":0.025465280559906035,"555":-0.027916950290370744,"556":0.024846340236152044,"557":-0.00525182975635569,"558":-0.01320815193573444,"559":0.0059116135740651865,"560":-0.010895653207288853,"561":-0.02970841469445474,"562":0.010633601505172554,"563":0.009308154970479935,"564":-0.014453683993368827,"565":0.0025675973378731314,"566":0.03374577527866435,"567":0.044455217082992986,"568":0.022409473852253715,"569":-0.006865334675235491,"570":0.011693050148612584,"571":-0.016228630862204094,"572":-0.031081930459703117,"573":0.04630568426931877,"574":0.022702758012914128,"575":0.051944807518587655,"576":-0.00588882226793562,"577":-0.0017473426803481555,"578":-0.008163552392763,"579":0.028179768575480633,"580":-0.040460271487134346,"581":-0.0348630778685703,"582":0.011102435131644479,"583":0.01463417426673802,"584":0.06465526945728031,"585":-0.002429226528592299,"586":-0.026667560826112255,"587":-0.037126494810318725,"588":0.04855161127430802,"589":0.04282379654311205,"590":0.009050347555339695,"591":-0.08660218096729942,"592":-0.02402872502229833,"593":0.035346015473009855,"594":-0.004887805724669879,"595":-0.012970000574134185,"596":-0.013024799944740375,"597":0.026950128675521847,"598":-0.019276975519567214,"599":-0.006787705493218469,"600":-0.014891985369269915,"601":0.008236724666484296,"602":0.02729219222707038,"603":-0.014101374475655631,"604":-0.012575857872600273,"605":-0.008471950251995616,"606":-0.03975126819981332,"607":0.01718074650117647,"608":-0.035402991671603025,"609":0.03459392684418708,"610":-0.019243071181277882,"611":-0.052649735088626144,"612":0.050618261285137287,"613":0.02707532308991416,"614":-0.02191806265657007,"615":0.010496841286342654,"616":-0.011063923448996697,"617":0.02690484699998512,"618":0.0424657138176762,"619":0.019913607467709517,"620":-0.017435728442359705,"621":0.008620888179825788,"622":0.05935561181608471,"623":0.012497112635296173,"624":-0.02176824050353774,"625":-0.006253388887247932,"626":-0.03370606983973981,"627":-0.0162179043029632,"628":-0.06161980600873162,"629":0.0028986779530735473,"630":0.0351813377345281,"631":-0.035864458442908365,"632":-0.020896046026180958,"633":-0.005130553125860059,"634":-0.006817545622324294,"635":0.0009234661045910715,"636":-0.030681122787851397,"637":-0.03726089315813641,"638":-0.017372919875016275,"639":0.04067609452006932,"640":-0.02468813460802853,"641":-0.015321253003787482,"642":0.00040887976087586986,"643":-0.017554601719981834,"644":0.046158945314678464,"645":-0.004418945236707518,"646":0.021522532160043323,"647":-0.006007007266531743,"648":0.005004217952576942,"649":-0.034502557151915046,"650":-0.02018122438126672,"651":-0.008954800092390117,"652":0.017373827913356357,"653":0.011571301783517902,"654":-0.01726813956055643,"655":-0.00701465458966791,"656":0.008389319082022706,"657":0.0054225848600824265,"658":-0.0118877958015027,"659":-0.00865132849185399,"660":0.02634830019086103,"661":0.014572236162144097,"662":0.013324890435926847,"663":0.04259570766005186,"664":0.011200062856386422,"665":-0.018130502579750296,"666":0.015751431950041653,"667":0.05346467106034339,"668":-0.020147777132313142,"669":-0.008953338511474972,"670":0.03471091737396746,"671":-0.012119133920253102,"672":-0.0921347893275331,"673":0.019912348122133182,"674":0.016164774452332047,"675":0.02838824541483887,"676":-0.0235753040224211,"677":-0.006738082881865049,"678":-0.005343446431083617,"679":-0.021816313022789736,"680":0.0010257331868598195,"681":-0.004330589486589001,"682":0.01744069936614631,"683":-0.00013476425182435117,"684":0.03603712781725955,"685":-0.00641843369607021,"686":0.023525407103642648,"687":0.00861153133626363,"688":-0.05202011817419277,"689":0.010111060316856121,"690":-0.003206384716830078,"691":0.017976209357007188,"692":0.029941333838349453,"693":-0.029034628527029985,"694":-0.0005575269629141553,"695":0.009629429081988937,"696":0.01902737964027222,"697":-0.005754328432981236,"698":-0.02107750486147065,"699":0.01849809256497371,"700":0.03923037564349948,"701":0.0037484115612463347,"702":0.004956742460496143,"703":0.032231294096791666,"704":0.01161324633824615,"705":-0.009793391807276152,"706":0.005854218352464179,"707":0.009745515374992261,"708":0.023869106547008096,"709":0.026855676944408952,"710":-0.03803856739855336,"711":-0.01075713598101067,"712":0.03724829316587951,"713":-0.025700372875987393,"714":-0.003704636293159562,"715":0.016472522509067018,"716":0.02622629920414925,"717":0.01575761947916675,"718":0.043781968568885096,"719":0.005500300787045342,"720":0.003419479970636209,"721":-0.01306145800693477,"722":0.02750280999435777,"723":-0.05903907553030715,"724":-0.010903379759326757,"725":-0.06071632042726407,"726":0.03913686630360666,"727":-0.031523937490542,"728":0.012265030523610245,"729":-0.07355633794196728,"730":-0.0050750875491261975,"731":-0.03154331990471974,"732":0.002355428864214241,"733":-0.03567032129469402,"734":-0.010538477016163304,"735":0.012122964116952847,"736":-0.04096849698356722,"737":-0.08170628586238857,"738":-0.006113952700868533,"739":0.014714603523959834,"740":0.0011032548192636935,"741":0.04208546773054815,"742":-0.0009462660053062023,"743":-0.03664045057821965,"744":0.051617271791118434,"745":-0.01588165090639688,"746":-0.0008240572302922672,"747":-0.018160268160402938,"748":-0.015516245934302201,"749":0.0052228204050292016,"750":0.0022703646424062094,"751":0.006404681902601625,"752":0.0071411175382977265,"753":-0.018929021826757954,"754":0.03161317766108595,"755":-0.0031291767072264077,"756":-0.0012864396389398855,"757":-0.005974424981121592,"758":0.019898857852355005,"759":-0.014078614246301208,"760":-0.01686946153207706,"761":0.004383773376398404,"762":-0.0059485672248824365,"763":0.0035011055538297048,"764":0.007383853204381614,"765":0.007808219289108232,"766":-0.007996759073812022,"767":-0.009174064617850662,"768":-0.0012254654888049293,"769":-0.04049716577848695,"770":0.020001306373456356,"771":0.00777274849940438,"772":-0.014941699389173876,"773":0.023321494375023902,"774":0.01816066214719266,"775":0.01853954232127278,"776":-0.022921898338134315,"777":-0.02101399094463916,"778":0.0032276666189352456,"779":-0.015812672633174832,"780":0.004375623430733391,"781":-0.01640328602712786,"782":-0.0029752425782317766,"783":-0.01426933170066045,"784":-0.008714120118324831,"785":0.033379250711101545,"786":-0.017737836415972607,"787":-0.009311839426982351,"788":0.025780179704710218,"789":-0.07206965980797224,"790":0.016262855194166148,"791":0.041756625126982465,"792":-0.0021522213988887915,"793":0.0028668357436592816,"794":0.03231519794648073,"795":0.03526751311758456,"796":0.03928072283044976,"797":-0.006654512777900924,"798":0.016861679674201963,"799":-0.029343669266466303,"800":0.011222991275949888,"801":0.0027171377874889214,"802":-0.03312121693430751,"803":0.03228761018136497,"804":0.0004136967309379162,"805":0.03025359984743577,"806":-0.03380158084796836,"807":-0.011556239582292783,"808":-0.006494145596103884,"809":0.020483196548687372,"810":-0.033998407544253276,"811":0.032455112485949345,"812":0.007883884140993256,"813":-0.016572366026475324,"814":-0.03128074627018842,"815":0.0012023258297151648,"816":-0.011348092240487186,"817":0.0020831682249651657,"818":-0.014363068698787411,"819":-0.026541337171265098,"820":0.025374516094437437,"821":-0.029414787699047127,"822":0.03814466703127352,"823":0.015704322123187123,"824":-0.05932539604249652,"825":-0.00008834762556850242,"826":0.0007978609237578598,"827":-0.031172134868463916,"828":0.016164453500753725,"829":-0.013188304277323664,"830":0.02660243977648406,"831":0.007102676137975168,"832":-0.00893263991162784,"833":0.02150600394203622,"834":0.000913111197282915,"835":0.0330468529826585,"836":-0.01555432057081282,"837":-0.007199783619648491,"838":0.0005125166611361149,"839":-0.020478522358055317,"840":0.034524511093320366,"841":-0.02176946741613365,"842":-0.0016807783095288465,"843":0.005751015102396696,"844":0.021772949802361385,"845":0.01654738869564183,"846":0.014279905159015184,"847":0.010018519874223458,"848":-0.045974718333691225,"849":-0.0051330588943109285,"850":-0.007819525341018593,"851":-0.03537424287201138,"852":-0.014098315620471449,"853":-0.045593760540795905,"854":-0.027170976749121025,"855":0.034837282281635615,"856":-0.012599524588687475,"857":0.02725026130329651,"858":0.0034040266705549723,"859":-0.020318195638265268,"860":0.025666128096939786,"861":0.021063931241034853,"862":0.05395042004976076,"863":0.018100427178784403,"864":-0.030062737485361864,"865":0.023084003776913147,"866":-0.019436714299281236,"867":-0.011897096443660878,"868":0.02517982664864286,"869":0.03864329473356597,"870":0.00327429518029776,"871":-0.01195861094914151,"872":0.019769751499889722,"873":0.005704173735373479,"874":-0.020539307089108772,"875":-0.009265032635099518,"876":0.028547655218461206,"877":0.031211292286990926,"878":-0.010566966460408998,"879":0.015844484153554352,"880":0.005833048912559107,"881":0.01968070597045695,"882":0.0025901171259920877,"883":0.0011335062286905325,"884":-0.0762516688780555,"885":0.00847102838665806,"886":0.043965971374003356,"887":-0.03003851675648231,"888":-0.01923857407421014,"889":0.011148101367036409,"890":-0.00911158592501072,"891":0.034209717746305934,"892":-0.014673074892519478,"893":-0.024379565019232153,"894":-0.037392753911983836,"895":-0.038255914914467455,"896":-0.033988147820069016,"897":-0.0179783932748216,"898":0.03427437937076511,"899":-0.038789878439292096,"900":-0.018346657557411723,"901":-0.006196544170406058,"902":-0.037476075271032444,"903":0.03064057437296648,"904":0.022644211537162506,"905":-0.007891983853375504,"906":-0.017430814944945028,"907":0.03287720104041726,"908":-0.027234304426822762,"909":0.038483014018401554,"910":-0.025842266326741813,"911":0.03061326659362702,"912":-0.027304009317331734,"913":-0.03632781471429275,"914":0.02925467876801225,"915":-0.03757501844379922,"916":0.026442361253226195,"917":-0.01826626987193142,"918":-0.018252956869046825,"919":0.04537168311456555,"920":0.02858241180589533,"921":-0.024378422212633047,"922":0.09055244973034146,"923":0.005794393602021355,"924":-0.003112920868156277,"925":0.006078580633340889,"926":-0.05326876959189027,"927":0.008999424475845494,"928":-0.04608968936826602,"929":0.004787319465250891,"930":0.034593759060751905,"931":0.015453824756798044,"932":-0.022263991686698986,"933":0.006881618044936333,"934":-0.021798516710038553,"935":-0.017594242128191488,"936":0.00888615737780028,"937":0.0007747245361023701,"938":-0.01517644591411024,"939":0.03305761924358108,"940":-0.07964232241264721,"941":-0.044433279418727385,"942":0.024541970262070886,"943":0.0016181842108701312,"944":0.0210930651108377,"945":0.03444288397433485,"946":0.04951498500411097,"947":-0.0416701237155517,"948":-0.04016854056938556,"949":-0.0009546740608312305,"950":-0.018648370341158585,"951":0.019135911274604834,"952":-0.006776983999791851,"953":0.026166495648844254,"954":0.009000468687944341,"955":0.01619097477000232,"956":-0.0032694694695030086,"957":-0.027427728641828724,"958":0.008818728158375587,"959":-0.005485934174691976,"960":0.04315027922722549,"961":-0.027705834667999668,"962":-0.02168209992499183,"963":0.02552282272503433,"964":0.004987030671495192,"965":-0.026686133024583843,"966":0.007908154955615681,"967":-0.036279667832005105,"968":0.0014168032070457773,"969":0.004076021728058859,"970":-0.025131963774516302,"971":0.007907394794032543,"972":0.031736622368677726,"973":-0.024934901993585595,"974":0.00547909581191093,"975":-0.005930296074825662,"976":0.0391321352854949,"977":0.012585751198628446,"978":-0.01710161612968071,"979":0.02433024470674045,"980":-0.011616702134848259,"981":-0.029236529365013114,"982":-0.009710635973263207,"983":0.003023723237592012,"984":0.007519178096811827,"985":-0.03780255729363867,"986":0.003373771200521676,"987":0.017154629443022356,"988":-0.09684681112773151,"989":-0.025133693535028038,"990":-0.006045965408904094,"991":0.008758530034858233,"992":0.007391056997213549,"993":-0.007235695021124641,"994":0.03085401814173522,"995":0.02678249488243753,"996":0.005514993516020147,"997":-0.023547068588962446,"998":0.03390429365810606,"999":-0.013390905333714717,"1000":-0.024127070639898454,"1001":0.045527140418991634,"1002":-0.021026887857766755,"1003":0.02484529634688542,"1004":0.01793530124078794,"1005":0.026107260089360592,"1006":0.013635479640162422,"1007":-0.0017222401522053686,"1008":-0.048558285982300754,"1009":-0.008247965707622526,"1010":-0.015069496783127913,"1011":-0.03181981049487648,"1012":-0.013876037039632885,"1013":-0.005991272394994032,"1014":-0.05369583413569905,"1015":-0.010701788825751565,"1016":-0.06477010897341254,"1017":-0.0008478759222233584,"1018":-0.01597156420618134,"1019":0.03686495589379335,"1020":0.026162992443350977,"1021":-0.02739931527634453,"1022":0.02024359070897496,"1023":-0.025726054679562176,"1024":-0.018884701229825388,"1025":-0.009921719806301988,"1026":0.050265362085796066,"1027":0.029666885284532082,"1028":-0.013000053519802837,"1029":0.03580281103181565,"1030":0.024446765367210774,"1031":-0.01823854577421285,"1032":0.015600143362240259,"1033":0.03992355060796268,"1034":0.013831582567899042,"1035":0.01374533336235173,"1036":0.011155394605791277,"1037":-0.028617026633984577,"1038":0.027416395528557257,"1039":-0.0016571098389415546,"1040":-0.015118075866781827,"1041":0.06343721849879388,"1042":-0.006621343872321537,"1043":-0.019657390084208852,"1044":0.004984741213312689,"1045":0.009042958908181128,"1046":0.04280077901530085,"1047":-0.011874103472457235,"1048":-0.04412331495395788,"1049":0.004555608104869494,"1050":-0.02753686657743323,"1051":-0.01888950802473844,"1052":0.028352953254252466,"1053":0.05625425967325502,"1054":-0.003411350140230931,"1055":0.009324928120647273,"1056":0.039137574273549774,"1057":-0.04417643610387635,"1058":-0.00003631990565875247,"1059":0.0025388501092842796,"1060":0.033019666343377024,"1061":-0.031101331578225935,"1062":-0.014189105600298993,"1063":0.04204019780947689,"1064":0.005508779235798717,"1065":-0.0007161364453326098,"1066":0.01741007962641981,"1067":-0.00875763882943701,"1068":-0.008361140768076824,"1069":0.007303657040266576,"1070":0.034654911685783656,"1071":0.02206342584398839,"1072":-0.005828618474391761,"1073":0.018146444643247033,"1074":-0.00889688400484463,"1075":0.025573717837922373,"1076":-0.04582506939871636,"1077":-0.002296664372714209,"1078":0.02942157202861278,"1079":-0.010333017632881891,"1080":-0.06171149891902448,"1081":-0.034437614050739994,"1082":0.017176001054413727,"1083":-0.030985549972272895,"1084":0.03622383701844029,"1085":-0.04479432372157202,"1086":0.004728853363842052,"1087":-0.01047290578564696,"1088":-0.016875915675401167,"1089":0.04722255262108803,"1090":-0.0084431371951237,"1091":-0.009699903945569428,"1092":-0.022256117875157685,"1093":0.029525005096868496,"1094":0.03445214932809509,"1095":0.02071128328880308,"1096":-0.03559595473784666,"1097":0.009274033578438584,"1098":0.03386985568882986,"1099":-0.009209381872842452,"1100":0.010822372176694977,"1101":-0.0016261357779274593,"1102":-0.007883124288381567,"1103":0.04234727838752889,"1104":-0.08401636410459838,"1105":0.021972668321388732,"1106":-0.05140766935746464,"1107":0.05761488640378477,"1108":0.054272902087699734,"1109":0.03825640558114641,"1110":0.003673537908459362,"1111":0.024170398646534624,"1112":0.01372900486719964,"1113":0.035196056850575475,"1114":0.013781552455172756,"1115":-0.048432775775480635,"1116":-0.021122452608982392,"1117":-0.04347559445060837,"1118":-0.03444949586749983,"1119":0.031711092835912454,"1120":-0.04773090415763827,"1121":0.02992247187820016,"1122":0.016284922347494225,"1123":-0.004884937773694165,"1124":-0.0012997554323384466,"1125":-0.0006657826240413899,"1126":-0.016065704471800866,"1127":-0.04902767046907944,"1128":0.046971708311367835,"1129":0.021083167621461844,"1130":-0.043837505972709884,"1131":0.027588165771559005,"1132":-0.021218750776221842,"1133":0.04029910527243048,"1134":0.03475714482915126,"1135":-0.020782575897239485,"1136":0.012747982752654626,"1137":-0.005105627938807507,"1138":-0.00945237004301526,"1139":0.015704745568225847,"1140":0.007842098836174668,"1141":0.013245707539979622,"1142":0.010115284593207693,"1143":-0.023243356702892543,"1144":0.024919417932955393,"1145":0.005763363533285107,"1146":-0.03337487656620977,"1147":-0.03069599962862733,"1148":0.015331537108025728,"1149":-0.02659820227579481,"1150":0.037116238653372366,"1151":-0.011895125318724954,"1152":-0.03883676149200833,"1153":0.012301242390127247,"1154":0.024140585293673078,"1155":-0.02264712613702303,"1156":0.018417194142933413,"1157":-0.0013040618999473994,"1158":0.03494903116898163,"1159":-0.0027307642221150847,"1160":0.020172889137310118,"1161":-0.01457433458096486,"1162":0.0001463489466266416,"1163":-0.004079264431398153,"1164":-0.02763744866735985,"1165":0.020384304774911162,"1166":0.005639579045409625,"1167":-0.04274122392866895,"1168":-0.036262481452019255,"1169":-0.01109064487070233,"1170":-0.012609008538951182,"1171":-0.030867389595269662,"1172":-0.021020752066505107,"1173":-0.0016571042539519497,"1174":0.03693398753883239,"1175":0.03840432642212787,"1176":0.03395190545922735,"1177":0.00838313718232018,"1178":0.0019388764478928731,"1179":-0.04053646308780912,"1180":0.05051931466500688,"1181":-0.009992917388608238,"1182":0.007760156623673321,"1183":0.02033570458569076,"1184":0.028438644679501315,"1185":0.010060445108486997,"1186":0.05661650912620388,"1187":-0.014870395464305937,"1188":0.005251474916915653,"1189":-0.013182466124695185,"1190":-0.03089975798508114,"1191":0.010907161976962003,"1192":-0.0337988746359329,"1193":0.01201444926607873,"1194":0.03963011532666669,"1195":-0.002355430562584035,"1196":-0.02805018703630784,"1197":0.007219238186492016,"1198":-0.03561222726846774,"1199":0.02389041503428795,"1200":0.013560105228987169,"1201":-0.018114340736276234,"1202":-0.00807104138446072,"1203":0.0054148750444220324,"1204":-0.02348152974334098,"1205":0.029479373029400395,"1206":0.038282294356993735,"1207":0.03760414907215776,"1208":-0.017197208116656523,"1209":0.03889998356016391,"1210":-0.02798030465749565,"1211":0.018323015615024765,"1212":-0.004631615904354778,"1213":-0.032002080593258576,"1214":-0.019261639699541512,"1215":0.0023390767637229515,"1216":-0.0076605907455718205,"1217":0.036465243023768926,"1218":-0.011962190592904667,"1219":0.0021581618604612786,"1220":-0.027831388695999538,"1221":-0.025716579684945007,"1222":0.009689622124218584,"1223":-0.033287240319872444,"1224":-0.017074689194168324,"1225":-0.006886678939708373,"1226":-0.011286428561738646,"1227":0.06457748082067823,"1228":-0.0354718643781239,"1229":-0.027403959982489953,"1230":0.007525625257882321,"1231":0.026836374658955043,"1232":-0.0043908239450625875,"1233":-0.010965010929735782,"1234":0.00744502081465346,"1235":0.0046647134216672445,"1236":0.002661174498296149,"1237":0.013283737570541057,"1238":-0.015111127909819201,"1239":-0.010890663634448768,"1240":0.024489320824098097,"1241":0.025919707182835053,"1242":-0.00884835459395462,"1243":-0.02374735016423941,"1244":-0.033066778818603385,"1245":-0.023667652265416526,"1246":-0.0037435527333383976,"1247":-0.00787391568038148,"1248":0.027586765295496675,"1249":-0.004408579868885115,"1250":-0.006968436215775005,"1251":0.02433078520808271,"1252":-0.04734020808785309,"1253":-0.026983194996525416,"1254":-0.05390185120091395,"1255":0.0054387639282375624,"1256":-0.021461502651912535,"1257":0.024436214979303126,"1258":0.013411211036055493,"1259":-0.041547878323233305,"1260":-0.04366045507805829,"1261":0.050461486423270994,"1262":-0.023105422264345043,"1263":0.021813759723344317,"1264":-0.020163296162882337,"1265":0.028652842040430344,"1266":-0.0007258376696282411,"1267":-0.0013722343374494312,"1268":0.023702303529108855,"1269":0.007582839273812122,"1270":-0.016794869052064582,"1271":0.0415639627816622,"1272":0.00799072255344605,"1273":0.01944740137746266,"1274":0.013291465177385723,"1275":-0.021107144392595673,"1276":0.027425419843901934,"1277":0.03972247304581127,"1278":-0.02655039831787737,"1279":0.07340160258664186,"1280":-0.020945896121189973,"1281":0.013909089744814078,"1282":0.022869663464191756,"1283":0.0169383831485358,"1284":0.003653031339624547,"1285":0.04002207064877766,"1286":0.03057486727983625,"1287":-0.023931958484096672,"1288":-0.010042098347992353,"1289":0.024661951532865226,"1290":0.02697367760261364,"1291":0.006972225258603346,"1292":0.0006837712777513104,"1293":-0.02433044550065329,"1294":-0.016428661422317508,"1295":-0.0058206614962369365,"1296":-0.02840548918709817,"1297":0.014498701423124526,"1298":-0.018548633870003616,"1299":-0.02820913783325622,"1300":-0.021602375369477473,"1301":-0.016441324801144682,"1302":0.012452791411987008,"1303":-0.01668358337014806,"1304":-0.002250584558800952,"1305":0.020097300574901483,"1306":0.000011843809112127689,"1307":0.0031135274629595045,"1308":0.014374944528837882,"1309":0.02104712277968583,"1310":-0.04268617513802975,"1311":-0.00805095168510814,"1312":-0.02205963278045759,"1313":0.019526275618932446,"1314":0.00033646511622516554,"1315":0.012367009469511527,"1316":-0.038714804175265335,"1317":-0.030330950916080113,"1318":0.048100449274922276,"1319":0.03287861672737716,"1320":-0.012635971253856959,"1321":0.011299827455307604,"1322":-0.006767740084918255,"1323":-0.005864280625512028,"1324":-0.006226196524697498,"1325":0.026543072502955404,"1326":-0.003685595534500038,"1327":-0.004074531996952304,"1328":-0.013103449163461104,"1329":-0.02375210138232491,"1330":-0.04431876038092941,"1331":-0.013666604881313183,"1332":-0.0034198466377233206,"1333":-0.03150971176404506,"1334":-0.01603618343516698,"1335":-0.019489523292214473,"1336":0.0031908776973098804,"1337":-0.0416666990881818,"1338":-0.014005325420669618,"1339":0.011905816744409851,"1340":-0.01877113753969113,"1341":-0.020386792628119828,"1342":0.014315864490818071,"1343":-0.027860015512922824,"1344":0.0012719376095383852,"1345":0.019163140528836053,"1346":0.008428593596604955,"1347":-0.0024232036346166818,"1348":-0.026850277536102734,"1349":-0.01447548722706743,"1350":0.01096493642507502,"1351":-0.016853372566064475,"1352":-0.01861927313977189,"1353":-0.022482851284401428,"1354":0.023352454040745523,"1355":0.03903235960480619,"1356":0.020004231162725206,"1357":0.012750485399323205,"1358":-0.012985310458807135,"1359":0.0002031487689672634,"1360":0.012018833029736303,"1361":-0.006400620318805791,"1362":0.0034617679758079767,"1363":-0.036385635146778554,"1364":-0.013469196659429998,"1365":-0.00735174269994519,"1366":0.02154041744130155,"1367":-0.022146197859210178,"1368":0.0006889928229779437,"1369":-0.04809943996269802,"1370":-0.03002587903437579,"1371":-0.010083042946323877,"1372":-0.053620313466426234,"1373":-0.008842691676568945,"1374":0.009139057335576423,"1375":-0.003301957468141517,"1376":0.020738631402537507,"1377":0.007684504614974502,"1378":0.027405313381654705,"1379":0.03527117664390225,"1380":-0.01013134838995004,"1381":0.03750833381509903,"1382":-0.012491619353289268,"1383":0.0007601953116883976,"1384":-0.019405947184887876,"1385":-0.013365936463169113,"1386":-0.03657458209399377,"1387":-0.03877871056910805,"1388":-0.048487246755639424,"1389":0.018958275681947207,"1390":-0.019378254421594403,"1391":-0.0014557451161754077,"1392":-0.01839311919342348,"1393":-0.03730524927469926,"1394":-0.04625649378489994,"1395":0.07781809067518827,"1396":0.0026073151741922303,"1397":-0.0035798339240358883,"1398":-0.016384160615036395,"1399":0.002848228819624074,"1400":-0.05439847435747228,"1401":0.01926540918623095,"1402":0.028744314018047914,"1403":0.0534097732739518,"1404":0.016861927625574463,"1405":-0.03184808949246343,"1406":-0.003697847160567421,"1407":-0.0021424378165509394,"1408":0.018155311940592153,"1409":0.008971359266188089,"1410":0.018712663537486254,"1411":0.005109888432965207,"1412":-0.0033708839987900436,"1413":-0.011205948204310283,"1414":-0.014921898766090602,"1415":-0.013182298895366417,"1416":-0.006023994320033391,"1417":-0.028202314659735977,"1418":0.05043944380006312,"1419":-0.040111692584025936,"1420":-0.028122683074875223,"1421":-0.003647123255465727,"1422":0.009414858846061247,"1423":0.03324890667995042,"1424":-0.0023512859087095003,"1425":0.007649363498987617,"1426":-0.03340099613951539,"1427":0.009747735056888755,"1428":-0.018819237628284424,"1429":0.02503001171308246,"1430":0.0003733182361580825}},{"sx":3,"sy":3,"depth":159,"w":{"0":-0.011144889791643431,"1":0.02381208781736239,"2":0.036654806526314775,"3":0.048697687873476225,"4":0.011544052701099355,"5":-0.02265742939792419,"6":0.005889317306343042,"7":-0.016693242474211025,"8":-0.002416361244805251,"9":0.017565723329401126,"10":0.020121903088993403,"11":0.004173291146809644,"12":0.03682956736680506,"13":-0.01266772415361871,"14":-0.06457482749978682,"15":0.003274806589614637,"16":-0.004689259901656269,"17":-0.0427631415378889,"18":-0.012371876399130226,"19":-0.049148484042636796,"20":0.00025079061682434196,"21":0.004890622457400741,"22":-0.022819207853975076,"23":0.023443132544224834,"24":0.03460279448544193,"25":-0.021695196147778144,"26":-0.013532802893785261,"27":0.013969524924584253,"28":0.006232001067510466,"29":0.026832529079123417,"30":-0.03143906986902682,"31":-0.034741375802416284,"32":0.02502288569057651,"33":-0.002040804628670416,"34":-0.08453973636949556,"35":0.0033787925735914467,"36":0.009956197098871487,"37":0.013431753324803026,"38":-0.0060599566318623455,"39":0.004645230913795138,"40":0.00976467401507217,"41":-0.0508038885533671,"42":0.05009005067032639,"43":-0.022715861695829218,"44":-0.0493468335676369,"45":0.00878575945267928,"46":0.012812605054241914,"47":-0.011943055633088197,"48":-0.04667882001113969,"49":-0.006477533353733993,"50":0.0009434781409311679,"51":0.039477363320476924,"52":0.043979455908757015,"53":0.07954114966747053,"54":0.025828478677823046,"55":0.013814524271645411,"56":0.014378075541616409,"57":-0.00564006524921289,"58":-0.010247013447312945,"59":0.024587781160249053,"60":-0.031874387823944056,"61":0.005788829470071195,"62":0.01905902209261177,"63":-0.00949825626598992,"64":-0.009465789146021234,"65":-0.007969608977448894,"66":0.03685292288989368,"67":-0.061905703828073935,"68":-0.0038356352956972753,"69":-0.030693934188482295,"70":-0.012854252401198394,"71":-0.016757438399819042,"72":0.04805525587324246,"73":-0.024414166825313333,"74":0.04893692514548752,"75":0.043098997289512046,"76":0.00033003769249980006,"77":0.0012959578504983303,"78":-0.009197311267251911,"79":-0.0022703840851559572,"80":-0.008603573127952645,"81":-0.04502133742972525,"82":0.020646442013830136,"83":0.03776694983501756,"84":0.014032794172922834,"85":0.020319319375341833,"86":0.03516016552104794,"87":-0.00047996342919262905,"88":0.008090425927644924,"89":-0.0331907262041468,"90":0.0017572921773527698,"91":0.011546281405987915,"92":0.06404186302008129,"93":-0.010210710664685242,"94":0.01529132804056748,"95":0.004605686505952981,"96":0.004188562145679238,"97":-0.00853082143174633,"98":-0.04257525373987274,"99":-0.02083640468994634,"100":0.011150955598247584,"101":0.004475043932920509,"102":0.040535835570249965,"103":0.026415862001458113,"104":-0.012373877122269911,"105":-0.006590460446541871,"106":0.021701322039215945,"107":-0.0197437742259487,"108":-0.00003063999836402921,"109":0.032341547103318595,"110":0.02061745769161518,"111":0.009651888479769999,"112":0.03102193765968869,"113":0.004731558541803305,"114":-0.0023326593543463235,"115":0.023313238079436673,"116":-0.004729551117620533,"117":0.02401970983077134,"118":0.01334438295121775,"119":-0.0456462007223742,"120":0.017856954985566963,"121":0.007419418063990692,"122":-0.015359959132804312,"123":0.017703481226043493,"124":0.010476865506256974,"125":-0.014901576845358956,"126":-0.03389974046680094,"127":0.03849925356626464,"128":0.039625073338409256,"129":0.02348878304928707,"130":0.0003657183888061062,"131":-0.061433699553543365,"132":0.009520698319382407,"133":-0.03531379933650031,"134":-0.0013320181050487892,"135":-0.017555007801364552,"136":-0.016873634933013457,"137":0.0227051478238815,"138":0.02386573268412408,"139":0.035651494237437735,"140":-0.03524160900274443,"141":-0.006401175473356047,"142":0.03145751890063497,"143":0.0014132336362389978,"144":-0.004765802826964828,"145":0.0022859080480509392,"146":-0.021418090233542655,"147":-0.003850206123786221,"148":0.0366350698720415,"149":-0.051389645789583674,"150":-0.017830661966451222,"151":0.03188915912872627,"152":0.006859899787366009,"153":-0.011848314162285972,"154":0.051532477590528626,"155":0.017997510118649068,"156":0.009083739744527442,"157":0.067541516055092,"158":0.043689445871416044,"159":0.03868185973719481,"160":-0.02872490207931014,"161":-0.005975062686798118,"162":0.016305973476684627,"163":0.024838313650670442,"164":0.0075157010225427754,"165":0.0005074920608944133,"166":0.045464139000402075,"167":-0.012484436780990319,"168":0.04821855720789922,"169":0.007934448346823187,"170":-0.008818767642512486,"171":0.0060167227752764,"172":0.010486032085175184,"173":0.04576763916912445,"174":0.00034452276646651216,"175":0.03773942989559306,"176":0.009051660489366248,"177":-0.020364844064969703,"178":0.027210098290460276,"179":-0.004888791554378603,"180":0.024517883508487756,"181":0.023501184628753086,"182":-0.023779213261975858,"183":0.004892323836167407,"184":-0.018545883788109705,"185":-0.002555289398348326,"186":-0.019168657923918322,"187":-0.07255939300324574,"188":0.04745043931519484,"189":0.030334020076854467,"190":0.054782440211079114,"191":-0.05212523164744669,"192":-0.02991358817957401,"193":0.050242360891059545,"194":0.013264314817687044,"195":0.011866022786871188,"196":-0.030340770449444786,"197":0.002982462702917821,"198":-0.018417512517843966,"199":-0.007861080388814548,"200":-0.03863273452931047,"201":0.009293546766320958,"202":0.029891103933103222,"203":0.030590170697079987,"204":0.010970360175818206,"205":0.00772352220924766,"206":-0.007727758942494543,"207":-0.020763447261533854,"208":-0.02443230248079026,"209":-0.04613947410959356,"210":-0.048282466919958654,"211":-0.018667028780696867,"212":0.035210549180089215,"213":-0.02039824935797661,"214":0.023069623810307173,"215":-0.05601730969046361,"216":0.030893266836558034,"217":-0.010047082876874927,"218":-0.025099276308294737,"219":-0.002299446148909451,"220":0.007777253308183865,"221":0.008193721914200558,"222":-0.013361330697191198,"223":0.023910621333422012,"224":-0.004378006490321318,"225":0.008943723896820422,"226":0.002713395396726316,"227":0.028616665911685758,"228":-0.03265221079001731,"229":-0.005950647563592039,"230":-0.03235090764336868,"231":0.034889293588379895,"232":0.03589683508423474,"233":0.007736277391777322,"234":-0.0053424766999134255,"235":-0.014491333529167998,"236":-0.011113409988192557,"237":0.0072563594207488685,"238":0.00792502713432924,"239":-0.04572717304085362,"240":-0.04136020908672328,"241":0.01419837681236143,"242":-0.01460326377986929,"243":-0.022745581672778906,"244":0.03722863844437297,"245":0.02509595037058312,"246":-0.03759776243749832,"247":0.024280225427953103,"248":-0.008439292193534119,"249":0.04143608150492607,"250":-0.022925403403670226,"251":0.01529880661871206,"252":-0.01186447391630428,"253":-0.06315294538886622,"254":-0.0735462635211248,"255":0.00739329722607385,"256":0.01846284031559113,"257":0.009874475317677833,"258":0.02541625265083326,"259":-0.01721075381605162,"260":-0.013835950625718825,"261":-0.02751057788105891,"262":0.009259771323661594,"263":0.0030901580738845777,"264":0.02141714408075093,"265":-0.03922867953328937,"266":0.028539521569426605,"267":0.019487470489499996,"268":0.024350086626376916,"269":-0.019757591736747817,"270":0.022448392396277828,"271":0.05360710044358103,"272":0.048619174672814285,"273":0.08586778010676781,"274":0.003715954034663347,"275":-0.03334277172693288,"276":0.002738403265772222,"277":0.00753775640049626,"278":0.015199217871806451,"279":-0.017362890335727653,"280":-0.037169930655034406,"281":-0.04257873771662386,"282":0.023317151018420367,"283":0.019815776933416858,"284":0.02244796075541412,"285":0.01609052472570209,"286":0.05646309643609717,"287":-0.04596786601784845,"288":-0.010802306176515442,"289":0.04310914027833981,"290":0.04799728838794143,"291":0.03393542506006312,"292":-0.001359953292127086,"293":0.01432558249920796,"294":-0.006353687799697507,"295":0.027580871341305376,"296":-0.01038503099508213,"297":-0.006757333353668015,"298":0.0021498908362989973,"299":0.00518222152784788,"300":-0.020685086062531013,"301":-0.026410450099630712,"302":-0.02142758819866017,"303":-0.01410995945009548,"304":-0.02336767253945764,"305":0.014613252287710586,"306":0.019228821740171518,"307":-0.009066745955587251,"308":0.007276676639692123,"309":-0.04916737806519678,"310":0.026698257245083734,"311":-0.02732261585500674,"312":-0.0007923656006898144,"313":-0.020992796706002483,"314":0.0013638454256841852,"315":-0.021005971708018493,"316":0.049151752443172395,"317":-0.009430220352151136,"318":0.02764369921653019,"319":0.042821013213756684,"320":0.009331615355175306,"321":-0.04472384854822945,"322":-0.03336258835108642,"323":-0.04009053130585949,"324":-0.008538589248706693,"325":-0.02037196906691965,"326":0.009860764482201249,"327":-0.005379999164448149,"328":0.013738089158929205,"329":-0.00045557213351370845,"330":-0.025504636445622984,"331":0.035605826144013565,"332":-0.004772847803950333,"333":-0.029809932422114476,"334":-0.00980453637152914,"335":-0.021446026727921397,"336":-0.003579485140073983,"337":-0.029364196110571162,"338":0.04284001600744225,"339":-0.0316422014381511,"340":-0.03268156817645096,"341":-0.016976684140609013,"342":-0.02190119958412348,"343":-0.01484815903636217,"344":-0.02569157515116405,"345":0.013815585781342978,"346":-0.003051019727863538,"347":-0.03496010013835072,"348":-0.030905406079275805,"349":-0.028317180136236096,"350":-0.00942572043188835,"351":0.010371292382832185,"352":-0.006069475115583373,"353":-0.008275602487753265,"354":-0.019108269975074647,"355":0.011512372349365689,"356":-0.004957816685272221,"357":-0.007279884418494664,"358":0.0027372953585980196,"359":-0.03124399761461695,"360":0.004914970968137136,"361":0.01620566455499176,"362":-0.01938460972940669,"363":0.005389735055876128,"364":-0.03755038810689164,"365":-0.0037271830839261887,"366":-0.03399297102993219,"367":-0.029869177781956142,"368":-0.015069316916505966,"369":0.005411799273553506,"370":0.04561893189866817,"371":-0.0032393592963641813,"372":-0.017111789019765792,"373":-0.009211126000973142,"374":0.05236017923773742,"375":0.03602409772680503,"376":-0.0066756831697725874,"377":-0.05084329854629316,"378":0.0010269057867474817,"379":-0.028714446467876666,"380":-0.026077608387254193,"381":-0.003555047324839932,"382":-0.012146584319540271,"383":-0.0030868356834067904,"384":-0.009864449349688623,"385":0.025303418692779377,"386":0.027365331797991672,"387":-0.01915925294708269,"388":0.014359186901518673,"389":-0.027507460383140957,"390":-0.006449474647471443,"391":-0.0005970196774267718,"392":0.02493788198349833,"393":-0.04487983629769345,"394":-0.006380308038561305,"395":-0.020402832254831346,"396":-0.015218727031673256,"397":-0.029775678426224975,"398":-0.02050447763925127,"399":-0.002416757323794059,"400":-0.011526703299848852,"401":-0.014661372344986134,"402":-0.00023026502207059053,"403":-0.004475704263257806,"404":-0.030961495296080305,"405":0.12291450432448262,"406":0.001354330411201292,"407":0.016251222042634694,"408":-0.021741805055316945,"409":0.040709573898325496,"410":0.04039386094936485,"411":0.021519667396352558,"412":-0.007318980205445301,"413":-0.044765304985283,"414":0.034679328731582866,"415":-0.030150007855887635,"416":-0.023406273823010512,"417":0.0058070314517920845,"418":0.0423893263452439,"419":-0.060867835213253056,"420":0.0001641411734456687,"421":-0.04488905981494588,"422":0.029092594196321816,"423":-0.012998907240027509,"424":-0.019371477305141112,"425":-0.0019905781545552187,"426":0.01882710594990038,"427":0.02084885938125926,"428":-0.01831649291406718,"429":0.016908233389096073,"430":-0.01708459625776391,"431":0.02192694746786504,"432":0.015537401576517614,"433":-0.021564542943261916,"434":0.015010206981479998,"435":-0.045410075046656714,"436":-0.015590266061323639,"437":0.03160952556838641,"438":-0.01690961113636065,"439":-0.0037938845648526264,"440":-0.07013511575770341,"441":-0.031539943291511184,"442":0.008246458973558005,"443":0.006295727137309312,"444":-0.00202844562486161,"445":0.02808098840754474,"446":0.019405620575557433,"447":0.007171889740292839,"448":0.0009387905718776039,"449":0.0047107574787236175,"450":0.011984557281742594,"451":0.004173140660971761,"452":0.009362076557696263,"453":0.016224503186188965,"454":-0.020093384843745166,"455":0.012348051359325924,"456":0.02574317041110908,"457":0.0233767215615573,"458":-0.012532650677104589,"459":-0.01709844023823665,"460":-0.02865543746685809,"461":-0.030122052676888302,"462":0.0016529200936726564,"463":-0.023221649437050206,"464":0.010749458632466699,"465":0.01544066156196906,"466":-0.024285811823266307,"467":-0.008276210821350247,"468":0.04095817504773695,"469":0.001242666681664311,"470":-0.026070308776314954,"471":-0.007965627704016426,"472":-0.012532836857418515,"473":-0.0018093391465684753,"474":-0.005205536048465017,"475":-0.025990974057141614,"476":-0.021367424563304926,"477":0.007811172767702712,"478":0.06002941822924433,"479":-0.03836005750766035,"480":-0.05424887215560907,"481":0.022501221825381404,"482":-0.04336179699700621,"483":-0.01835034483488285,"484":-0.008898389005984735,"485":0.011480527916356007,"486":0.03217371056398272,"487":-0.00894047087128758,"488":-0.01985898532302526,"489":0.003289192051522563,"490":-0.018869251627762516,"491":0.0002845837525774993,"492":-0.04467277559654134,"493":-0.04831645810856143,"494":-0.020822641108205225,"495":0.009098716541052269,"496":-0.00565558893926477,"497":-0.01926832938565632,"498":-0.04850118232293113,"499":0.008894561693532439,"500":-0.02940258538684678,"501":-0.023328063005018045,"502":-0.01652252385044759,"503":0.030543075396669134,"504":0.00029319193456854077,"505":0.03551275737775208,"506":-0.017433633760092274,"507":0.009628966668429228,"508":-0.01593580006482966,"509":-0.0027686064016685798,"510":0.013659913174734105,"511":-0.03678662545370149,"512":-0.00531633328818517,"513":-0.0040248864574143365,"514":0.019746426923528765,"515":-0.03743931472790874,"516":0.020063629493979426,"517":0.022479500677305697,"518":-0.029724209412519124,"519":-0.04469721774123185,"520":-0.030053778331730452,"521":0.021189499339726473,"522":-0.026376729542317925,"523":-0.01197847091567082,"524":0.028462311844341406,"525":-0.024236226123299207,"526":-0.00464195997859188,"527":-0.047129003867172885,"528":0.041557931035566466,"529":0.0007385020278294303,"530":0.004373565497708856,"531":-0.03162442756191562,"532":0.02270468071905814,"533":0.028301420573369086,"534":0.001169349779653004,"535":0.00169079759969991,"536":-0.05579270791085029,"537":-0.021281021399917402,"538":-0.017110823741033614,"539":0.03583266550325414,"540":-0.03309308649287271,"541":-0.006309319350208006,"542":0.021759319521687158,"543":0.010493651693908363,"544":-0.030754487324134813,"545":0.014122103214644579,"546":-0.05291816983982587,"547":-0.01410772236303442,"548":0.04603757384578644,"549":-0.006834264208802106,"550":0.015644892588326388,"551":-0.020389089440652035,"552":-0.009733713852835075,"553":0.06273853781440311,"554":-0.014654560200478969,"555":0.02666052914057526,"556":0.03164322710127083,"557":0.014263354041669342,"558":0.004610356354797442,"559":-0.020847661854921748,"560":-0.006249690884181235,"561":0.015936845541102,"562":-0.007644948007471548,"563":0.02756335374061727,"564":0.026663456076820555,"565":0.048107678325514894,"566":-0.009025962571325163,"567":-0.00138094835154134,"568":0.04777262270308044,"569":-0.005359590030481473,"570":0.0156342682597236,"571":-0.022146954865455454,"572":-0.06883077967348633,"573":-0.0044618535177647104,"574":0.0026334648770862377,"575":0.009291975157425273,"576":-0.03216040377780071,"577":-0.04008127445743293,"578":-0.004814285237656796,"579":-0.007972744819828154,"580":-0.027798404255210945,"581":0.006943543864942445,"582":0.012756408219787598,"583":-0.01650128182393409,"584":-0.01393091715825346,"585":-0.0191985344215766,"586":0.010234985349749271,"587":0.013651555791224426,"588":-0.005294883322955624,"589":0.032149895899888016,"590":0.03064811596484044,"591":0.005748245399135774,"592":0.024107800807827418,"593":-0.01835249322245233,"594":-0.00012799052687135546,"595":-0.01305941072057091,"596":-0.0009384259152148665,"597":0.04286385261448523,"598":-0.03427941863222896,"599":-0.04244820093276561,"600":-0.03222791993865189,"601":-0.0059743289460845615,"602":-0.0035248275283081875,"603":0.006314592449578625,"604":0.013616569173754945,"605":-0.027209837923786406,"606":0.007512539633127338,"607":0.04787648525428651,"608":0.04103748624847763,"609":0.001946003859675755,"610":-0.03650188006473952,"611":-0.015732121521790383,"612":0.01870761363834223,"613":0.003393374955783471,"614":0.10202583720946806,"615":0.027798497785679825,"616":0.03136297541567296,"617":0.03280795149836322,"618":0.027754241045945923,"619":0.02294259339670646,"620":0.010818052505520832,"621":-0.02597455072517528,"622":-0.00675688164447972,"623":0.02955344849706682,"624":0.017446618934348034,"625":0.01787494555524747,"626":0.018150529693522596,"627":0.05218588616405883,"628":0.0222281765256672,"629":-0.03973012407611662,"630":-0.029480478293698667,"631":-0.01675104094604649,"632":0.035969558843878,"633":-0.07066274876996842,"634":0.02351887383156538,"635":0.0007221568019299472,"636":0.010126247693448562,"637":-0.029658116823764177,"638":0.04111207506874535,"639":-0.03716336592633036,"640":-0.017278538752260715,"641":-0.026629469581296854,"642":-0.023737753579506658,"643":-0.01808728359917034,"644":0.04185904892213455,"645":-0.0009905489994609627,"646":0.02023584552232146,"647":0.007036901562288338,"648":0.01834752960739194,"649":-0.01619099975630539,"650":0.034820381730249116,"651":-0.029846043044519675,"652":0.014808774044767103,"653":0.010133213427690217,"654":0.025302110230133745,"655":0.013340106470625404,"656":0.00922832372365835,"657":-0.038800350334275535,"658":-0.026392788961022394,"659":0.05388097064881939,"660":0.010728079209908087,"661":0.012262362402054368,"662":0.012544700665829809,"663":0.0008699418275977442,"664":0.01054485522692593,"665":0.01999460291776533,"666":0.046936381973744834,"667":0.003871990380282083,"668":-0.023505753666195874,"669":-0.025034183829942484,"670":0.02098041659074396,"671":-0.00404538590022313,"672":-0.0011566933331734874,"673":0.05672113721516177,"674":-0.005780541541024283,"675":-0.016024161696095534,"676":-0.009040571538254388,"677":-0.01089643559215627,"678":0.039976013114768706,"679":0.027440706064518348,"680":-0.021830836970096742,"681":-0.040362551173211934,"682":0.0055840616870593196,"683":0.02236248711065687,"684":0.008146726088486536,"685":0.002227150651120529,"686":0.01600276892552629,"687":-0.002337501887693912,"688":0.018147143063049126,"689":0.03613632180755891,"690":0.0422309409639445,"691":0.03994239400001501,"692":0.017815328756513135,"693":-0.004226037088507703,"694":0.01966901358638593,"695":-0.021558899852113185,"696":0.03827085830456102,"697":0.004223994466054576,"698":-0.005859512613639277,"699":-0.014446102955015337,"700":-0.03937358965869848,"701":0.02400854959162841,"702":-0.013472325928996066,"703":0.005766899813347033,"704":0.027803157063768857,"705":0.002264414812128947,"706":0.02013746453685629,"707":0.0018351162279683897,"708":0.03706561054017523,"709":0.005765271624274083,"710":-0.012540500496557909,"711":0.03782904753276579,"712":0.002276450087642053,"713":0.05719105073803091,"714":0.0503572311604323,