
//<![CDATA[

// a few things don't have var in front of them - they update already existing variables the game needs
lanesSide = 2;
patchesAhead = 20;
patchesBehind = 2;
trainIterations = 20000;

var num_inputs = (lanesSide * 2 + 1) * (patchesAhead + patchesBehind);
var num_actions = 5;
var temporal_window = 12;
var network_size = num_inputs * temporal_window + num_actions * temporal_window + num_inputs;

var layer_defs = [];
layer_defs.push({
    type: 'input',
    out_sx: 1,
    out_sy: 1,
    out_depth: network_size
});
layer_defs.push({
    type:'conv', 
    sx:3, 
    filters:8, 
    stride:1, 
    pad:2, 
    activation:'relu'});
layer_defs.push({
    type:'conv', 
    sx:3, 
    filters:4, 
    stride:1, 
    pad:2, 
    activation:'relu'});
layer_defs.push({
    type: 'fc',
    num_neurons: 20,
    activation: 'relu'
});
layer_defs.push({
    type: 'fc',
    num_neurons: 5,
    activation: 'relu'
});
layer_defs.push({
    type: 'regression',
    num_neurons: num_actions
});

var tdtrainer_options = {
    learning_rate: 0.001,
    momentum: 0.01,
    batch_size: 64,
    l2_decay: 0.01
};

var opt = {};
opt.temporal_window = temporal_window;
opt.experience_size = 3000;
opt.start_learn_threshold = 500;
opt.gamma = 0.8;
opt.learning_steps_total = 10000;
opt.learning_steps_burnin = 1000;
opt.epsilon_min = 0.01;
opt.epsilon_test_time = 0.0;
opt.layer_defs = layer_defs;
opt.tdtrainer_options = tdtrainer_options;

brain = new deepqlearn.Brain(num_inputs, num_actions, opt);

learn = function (state, lastReward) {
    brain.backward(lastReward);
    var action = brain.forward(state);

    draw_net();
    draw_stats();

    return action;
}

//]]>
    
/*###########*/
if (brain) {
brain.value_net.fromJSON({"layers":[{"out_depth":492,"out_sx":1,"out_sy":1,"layer_type":"input"},{"sx":3,"sy":3,"stride":1,"in_depth":492,"out_depth":8,"out_sx":3,"out_sy":3,"layer_type":"conv","l1_decay_mul":0,"l2_decay_mul":1,"pad":2,"filters":[{"sx":3,"sy":3,"depth":492,"w":{"0":-0.009213208772928515,"1":-0.011097359613328285,"2":0.012880067224321187,"3":-0.013060201188265978,"4":-0.001850522831943709,"5":0.0027432659082954297,"6":-0.013034076939782872,"7":-0.024032673336325715,"8":0.0350330531665891,"9":0.007616048405209564,"10":-0.011365180258249348,"11":-0.018547764951808782,"12":0.006771060188173024,"13":-0.013851165722510156,"14":-0.003198179566890651,"15":-0.015574603645995087,"16":0.0038587989906527765,"17":-0.0039696161983624415,"18":-0.02268920351467889,"19":0.0446040071852251,"20":-0.0035989258578594556,"21":0.014142402090787902,"22":0.023204810027265415,"23":0.011097164532327963,"24":0.034396509394591726,"25":-0.017192613897592232,"26":0.0034282512287589885,"27":-0.00022033898638736062,"28":-0.009032091539665039,"29":0.010030842882167752,"30":0.010992290899986934,"31":0.017588000619859264,"32":-0.02087063139738984,"33":-0.0037512325168112585,"34":0.0006444221243937687,"35":-0.001222582445649066,"36":0.0019268378750913087,"37":-0.010254470969793438,"38":-0.029204722296190217,"39":-0.0116166917558032,"40":-0.017632194185668533,"41":0.015318141077191793,"42":-0.005089832251038911,"43":-0.026838964154846573,"44":-0.0009760045563316904,"45":-0.00664696544945235,"46":0.004685987047939337,"47":-0.013193354281701344,"48":-0.007931944190032906,"49":-0.02482782723347309,"50":-0.023404465902572114,"51":-0.014790685466086122,"52":0.0004827380296971242,"53":0.0088820698859708,"54":-0.0290813826014215,"55":-0.003697295762303484,"56":-0.002602336938095767,"57":0.033964746134258435,"58":0.0005496652480096437,"59":0.030331251918626043,"60":0.007210294894194351,"61":-0.07182945730974374,"62":-0.011190784507396852,"63":-0.014087948268360339,"64":-0.044665467454836356,"65":-0.003141175600495552,"66":-0.015394720681136865,"67":0.020848086767686243,"68":0.006967848133221258,"69":0.005091488563821733,"70":-0.0005475896433275741,"71":0.004619668329432765,"72":-0.024675640840634637,"73":0.03035921561529044,"74":0.002804407899243561,"75":-0.0022656668261891266,"76":-0.00806827400584646,"77":0.013442992002152897,"78":0.0035857290984358105,"79":0.015505616732755753,"80":-0.031230236742549097,"81":0.01302008735406671,"82":0.011191107055503005,"83":0.015654976168285754,"84":-0.006447192702888533,"85":-0.011450038835827897,"86":0.01756099535339423,"87":-0.008034279263894724,"88":-0.00424457830434062,"89":0.010251333595982653,"90":0.004226233935888837,"91":-0.004060671915356447,"92":0.00343631147708318,"93":-0.0010988292250327903,"94":-0.009809299149341458,"95":-0.004835554142278943,"96":0.0051426082257503385,"97":0.0022725583605092054,"98":0.010533179430074684,"99":-0.013666557828639334,"100":-0.02104214629142143,"101":0.0032958334524661207,"102":0.02416800294287405,"103":-0.02373783849921147,"104":0.0027004464928213627,"105":-0.011986619245983259,"106":-0.008996568000649737,"107":0.021306899146879683,"108":-0.02109599710435518,"109":0.00856521726845222,"110":0.01039631977297671,"111":-0.031177153519134585,"112":-0.022300341527523557,"113":-0.024692935014190707,"114":-0.0047235561687092075,"115":-0.0009235320061803823,"116":-0.022421759723486184,"117":0.0026923945910740173,"118":-0.000613114190519045,"119":-0.013178882312262153,"120":0.006386133974968431,"121":0.01885334726940402,"122":0.0022015972930121783,"123":-0.010139321570330305,"124":-0.024910958443240434,"125":-0.019034066521490697,"126":-0.004820924231351315,"127":-0.03885066413763822,"128":-0.00648996124289495,"129":-0.011470607954417433,"130":-0.010051583461936835,"131":0.021131355029543757,"132":0.02105184668073208,"133":0.02322892355932513,"134":0.034508399490653874,"135":0.02211985404047398,"136":0.026152796141875337,"137":0.015702273985071718,"138":-0.015913739999258762,"139":-0.010573459273788308,"140":0.0011283395283062743,"141":0.0010765165803968688,"142":0.009868885055985653,"143":0.010886985030083328,"144":-0.007135726293280598,"145":-0.027454225007002963,"146":0.010186077975506812,"147":-0.0046054294882311875,"148":0.0057015833220505335,"149":-0.0020929129430168583,"150":0.0027832113005259677,"151":0.006546274655929491,"152":0.02633114442890782,"153":0.002375606166271186,"154":0.00832020419691012,"155":0.035442526247230405,"156":0.0010410065629871824,"157":-0.0012053268466302666,"158":0.008792990436121197,"159":-0.0018698298460848182,"160":0.017219318536965903,"161":-0.010691477453842848,"162":-0.017143764111558428,"163":0.0013306320035719698,"164":0.027834022707793747,"165":0.01466874472055905,"166":0.007980857361032254,"167":0.01327127586660737,"168":-0.0026342910782091917,"169":-0.006994237628036436,"170":0.015273695475764898,"171":-0.007627035702426219,"172":0.0018617759565338265,"173":-0.04308478058954272,"174":-0.02607162691598926,"175":-0.011742466474634804,"176":0.013365535196962866,"177":0.009368908088099962,"178":-0.0052046859144465555,"179":-0.007985268548443203,"180":0.024444233666351588,"181":0.002399564720128484,"182":0.002738205188620426,"183":0.0256605324970521,"184":-0.011630272586679972,"185":0.017979711295643935,"186":0.00592055546917736,"187":0.0018926470781897903,"188":0.01055136447957442,"189":-0.017124076960476072,"190":0.013560163449896339,"191":-0.007256110525695303,"192":0.01093241168242227,"193":-0.005923455563918581,"194":0.0039974650827749965,"195":-0.010921759379344897,"196":-0.014053139319343417,"197":0.0034953719266818286,"198":0.006802478444955869,"199":-0.020919215331480688,"200":0.00602860060340301,"201":0.02078264914106372,"202":-0.005519294419316241,"203":-0.017017951390495823,"204":0.04190257157675018,"205":0.02858668019712513,"206":-0.012117147662309622,"207":-0.00047237785271695456,"208":-0.014276422795872592,"209":-0.02429467723722143,"210":-0.014764704505934765,"211":-0.009918988467682034,"212":0.011821802976080239,"213":0.006584402368224789,"214":0.013813638037310469,"215":-0.013349785550152492,"216":-0.017745515503833575,"217":-0.0014265325371433362,"218":-0.0015799237617244656,"219":-0.017154120422702795,"220":0.031597943277271584,"221":-0.0017891802193674598,"222":0.02669852039314972,"223":0.0036527082387224396,"224":-0.002286385251180282,"225":0.03144679194260269,"226":0.0020802561665326726,"227":-0.005464320996753094,"228":-0.00550603296717532,"229":-0.0064610051904076034,"230":-0.006084343165816666,"231":-0.01743656511824,"232":0.009241382194461294,"233":0.003466685246247196,"234":-0.007139786082673879,"235":-0.007145922759082991,"236":0.002546588541737813,"237":0.008679919606348053,"238":-0.02010933586940397,"239":0.012922607511551795,"240":-0.00658551256158012,"241":0.005948122327002389,"242":0.020026688236219833,"243":-0.007496572596098853,"244":-0.014638534048566956,"245":-0.01971638831776666,"246":0.006454792361807727,"247":-0.019264001391872853,"248":0.021356652938956163,"249":-0.003188632823163658,"250":0.004014605526474539,"251":-0.005877854129312436,"252":0.028789846692992654,"253":0.028084543757493766,"254":0.00028977273527073453,"255":-0.010530299443234909,"256":-0.003693813557738517,"257":0.015161611634974006,"258":0.012752290212258668,"259":0.013508986187257724,"260":-0.00013691646022251345,"261":-0.000427065373648236,"262":-0.0019467088584112226,"263":0.027477299920319918,"264":-0.006199768491508542,"265":-0.005985589952497077,"266":0.016682136795614394,"267":0.01791383913869702,"268":0.017665228330080187,"269":0.0005647240710481246,"270":-0.003316821335175633,"271":0.0033151201860564883,"272":0.014767280516886146,"273":0.002330799854232009,"274":-0.007946396494909597,"275":0.03295017654629097,"276":0.015916367238311357,"277":0.022544317919151183,"278":0.013965252791544041,"279":0.020192450074957742,"280":-0.019089429838415297,"281":-0.016802635742968156,"282":0.009418117576725291,"283":0.0015153303683349147,"284":-0.02217295599627087,"285":-0.01040853811551502,"286":0.005190873502396357,"287":0.01490165808689366,"288":-0.020726483110783143,"289":-0.005554920948980444,"290":0.012845014870817368,"291":0.00982396384706237,"292":-0.013725872268349764,"293":-0.000757130726611038,"294":0.006283967111018668,"295":0.01015248962408694,"296":-0.014248385247379737,"297":0.011544692534032687,"298":-0.011323987992116308,"299":0.016044765249444197,"300":0.011295764304413031,"301":0.00834144126695282,"302":-0.007442802285595702,"303":-0.018756820787992016,"304":0.02702621620321592,"305":-0.01913259112978064,"306":0.02284265723370942,"307":0.010912477500919721,"308":0.006995063566388898,"309":-0.005177402228516037,"310":0.003901869584071939,"311":0.0017169945997840238,"312":0.006199535039824093,"313":0.01588929055518381,"314":0.015440193896439395,"315":-0.008421400933820402,"316":0.01748931468004967,"317":0.020242770463615417,"318":0.0059395913386219934,"319":0.017839347994345615,"320":0.0020575296996293555,"321":-0.01220151255694492,"322":0.008268984027955771,"323":0.0031176432223920217,"324":-0.011717733049028614,"325":0.029039772449955672,"326":-0.000678561282235658,"327":0.010827088564507311,"328":-0.001678362922815165,"329":0.0008296360797833353,"330":-0.004801654989769713,"331":0.001827516169883274,"332":0.0009860942780801868,"333":-0.011239138932475634,"334":-0.027422932654100857,"335":0.008058499625520174,"336":-0.006791410829466721,"337":-0.020352104970555975,"338":-0.011351898606429428,"339":0.006976739169648043,"340":-0.00650403074558252,"341":-0.013155565367376132,"342":0.01133257370733785,"343":-0.012802792201689764,"344":0.004307870495762982,"345":0.028656377580173472,"346":0.018312308989612527,"347":-0.003992547289311445,"348":-0.03688877556654829,"349":0.0025066706823013425,"350":-0.006573384297137466,"351":0.013498247858945031,"352":-0.0013923098295510357,"353":0.001635795074667021,"354":0.009993250367397904,"355":-0.007281650716065003,"356":0.013299822348573239,"357":-0.009299381002112615,"358":-0.0099726912050635,"359":-0.0349373921827887,"360":-0.015310075899839877,"361":-0.013427383751412052,"362":0.004091513630112954,"363":-0.02202297464262545,"364":0.0173000030930841,"365":-0.023910692281306174,"366":0.010118589983924002,"367":-0.008411407172842562,"368":0.013991381875310505,"369":0.0021905126248625414,"370":-0.003801083720856143,"371":-0.0036959560579740546,"372":0.0021522849229750484,"373":0.007403239569185449,"374":0.015174876735928046,"375":0.005562701455153492,"376":0.013497839619344485,"377":0.015292190979584673,"378":0.0013480381609959717,"379":0.008407919562553748,"380":-0.016082174487243316,"381":-0.012076625084351443,"382":0.0035893205139607993,"383":-0.008431780730717774,"384":0.025689186100657124,"385":-0.029167247863663596,"386":0.02851156548184095,"387":0.009526625356193431,"388":-0.018688498334017114,"389":0.0012591331868552352,"390":0.001154864973545833,"391":0.007310357997332411,"392":-0.002823163206740122,"393":0.012267121010722635,"394":-0.0005295405904496504,"395":0.006515354720707485,"396":-0.005924431180711557,"397":0.01140524991144097,"398":0.0019156591515060526,"399":0.026617388507234278,"400":-0.005851181810406175,"401":0.011612984807123914,"402":-0.0016988040194214431,"403":0.001780651630120131,"404":0.03103987086979431,"405":0.00011967511912227758,"406":0.008311950996779624,"407":-0.0038798165701850055,"408":-0.018297919156854848,"409":-0.005060761070271762,"410":0.014702948020493158,"411":-0.0036022066530728186,"412":0.017837484503834163,"413":0.009528189988515994,"414":0.00598854769132803,"415":0.0035096480130841494,"416":0.006737152388138051,"417":0.01496218307541075,"418":0.053216924156569416,"419":0.031637481786061475,"420":0.00926240575686733,"421":-0.0187966660589311,"422":-0.020089272254394382,"423":-0.02718039093717772,"424":-0.0017584217294678063,"425":-0.015250720688024395,"426":-0.0017219277288496831,"427":0.014565363178027462,"428":0.016038709553562347,"429":-0.00910014322451478,"430":-0.0010752866860401224,"431":-0.003192533949598565,"432":-0.0011865545394262977,"433":-0.02209514207275324,"434":-0.00940273206752591,"435":-0.004198579001176103,"436":-0.01671950892878442,"437":0.00013386550502641134,"438":-0.006469915668351929,"439":0.04210166860049643,"440":0.001711227666181684,"441":-0.0251003129880532,"442":-0.015953562490530107,"443":0.006875387115542317,"444":0.021324599109388196,"445":-0.01181558578361094,"446":-0.01232980745192027,"447":0.017802693549258713,"448":-0.0035817660745732314,"449":0.008732923129216405,"450":-0.01651053744597159,"451":-0.013556900143130416,"452":0.0006316330018062777,"453":-0.026188560247002047,"454":-0.0057775709480443966,"455":0.04183062034358037,"456":0.010945082360836987,"457":-0.012761051073942277,"458":-0.015997290494792135,"459":0.0021410990384522852,"460":-0.022231643068280803,"461":-0.033992303804787155,"462":0.01992484657580943,"463":-0.010712497741955278,"464":0.020292019399818614,"465":-0.013921180321614483,"466":0.01733358216186766,"467":-0.005559702757950192,"468":0.020231803704788574,"469":-0.005576402973768461,"470":-0.009240658007112526,"471":-0.026957597498448997,"472":0.016369730479275937,"473":-0.012885919691668449,"474":-0.0019743897576832556,"475":-0.01748832666805103,"476":-0.001711197902513708,"477":0.014522404341729587,"478":-0.012205781746625911,"479":0.004940362993467319,"480":-0.014762970649056299,"481":-0.019819713391893146,"482":0.019064991569542274,"483":0.006165388321937452,"484":-0.007331713499669128,"485":0.020601925115024153,"486":-0.01767482508270479,"487":-0.0032339203345796773,"488":-0.005573948697296576,"489":0.006043389581978973,"490":0.007721635388063336,"491":0.028731780794812985,"492":0.021292156536517053,"493":-0.0017322059298145503,"494":0.002693222771858773,"495":0.019100146244375987,"496":-0.01243628359975946,"497":0.002860481530659441,"498":0.004735817722287492,"499":0.025514796394834057,"500":-0.004153352453454799,"501":-0.0007634756196822952,"502":0.0036769136964605997,"503":0.0011199034067207526,"504":-0.02329580940410788,"505":-0.02639730504026948,"506":-0.0015505063824019184,"507":-0.03030552265770122,"508":-0.0026970614085940077,"509":0.01328510742099431,"510":-0.01826660226865039,"511":-0.000466493930349359,"512":0.018768977814992104,"513":0.017278530398926975,"514":-0.012897801438382525,"515":-0.0032663020611003557,"516":-0.0222308033897581,"517":0.007512541333708802,"518":0.006206427078290972,"519":0.001481680161735893,"520":-0.002580106153310184,"521":-0.007514440932475006,"522":-0.01335824790404816,"523":-0.006426476310410547,"524":0.019123905132136326,"525":-0.012533114395239998,"526":-0.020163432508258885,"527":0.013940246055803159,"528":-0.008781912179352936,"529":0.0012696669873735306,"530":0.0011435113315567188,"531":-0.008650432771616081,"532":0.034042375390690355,"533":0.003458619586291302,"534":0.00034594543520618035,"535":-0.0090340710383648,"536":-0.00571376227300521,"537":-0.017612060354059676,"538":0.05801006690823841,"539":0.0016264612246339944,"540":-0.004164345938830519,"541":0.024327647236429658,"542":0.0023163309792463963,"543":-0.010223029353755233,"544":-0.010322016522640276,"545":-0.0005696948382218444,"546":0.003546320716843808,"547":-0.0018216192900114604,"548":0.022968796947845944,"549":0.014608259400342768,"550":0.02969627607658108,"551":0.013801872726110397,"552":-0.01155411094405079,"553":0.1564053602073664,"554":-0.018962981228110933,"555":-0.002135505285180644,"556":0.1221735158313919,"557":0.0020457771166308716,"558":-0.006792973761381729,"559":0.020162783430634625,"560":0.018162916940001318,"561":-0.013629088917391076,"562":-0.008006087958333387,"563":0.01325918582773464,"564":0.005648249932755337,"565":-0.010194281408875506,"566":-0.009720673499951019,"567":0.0066526779535756074,"568":0.014888022003066962,"569":-0.009679190963718469,"570":-0.02981014037534727,"571":0.011295257487164994,"572":0.01949041052770141,"573":0.010320251879825892,"574":0.0032475537003556145,"575":-0.010044157995750697,"576":0.006036192408910015,"577":0.01620310766733634,"578":0.0040414117491882175,"579":-0.00662251680953971,"580":0.0061089369742059665,"581":0.010715330511375453,"582":0.0051277571543596,"583":0.009503946511750029,"584":-0.012722169267997968,"585":-0.001542703325859395,"586":0.00387040001156524,"587":0.019646099263221223,"588":0.01364216148803884,"589":0.002879963797871569,"590":-0.021720406830385407,"591":0.004016667261901833,"592":0.015234225432127763,"593":0.0020320109629487697,"594":-0.015360629934185771,"595":-0.004517668931835671,"596":-0.027794351915046287,"597":-0.011095117526033817,"598":-0.012297650081632045,"599":-0.007886840868322139,"600":0.0028897124487920456,"601":0.018070560519736663,"602":0.031855610905809205,"603":-0.0016037162525779608,"604":-0.006477673778316709,"605":0.001420859851640509,"606":0.01278704019056475,"607":0.008941549648530755,"608":0.003324951898370231,"609":-0.004889939589952787,"610":0.006220745502676742,"611":-0.011371532425608089,"612":-0.006874514498054732,"613":-0.013179989573492352,"614":0.012300681150108891,"615":0.008938996646618578,"616":-0.014718773798349273,"617":0.0019325668664999232,"618":-0.0009749839683192028,"619":0.054598997629838115,"620":-0.017929115168431226,"621":0.0018022607685838118,"622":0.05628369231068957,"623":0.004703552515320321,"624":-0.012134960956215371,"625":-0.026484647600407956,"626":-0.004999800265642804,"627":0.008670447037710353,"628":0.001972731003719537,"629":-0.004093957083484457,"630":0.00037948190402447494,"631":-0.004173721348776138,"632":0.010838032186988427,"633":0.007305100964838591,"634":0.007210009039223965,"635":-0.002978531225623082,"636":-0.006814776765897535,"637":-0.02607792326681229,"638":0.0039848062098533435,"639":0.0005275063539012286,"640":0.004126006959745562,"641":0.016930478534047007,"642":0.011383746372662379,"643":-0.005298714987410955,"644":0.010541100338995574,"645":-0.0021333675033591805,"646":0.0037981810417429557,"647":-0.015386462734597322,"648":0.02608489545224539,"649":-0.03671880980022172,"650":-0.012497453997038258,"651":0.012766433635904946,"652":-0.013330091721301455,"653":-0.012144233419694131,"654":0.000705280310885257,"655":0.026220811407634406,"656":0.016316648482545895,"657":0.0025932875200289553,"658":-0.026040346830455516,"659":0.03092897915955024,"660":-0.0011084767303932367,"661":-0.0063516547927726435,"662":0.006389124099680346,"663":0.011545105729983289,"664":-0.0012637526765190588,"665":0.009223721309485705,"666":-0.004932207009240569,"667":-0.02949075067409571,"668":0.018487009472354803,"669":0.017141012488717806,"670":-0.01747603553999332,"671":-0.0036499877357257463,"672":0.00950184730883774,"673":0.00725370266086761,"674":-0.009674658661698256,"675":-0.009603593260951107,"676":0.014596932596775324,"677":0.0035083915466173855,"678":-0.021864712779743143,"679":0.014288897843495543,"680":0.004572406377130044,"681":-0.009448713072223454,"682":-0.013154951134802091,"683":0.01857627339608962,"684":0.013783900959042172,"685":-0.011827911700841557,"686":0.0118000548805878,"687":0.041650097829025234,"688":0.0008026138605970017,"689":-0.003715844036528823,"690":-0.010944780505843967,"691":0.009544905702497431,"692":-0.012919552699123427,"693":0.009427807989462841,"694":0.01807933259933517,"695":-0.004284329191114211,"696":-0.03171423102251464,"697":0.006142830754230576,"698":-0.009043809692591262,"699":0.025847150371020432,"700":-0.014499744136745133,"701":-0.009882100310114881,"702":0.0016462008441491052,"703":0.022253901228866158,"704":0.0017691922982595117,"705":-0.005328687703103615,"706":-0.008032602455173751,"707":-0.022565599113748173,"708":0.013586502657101986,"709":-0.01612216893471153,"710":0.0036404321094020797,"711":-0.0037030963857480224,"712":0.013593509531089855,"713":0.0008669557994607952,"714":0.012645717978633848,"715":0.022042447832124498,"716":0.01811240924113577,"717":-0.028326295072460768,"718":0.026043584053004637,"719":0.016959765070199986,"720":0.0033639072907194274,"721":0.02176498508930354,"722":0.026981144502180296,"723":-0.0027591323846033627,"724":0.012273987004238124,"725":0.03187570691407513,"726":-0.017889218165609275,"727":0.0009670105884151388,"728":-0.021218388683534394,"729":-0.01833113550757145,"730":0.030190517738829806,"731":0.005040868400530044,"732":-0.016896801053159775,"733":0.004905861016536711,"734":0.012330414637279253,"735":0.00029342321432479615,"736":-0.008609320637418491,"737":0.010576487733832823,"738":-0.010896798999440538,"739":0.015166423700037684,"740":-0.006379377382543435,"741":-0.023413536273565433,"742":0.0021121054499302115,"743":-0.0073738070276720595,"744":0.00014335105677762964,"745":0.009694008233305785,"746":0.02600855418970146,"747":0.0010355671073969594,"748":0.00597118564670504,"749":-0.005824664349915829,"750":-0.009768562328393628,"751":0.0043066098596473675,"752":0.0011177462566811338,"753":0.011777479352024682,"754":-0.009147504502835751,"755":0.007493214163154223,"756":0.024879675825363327,"757":0.011595358211563397,"758":-0.011143338772504311,"759":-0.02002453991905742,"760":-0.025648772563518364,"761":0.0015252314745705334,"762":0.04522291657626894,"763":0.010749954864304483,"764":0.013750001716608408,"765":-0.008814428125928104,"766":-0.003256198651112852,"767":-0.01724876981725169,"768":-0.020969596110461546,"769":0.015984134698007982,"770":-0.004819560318531731,"771":0.004858334641594654,"772":0.0030974551898484835,"773":0.0026337051736959253,"774":0.0007816630745796695,"775":0.005943522262845568,"776":0.00632944887871607,"777":0.004044709561894184,"778":-0.007467301476885456,"779":0.012913284308583475,"780":-0.005994697077412573,"781":0.018041348768192526,"782":-0.023637728512138224,"783":0.003044007338815823,"784":-0.007014428020087959,"785":-0.0023410288351959304,"786":0.017763082307252657,"787":0.00751010933335479,"788":0.004406607292045157,"789":0.0004769535331686317,"790":0.006393693723602058,"791":-0.011097649117807692,"792":0.013351557187210903,"793":0.007947911444829099,"794":-0.006233719874566123,"795":-0.011711310144978586,"796":0.023557158240608334,"797":-0.004497516426877174,"798":-0.0028329381599923285,"799":0.011576577992229851,"800":-0.026102534975305385,"801":-0.017626479037684776,"802":0.007974323704458273,"803":0.013993078639770532,"804":0.005097999208223655,"805":-0.009090637510868234,"806":0.0027049392728135,"807":-0.021064245405988988,"808":-0.0021461992635665914,"809":0.024693645766477618,"810":0.014849630251411595,"811":0.021942444800358417,"812":0.013371346160004382,"813":-0.003734440830496517,"814":0.005074412216672698,"815":0.0036472486629019114,"816":0.01663033602244666,"817":0.00031015309351284506,"818":0.016964530750233464,"819":0.027825504610287793,"820":-0.020860422072296762,"821":-0.03227022651385953,"822":0.012652862557017181,"823":0.0018153332021481649,"824":0.021237311648097165,"825":0.0008515066507110612,"826":-0.013461813121401494,"827":-0.005624037409669637,"828":0.0098835668877612,"829":-0.008560513804479928,"830":-0.008454909449773418,"831":0.021628093109636783,"832":0.0008192253039044161,"833":0.004624569085538889,"834":0.001827160763510864,"835":0.008514007247323171,"836":0.0008847793777112849,"837":0.03921565239147357,"838":0.0018115694085465268,"839":0.015347602193044024,"840":0.033281662432518434,"841":0.02489549885094048,"842":-0.007482070471904548,"843":0.01808580160908597,"844":-0.0006664380509167491,"845":0.0032954097960981765,"846":0.014020023599545814,"847":0.0039371633905429405,"848":-0.02918315014292408,"849":-0.010454481305066233,"850":0.012746318389276378,"851":-0.016557920577387898,"852":0.005040061754917255,"853":-0.006864664758562782,"854":0.009931508311513022,"855":0.008252449769333823,"856":-0.0054340833854958975,"857":0.007291313363009885,"858":0.018658435041104492,"859":-0.007169052666792577,"860":-0.015012269904165624,"861":0.01496504155562137,"862":0.026340790455287463,"863":-0.012245862486530755,"864":0.027254938641306268,"865":0.00405892128823245,"866":0.003565670888965813,"867":-0.013470171464256771,"868":-0.002173353733970913,"869":-0.00014010782686266142,"870":-0.009602703776864702,"871":0.007989556579566244,"872":0.021903659645309558,"873":-0.018809666817838234,"874":0.0015554215831483217,"875":0.015749354565841738,"876":0.005925482030902022,"877":-0.017805767416852893,"878":0.006359946512887967,"879":0.016695602133632362,"880":-0.007941342579413462,"881":0.03003595601661346,"882":0.005209514124946125,"883":-0.002645563425174095,"884":-0.020835128668626093,"885":0.0018884493599713933,"886":0.002447025814524382,"887":0.0026701257056943504,"888":-0.006404900051018107,"889":-0.002474001806231227,"890":-0.010795586932772732,"891":0.013248814929114193,"892":0.010014837995791902,"893":0.020247785145268173,"894":0.02462920236517412,"895":-0.0014269883323350693,"896":-0.01456582458602235,"897":0.013024019825081803,"898":0.011062927144161797,"899":-0.01326620201715473,"900":-0.012102392581230527,"901":-0.008476488540656047,"902":0.00583194708358172,"903":-0.004643275150067857,"904":-0.013590236699624492,"905":-0.017432896141610647,"906":-0.02127541954033641,"907":0.004167712375464013,"908":-0.0178744600671429,"909":0.019596362977695434,"910":-0.011704793626575168,"911":0.036824337473276784,"912":0.03218455406789855,"913":0.0038885059243868847,"914":-0.011970343646123162,"915":-0.02798162904971315,"916":-0.010981013786956826,"917":-0.02443670850970537,"918":-0.008617867871157437,"919":0.00956046358559011,"920":0.008746225199081765,"921":-0.004558595974495176,"922":-0.00893278269462067,"923":0.0024503852134344544,"924":-0.02900111349408328,"925":-0.01959037825143691,"926":-0.0007993058941551705,"927":-0.0037211167507260074,"928":-0.013630630371203973,"929":-0.02003903679232987,"930":-0.015844999784081576,"931":-0.005849245304445439,"932":-0.001891886089799214,"933":0.016288933855095576,"934":0.025010958663344678,"935":-0.024485632216295686,"936":0.017310527265971556,"937":0.008228713198148113,"938":-0.030724277095217214,"939":-0.013480313876522789,"940":-0.013011252140511546,"941":-0.002127506041200181,"942":-0.005263915701768379,"943":0.015657282368815247,"944":0.015218785322279695,"945":0.0019493313650361535,"946":-0.01836275553264279,"947":0.013832037031173776,"948":0.006290972826778567,"949":-0.006140486842282319,"950":0.0032433060126839048,"951":-0.020762073875796767,"952":-0.01948279916752489,"953":-0.008939035036964143,"954":0.026837380577673077,"955":-0.02754018137551413,"956":0.03600105000238337,"957":-0.006302650817460596,"958":-0.02494872253677642,"959":-0.003194386482023986,"960":-0.0043261751345985006,"961":0.014213147523242094,"962":0.005910933371029603,"963":-0.03127877037457144,"964":-0.006246012897718668,"965":-0.007810936015371693,"966":0.005715160249663856,"967":0.015810039901774233,"968":-0.007139570582114846,"969":-0.0036844049498504484,"970":-0.007877469162988964,"971":-0.011618493675867292,"972":0.007966280654802982,"973":-0.01868763508393464,"974":0.005329797088294414,"975":0.043113751400202814,"976":0.019257318118417285,"977":-0.019529524669955646,"978":0.013393605790371717,"979":0.020063608785804706,"980":0.0006189358625189194,"981":-0.00046797496023653234,"982":0.00278196412807459,"983":0.01832583885114196,"984":-0.017776725529026417,"985":-0.003430339100360588,"986":0.00746122919308589,"987":0.001800072101770395,"988":-0.013453978922890962,"989":0.00799910093368124,"990":-0.003567810763161761,"991":0.014187133811383219,"992":-0.01947778787932289,"993":-0.000008831172537405067,"994":0.009301167806314169,"995":-0.020224826395094368,"996":0.019014908793422422,"997":-0.011331561072597446,"998":0.014639740432167522,"999":-0.00046264710669765294,"1000":-0.0015082162268123041,"1001":0.019299771294400185,"1002":-0.0017137627925688714,"1003":0.011917127727797358,"1004":-0.016203181928085286,"1005":0.011110168508866263,"1006":-0.0057623208017450606,"1007":-0.00849665721361587,"1008":-0.0037242575606504973,"1009":0.010072205669974438,"1010":-0.01779359703100133,"1011":-0.0008794097988699639,"1012":0.020544461539158974,"1013":-0.011320059042292751,"1014":-0.007681736304771127,"1015":-0.003860100679513007,"1016":-0.006716209329780328,"1017":-0.027961494918571916,"1018":0.013778322874244528,"1019":-0.013117910392281973,"1020":-0.025047322484783873,"1021":0.0032768157202674618,"1022":-0.03595355746500481,"1023":-0.008965378362111386,"1024":0.01310767577804214,"1025":-0.007586123458100035,"1026":0.004130667976942286,"1027":0.027563659897303226,"1028":0.004039304644740623,"1029":0.01783510493727765,"1030":0.026825762344772415,"1031":0.01067482071276678,"1032":-0.010586949896294513,"1033":0.04109821528276113,"1034":0.012221339937741629,"1035":0.007562532047364851,"1036":-0.011125993399438806,"1037":-0.0025230803006463867,"1038":-0.0035339753589485575,"1039":0.010633379623980373,"1040":0.02520097129205994,"1041":-0.003552303402048077,"1042":-0.01943675468728896,"1043":-0.011207664448882396,"1044":0.01152141415317496,"1045":0.0394179240932592,"1046":0.005246185391997919,"1047":-0.031205442001579875,"1048":0.06910504414562683,"1049":0.003500017361504449,"1050":-0.005928713495484794,"1051":-0.003042178899767662,"1052":0.003639758148574635,"1053":0.006335111323689763,"1054":0.014359757332683389,"1055":0.0061459010187394515,"1056":0.0024391266503440614,"1057":-0.011310673178454083,"1058":0.004043950488304404,"1059":-0.007060698000215554,"1060":0.009675489204519723,"1061":-0.0065627179801609654,"1062":-0.006481229048865009,"1063":0.027657316934360365,"1064":-0.033324696155798944,"1065":0.00645003812668794,"1066":0.005728443591844508,"1067":-0.031913680078203964,"1068":0.012258329991008912,"1069":0.03441648195699409,"1070":-0.012334653277187635,"1071":-0.0032717832760796226,"1072":-0.02205733590864187,"1073":-0.0017319233441837653,"1074":0.011342054085606066,"1075":-0.004373265966226983,"1076":0.023251199018192666,"1077":-0.0008275121128191315,"1078":-0.0007966041919807464,"1079":0.0056863317092725844,"1080":0.013832310552237846,"1081":0.017472417367206228,"1082":0.006878761768759028,"1083":0.0018388513779328587,"1084":0.03370963910860549,"1085":0.004810935133294515,"1086":0.004828057843590993,"1087":-0.01152587975881801,"1088":0.0014689641271549148,"1089":-0.003250867771358731,"1090":0.004249565491521148,"1091":0.025653518845892335,"1092":-0.02690311253240255,"1093":-0.016497541074375753,"1094":0.0163197987990225,"1095":0.00730050556708908,"1096":0.014163863798475953,"1097":-0.012668383589448358,"1098":-0.012991674967105871,"1099":-0.0025686243868433514,"1100":-0.010755511932716637,"1101":-0.007278198537265286,"1102":0.004869035512993833,"1103":0.014659522974024907,"1104":0.019785754613134185,"1105":-0.017793148917518865,"1106":-0.0032541210826071802,"1107":0.008348699569022176,"1108":0.02707423114219948,"1109":0.012210986721663703,"1110":0.003295127194307224,"1111":0.02405620740207775,"1112":0.01579887938507685,"1113":-0.020567980405096588,"1114":0.03951839945397583,"1115":-0.01421250402658522,"1116":0.03901895582121535,"1117":-0.046911088228357024,"1118":-0.014309916218196552,"1119":0.04628751069479796,"1120":-0.013596355056411904,"1121":0.02115612646050639,"1122":-0.009698389484360706,"1123":0.02748059224012746,"1124":0.020804596275331898,"1125":0.0005903086251159504,"1126":-0.0028126878000248635,"1127":0.029602720141897524,"1128":0.001242121869811969,"1129":0.03142857341024914,"1130":-0.004266356169932301,"1131":0.014404865860989243,"1132":-0.009153668916670066,"1133":-0.00586148425416526,"1134":-0.022914747719809603,"1135":0.01773047585855192,"1136":0.0070547873518148835,"1137":0.02932597167157479,"1138":-0.00795032069837719,"1139":0.008165375672316927,"1140":-0.006549736252146843,"1141":0.0012150273818328655,"1142":0.01784095264044943,"1143":0.01527456756654537,"1144":-0.00867035859454707,"1145":0.001228678699323975,"1146":0.010982965547446188,"1147":0.004078041925823307,"1148":0.01031399077649845,"1149":-0.011667328920113882,"1150":0.026355654380429958,"1151":-0.005243590047900698,"1152":-0.03753205937872033,"1153":-0.014281742727336146,"1154":-0.0030993519806646655,"1155":0.017650037219609303,"1156":0.0011372810629361482,"1157":-0.007675800594930683,"1158":-0.0019342694074275775,"1159":-0.01724999633507258,"1160":-0.013967443798167459,"1161":0.0004124631206808194,"1162":-0.027545098792442116,"1163":-0.015952805829216078,"1164":0.0016888928163428507,"1165":-0.016476041027217125,"1166":-0.004956350121763138,"1167":-0.008696194943758891,"1168":0.021980391820116622,"1169":-0.020087703875142204,"1170":-0.008677448510438135,"1171":0.018051274406015946,"1172":-0.00555478436316178,"1173":0.006061996470162546,"1174":-0.03212341160982343,"1175":-0.007734581009948018,"1176":0.007506857100880548,"1177":0.0022449663387231096,"1178":0.015326825707130027,"1179":0.004469996707375375,"1180":0.016774021986686618,"1181":0.0016196279721531386,"1182":0.024798139366382015,"1183":-0.003937986406081952,"1184":-0.014074968311656671,"1185":-0.010898852352960798,"1186":-0.03214815914636431,"1187":-0.0022593784440596942,"1188":0.03995941353963843,"1189":0.01664677952210528,"1190":0.0191514241262914,"1191":0.009218394993130182,"1192":0.0035720371084311205,"1193":-0.0017705441240951283,"1194":-0.011926251544476829,"1195":0.0066249065309480675,"1196":-0.007573998747874243,"1197":0.013069859306019895,"1198":-0.010024080537899408,"1199":-0.007353463874796989,"1200":-0.024233010522146173,"1201":0.015617965765605002,"1202":0.005478608340080075,"1203":-0.006740353411699705,"1204":0.0015443888146114367,"1205":-0.00006459937721111656,"1206":-0.003089377585667652,"1207":-0.02268251272819582,"1208":0.0004903255951493171,"1209":0.000723957246285437,"1210":0.005012832032406629,"1211":0.025516176466074725,"1212":0.011498732663855196,"1213":-0.007609941521700954,"1214":0.014212300475026888,"1215":-0.028100295550172863,"1216":-0.027488613084929787,"1217":-0.01831677589350588,"1218":0.005892043186782042,"1219":-0.0016817742655460821,"1220":0.0038439043205259395,"1221":0.01592104398670463,"1222":0.005776476781411376,"1223":0.03346328212968114,"1224":-0.017931728393369466,"1225":0.010283527539519615,"1226":0.012953123335220751,"1227":-0.0048315230477426144,"1228":0.01587423980597035,"1229":-0.004652557613680033,"1230":0.01071074585128539,"1231":-0.015205155788107712,"1232":0.00872853467951617,"1233":0.0168352084118896,"1234":-0.01652804074115934,"1235":0.02693705976877916,"1236":0.01573940474985749,"1237":-0.004737837524612665,"1238":-0.012523506131924822,"1239":-0.0003343966428176735,"1240":-0.018822296743579166,"1241":0.01130648267895093,"1242":0.009917475926387127,"1243":0.017612876581053483,"1244":-0.0010731361447782323,"1245":-0.018938857056894038,"1246":0.0022172345635989594,"1247":0.010463125932905857,"1248":0.007991882478879178,"1249":-0.02508095621604755,"1250":0.0029253448376061926,"1251":0.0026487653310748845,"1252":0.03142984663766966,"1253":-0.00400668779285233,"1254":-0.006472003637787537,"1255":-0.005907653319347138,"1256":-0.02575309396951462,"1257":-0.014050845963984746,"1258":0.021831169349137956,"1259":0.019330259818574766,"1260":0.035541120956972955,"1261":0.006302813900335011,"1262":0.04336064284822723,"1263":0.004029139728288761,"1264":0.01432228504885956,"1265":-0.014871736869979729,"1266":0.003053794587820213,"1267":0.006914440767703247,"1268":0.013656357316779125,"1269":0.006870662744958523,"1270":0.01702039021409755,"1271":-0.011946843013822001,"1272":-0.03226933124920757,"1273":0.04518643118342267,"1274":0.01655334671855352,"1275":-0.00415470725723903,"1276":0.011814374270748332,"1277":-0.014274958117741645,"1278":0.0010093990229869383,"1279":0.013541055852971218,"1280":0.01877449729561791,"1281":-0.006837139758916414,"1282":0.012351171178666421,"1283":-0.016621974321684257,"1284":0.003017986752287062,"1285":0.012211055534622647,"1286":-0.00746837364025257,"1287":-0.012086405948536523,"1288":-0.005801839233025883,"1289":-0.006862013104983088,"1290":-0.013608040270903033,"1291":0.011685317806892153,"1292":0.012964028619142543,"1293":-0.017484009037307426,"1294":-0.025797852728091746,"1295":-0.016018629733644568,"1296":-0.011661998954598773,"1297":0.0020565230596521194,"1298":0.0065125910872848355,"1299":0.003133950867476639,"1300":0.026972411648021638,"1301":-0.027047297631356985,"1302":0.020209760304472753,"1303":0.00750626622047214,"1304":0.012770096300723021,"1305":0.0017338933177432085,"1306":-0.017733781951947008,"1307":-0.021497466761095506,"1308":0.019220350430658874,"1309":-0.009198341609933823,"1310":0.01288896542071948,"1311":0.0011119626686364728,"1312":-0.017345536964785427,"1313":0.011078738840294804,"1314":0.0015501238936822222,"1315":0.0006304295243533189,"1316":0.019826617904346106,"1317":-0.007778620430683904,"1318":-0.020283938858424694,"1319":0.007703912573324554,"1320":-0.013413744489949586,"1321":0.008944504558578259,"1322":0.01532168710205097,"1323":0.0055183272574087575,"1324":0.026240946173575835,"1325":-0.0031683243352921948,"1326":-0.011607504805635946,"1327":0.022934598093806973,"1328":-0.01346517985242637,"1329":0.001788938195949867,"1330":0.026221749195708615,"1331":-0.005179710881364002,"1332":0.011284971705299048,"1333":0.03217167507918886,"1334":-0.010750578356140452,"1335":-0.0025730176996413864,"1336":-0.01941405288914942,"1337":-0.00022001946804756545,"1338":-0.006325206704814638,"1339":-0.020831549218707775,"1340":-0.0191673690514384,"1341":0.013784811459565347,"1342":-0.008372042207765593,"1343":-0.020647137682349295,"1344":-0.01085598918885219,"1345":-0.003728345059619992,"1346":0.00966142001774725,"1347":-0.012436814562528684,"1348":0.02273274087111902,"1349":0.014843219407902201,"1350":0.004252516375892453,"1351":0.017155748884165906,"1352":0.0014813752595320758,"1353":0.015641514529277985,"1354":-0.004781343754653548,"1355":0.012109826828644862,"1356":-0.02932607375499946,"1357":-0.000028552039989313016,"1358":-0.0030828956192256547,"1359":-0.00016387749699997694,"1360":0.022897487564356545,"1361":-0.024066464737470955,"1362":0.013254054367295163,"1363":0.010471851483889813,"1364":-0.02313210745264553,"1365":-0.0075328406466954045,"1366":-0.002134038378759387,"1367":0.0007020054751886032,"1368":-0.007954813415802937,"1369":0.023641723653426167,"1370":-0.0038159911291082657,"1371":0.007958472456066653,"1372":0.002316980367013629,"1373":-0.009554568158669723,"1374":0.0018780272786404664,"1375":0.00743730061872998,"1376":0.016999456859859756,"1377":-0.002377202469232308,"1378":0.023468180474464084,"1379":-0.0006150668340687527,"1380":-0.0013926122328772128,"1381":0.009812130138243688,"1382":0.00027024401657709625,"1383":0.005578311656706542,"1384":-0.0010726970826408732,"1385":0.0017510562627450757,"1386":-0.004824604992562114,"1387":0.004650766842796039,"1388":0.00006211162657953839,"1389":0.008237783300637097,"1390":0.0014822820895221875,"1391":0.004416684707034454,"1392":-0.009439014873197869,"1393":0.004656428986643366,"1394":-0.0014707018421461606,"1395":0.018244155676477778,"1396":0.024543655770893087,"1397":0.002999881706368349,"1398":0.00038349503454238704,"1399":-0.030709482458136303,"1400":0.010014426200712481,"1401":0.03615294899825054,"1402":0.008081609930568603,"1403":-0.004946414242273024,"1404":0.034508014253346514,"1405":0.01171641486572851,"1406":0.004918884802060832,"1407":0.024076316426484445,"1408":0.043210554410136694,"1409":0.004729309764386,"1410":0.013664014003364939,"1411":-0.008323693694753009,"1412":0.025652874376617025,"1413":0.00020825459989988641,"1414":0.0018856776632831707,"1415":0.0014352199332621552,"1416":0.012483897205328956,"1417":0.022916736553116688,"1418":0.006934653954245489,"1419":-0.0047273528266876825,"1420":-0.01976133864097007,"1421":-0.005240676601171392,"1422":0.006511737466312614,"1423":0.009131676660008421,"1424":0.013455233411546925,"1425":0.005979394851321106,"1426":0.007215112419251727,"1427":-0.007467861720858384,"1428":-0.01602318046206508,"1429":0.004004173709149874,"1430":0.005196857013350596,"1431":-0.02191336678395803,"1432":0.004304117509575741,"1433":-0.0022256771261681342,"1434":0.025630146654831685,"1435":0.001944799444911376,"1436":0.021475096109359992,"1437":0.021670506122877423,"1438":-0.002320195895858929,"1439":-0.01096807259251125,"1440":0.012558926712985788,"1441":0.0042710387769220514,"1442":-0.0035834567718052088,"1443":0.003959354528555715,"1444":0.004096412375177445,"1445":-0.02777570403510873,"1446":0.012238835857801616,"1447":0.007375833584948742,"1448":-0.030885455793670878,"1449":0.017090602417270076,"1450":0.011252759095070486,"1451":0.0024173436374052767,"1452":-0.009674950934892998,"1453":-0.004455140810236924,"1454":-0.005812982781149029,"1455":0.017858053233197023,"1456":-0.012166853192247544,"1457":0.021839589365047696,"1458":0.031326628654020666,"1459":-0.006537371267138552,"1460":0.022362760241565718,"1461":0.015686521029372198,"1462":-0.011236159661710527,"1463":-0.005133894817295357,"1464":-0.014348152568989426,"1465":0.020010514710930773,"1466":-0.016117857289404576,"1467":-0.011202654908967841,"1468":-0.011109825324625327,"1469":0.023275798414558103,"1470":-0.005519140526359434,"1471":0.014835518256427174,"1472":0.03413805092667465,"1473":0.019956494735203653,"1474":0.012107040789660082,"1475":0.007821817009624915,"1476":0.016896594344012333,"1477":-0.012136789986261252,"1478":0.010355606271166398,"1479":0.00271505245976826,"1480":-0.03271512022625648,"1481":0.007064783480102845,"1482":-0.004008211282756892,"1483":-0.02792778712798486,"1484":0.03372137181709554,"1485":0.012406862836537615,"1486":0.0024111164979024754,"1487":-0.0013042545627802566,"1488":-0.004123429622120014,"1489":0.0025385970312577486,"1490":0.011247994575117064,"1491":-0.027122747114949046,"1492":0.007235537067440103,"1493":-0.01712483827239457,"1494":-0.00039762216638481915,"1495":0.0039277573013187465,"1496":0.007923564673336615,"1497":0.019187963353083995,"1498":-0.008059222886609098,"1499":0.013831852342801461,"1500":0.012414368270872764,"1501":-0.003706030611506143,"1502":0.0025743325336958413,"1503":-0.0032692672139182145,"1504":-0.013158385266919863,"1505":-0.012271254685495885,"1506":-0.021636876148696173,"1507":-0.01374226029440481,"1508":0.013200909306105285,"1509":0.017140852359097684,"1510":-0.004518857951819412,"1511":0.006816782150364184,"1512":-0.023368741214502983,"1513":0.04350431358478583,"1514":-0.0033286833936978723,"1515":-0.012382951647705354,"1516":0.06288538494694455,"1517":0.005525403944037452,"1518":0.020302150753296524,"1519":0.05241645907027263,"1520":-0.007190607140209112,"1521":0.017937227855101903,"1522":0.03005590480900497,"1523":-0.00571126517737992,"1524":0.005139536618948335,"1525":0.02758891317878546,"1526":-0.01033873720541021,"1527":0.0032287901076446055,"1528":-0.02299564335018086,"1529":-0.010937612758409225,"1530":-0.018489865161511583,"1531":0.034218107253963806,"1532":0.00766756876089621,"1533":-0.027935530485551457,"1534":0.006889883943826925,"1535":0.011673259364111697,"1536":-0.005912356996625914,"1537":0.16963653885362753,"1538":-0.01686911329826675,"1539":-0.006566177767455191,"1540":0.14028158453882966,"1541":0.0339297427967194,"1542":0.016716002912876258,"1543":0.019712843503886798,"1544":0.02282469907662835,"1545":-0.016925926600482546,"1546":-0.001222593156456845,"1547":-0.009271340501048527,"1548":-0.0255025112010508,"1549":0.014965662006293375,"1550":0.01253103897138863,"1551":0.00019738920187388663,"1552":-0.0009080290102692843,"1553":-0.005268745968704743,"1554":-0.006432535215264494,"1555":0.011097991731159225,"1556":0.00719718309525621,"1557":0.010113655523798167,"1558":-0.0017906528815362004,"1559":0.006225260412192304,"1560":-0.0009389251806166474,"1561":0.008897898275511741,"1562":0.0072956636035684825,"1563":0.02686214504512731,"1564":0.016600098694094657,"1565":0.0074444964007994155,"1566":0.012911963597863821,"1567":0.004430844998727685,"1568":0.006578303781953131,"1569":0.00905242347979212,"1570":0.0138204157572595,"1571":-0.020702272861950064,"1572":0.019258891130899496,"1573":-0.007933859304653925,"1574":-0.013840734312130367,"1575":-0.0022177536954867344,"1576":0.016448723711498095,"1577":0.0009719160804013361,"1578":0.013822254501272568,"1579":0.0323514338890483,"1580":0.0005082839846945688,"1581":0.01718382635765589,"1582":0.005724419516680669,"1583":-0.008405353068577565,"1584":0.004368537740142032,"1585":0.007827155582893337,"1586":-0.021356793562990653,"1587":-0.010103694478466471,"1588":0.025953464863227606,"1589":0.005213379118522719,"1590":0.02134703360647563,"1591":0.007809727547553597,"1592":-0.024152191482227154,"1593":-0.008853624332918673,"1594":0.0030638350969593997,"1595":0.013208104061155154,"1596":-0.030277539941180685,"1597":0.006975046881886771,"1598":-0.007642767050147097,"1599":-0.010164003236191592,"1600":0.020392986668539483,"1601":-0.011238440437863442,"1602":0.021692243008840085,"1603":0.06093120354272462,"1604":-0.009451400150735931,"1605":0.041808469869381616,"1606":0.061719211264180535,"1607":0.037431121096592454,"1608":-0.013484064185312561,"1609":-0.003513319727400546,"1610":0.034457259271730795,"1611":0.02243804137499192,"1612":0.003241887793168503,"1613":-0.0023462048180788414,"1614":0.0060973809835731425,"1615":-0.019137541830691173,"1616":-0.016692135152565225,"1617":0.01301808563095225,"1618":-0.012822517808160783,"1619":-0.0033482880587781985,"1620":0.0014043674918917466,"1621":0.02397183721893545,"1622":-0.009146234677467177,"1623":0.011510873007850883,"1624":0.025413769414958584,"1625":-0.011833766595483693,"1626":-0.011543452804108623,"1627":-0.009326637842784891,"1628":0.0032706547976754465,"1629":0.025767169085757838,"1630":0.01775230128091081,"1631":0.022941426466681916,"1632":0.0020528906345348465,"1633":-0.000722343317836062,"1634":0.0005986542649989377,"1635":-0.00017737131049891646,"1636":-0.00781071191708866,"1637":0.0067433698008189805,"1638":0.010345351187105374,"1639":0.006082256157585697,"1640":0.0004355325494430579,"1641":0.0059552074277099895,"1642":0.005103535107492633,"1643":0.019443993125099233,"1644":-0.00710892232258737,"1645":0.0015780650143752825,"1646":0.01954584259515002,"1647":-0.012962881251257967,"1648":0.008692374753390486,"1649":0.009752583134370059,"1650":-0.00181121552527322,"1651":-0.00870299197026724,"1652":0.009081077406096172,"1653":-0.0027042723237861127,"1654":-0.007632575774067658,"1655":0.00018714021803594648,"1656":0.03697745038467051,"1657":-0.00033575116409563673,"1658":0.01354251136997127,"1659":-0.0011121940197445011,"1660":0.010860398747696762,"1661":0.023563017020868705,"1662":-0.022689464106155858,"1663":0.017483351929292314,"1664":0.015284652524534316,"1665":0.01908330742993357,"1666":0.019676807527679474,"1667":-0.0036440365776257903,"1668":-0.012703808180794973,"1669":-0.016663309001445366,"1670":0.028051556691479698,"1671":0.011510450309487422,"1672":-0.002067497420628269,"1673":0.02387045682592391,"1674":-0.010257922722780184,"1675":-0.014000519185971397,"1676":0.01688994264064172,"1677":-0.02559827262095424,"1678":-0.01491841851736885,"1679":0.012186270709165592,"1680":-0.0064678022681582265,"1681":0.029112983167551516,"1682":0.024154424749463374,"1683":-0.008762901817884814,"1684":0.001450504799276694,"1685":-0.0012016884046848046,"1686":-0.004493179729236294,"1687":-0.009224745372454055,"1688":0.04285786239842449,"1689":-0.0033002830917592246,"1690":-0.017186782317452576,"1691":-0.013021282501304368,"1692":-0.008392795839827948,"1693":0.023328603214245246,"1694":-0.004566676025162282,"1695":0.02182206977944713,"1696":-0.001265914553098753,"1697":0.0025663569419592767,"1698":0.002367845937594938,"1699":0.007790823801937781,"1700":0.002975301546499358,"1701":0.0016982080954677328,"1702":0.0020495221777087924,"1703":0.006029768698685028,"1704":0.0011481460950360698,"1705":0.0007503618134826822,"1706":-0.012571747737987556,"1707":-0.006857939099215139,"1708":0.0075374883886759735,"1709":0.005953730689915752,"1710":-0.0038531174399547567,"1711":0.0007053060189729076,"1712":0.009527592368862034,"1713":0.008217436074667881,"1714":-0.015150471833150022,"1715":0.027114721868766473,"1716":0.014499625777844262,"1717":0.010451110644009165,"1718":0.010387488040195918,"1719":0.00272905690762107,"1720":0.03278446204625064,"1721":0.029474646235335702,"1722":0.01815031693092454,"1723":0.004502922911807057,"1724":0.008526464487960718,"1725":-0.005716335726589608,"1726":0.013529364745893679,"1727":0.005476203832683286,"1728":0.0012559818545503666,"1729":0.0011015714113718448,"1730":0.010519982975093187,"1731":0.0015056954401157967,"1732":0.017951936357034275,"1733":-0.014696864095927346,"1734":-0.018897007649006474,"1735":0.011277210548903694,"1736":-0.011714590207408972,"1737":-0.0166810809626147,"1738":-0.0037075138331758863,"1739":-0.002155216147713653,"1740":-0.0004404687287771336,"1741":-0.020215908851767918,"1742":-0.009819313015144358,"1743":-0.004783524064086133,"1744":0.025445097032336793,"1745":-0.0003022112370766189,"1746":0.008727633858456206,"1747":0.020142884577168285,"1748":-0.016998908221244825,"1749":0.012654021638538331,"1750":0.042798487779752585,"1751":0.0031781762614415472,"1752":0.010332497830055378,"1753":0.003400425722543074,"1754":0.012056004260252239,"1755":0.01649797690698336,"1756":0.01465393973159499,"1757":-0.0049010393369392,"1758":-0.0022767493971691784,"1759":0.006561755266726337,"1760":0.008184452122329159,"1761":0.004105796121702118,"1762":-0.0021423945446678028,"1763":0.012076828367371286,"1764":0.017788034217640372,"1765":0.014158373866501239,"1766":-0.025908965973819545,"1767":-0.009715250615242461,"1768":-0.01046018958886943,"1769":0.006412940823227297,"1770":0.018979538126871594,"1771":0.006750197169777872,"1772":0.0004687343981558133,"1773":0.00038298815585855367,"1774":0.006209194606320872,"1775":0.02942223548918258,"1776":0.001973971576815314,"1777":0.03381099298281218,"1778":0.0007723813954089158,"1779":0.035412605409092586,"1780":0.013269240114962404,"1781":-0.009093721048298413,"1782":-0.0084697625893173,"1783":-0.006067679820053706,"1784":0.0015636802048013495,"1785":0.009218076112637426,"1786":-0.030500184552653364,"1787":-0.007005378152149464,"1788":-0.0021240977557677714,"1789":-0.0075397239960177664,"1790":0.0005925421168532274,"1791":-0.007758761865415896,"1792":-0.0038060307581904433,"1793":0.0017879895470522416,"1794":-0.006590913462900752,"1795":-0.024927964058502027,"1796":-0.011064109367034098,"1797":0.0036659861692297465,"1798":-0.005526447191985263,"1799":0.001904730569486627,"1800":0.014652748716254133,"1801":0.00582907345710306,"1802":-0.016794624240729084,"1803":-0.02159972361624246,"1804":0.009821576568290719,"1805":-0.015945928991208343,"1806":0.011133935919648496,"1807":0.004568293630253749,"1808":-0.0059719836851773005,"1809":-0.02130571953119646,"1810":0.01058059298888636,"1811":0.012302423824804119,"1812":-0.017909287279131176,"1813":-0.016407891844959423,"1814":-0.0057881430860114375,"1815":-0.0030608694318959026,"1816":0.008994165823344627,"1817":0.016501269313291097,"1818":0.013974804963590857,"1819":0.007056354420459465,"1820":-0.006996912435802665,"1821":0.0008883866328044584,"1822":0.0075379701730488,"1823":0.027459703697939656,"1824":0.005773228128565429,"1825":0.03475303894801517,"1826":-0.010210333222165182,"1827":0.004629195388783554,"1828":-0.002960061678623812,"1829":0.03183604626223573,"1830":0.03236094904163911,"1831":-0.0058568286279033445,"1832":0.019802042224651175,"1833":-0.003052946523304405,"1834":-0.003241349898358495,"1835":0.003404385264128055,"1836":-0.013603896638654507,"1837":0.002327131187234434,"1838":-0.00668745227591079,"1839":-0.009984657377096171,"1840":0.008520668247926556,"1841":0.00480508804312195,"1842":0.020690395336945583,"1843":0.009681395061504122,"1844":-0.011450153851998783,"1845":-0.010253234788965119,"1846":-0.009275113747835063,"1847":-0.010034959315953334,"1848":-0.006526951630632904,"1849":0.006005779275062852,"1850":-0.016972773264621238,"1851":0.0036077687553361976,"1852":-0.01504809875152198,"1853":0.012397757138458289,"1854":0.0030768889527575697,"1855":0.014564736303730817,"1856":0.00533199981409107,"1857":0.01825517194786662,"1858":0.014018134896800837,"1859":0.00023986166151171803,"1860":0.014706550612879102,"1861":0.017029429242922407,"1862":-0.019762058000824076,"1863":-0.010098129080357303,"1864":-0.020430043304603355,"1865":0.04670146529585452,"1866":-0.023801784305662124,"1867":0.008957474665596774,"1868":0.01758665519194045,"1869":0.006581171232633898,"1870":-0.003394650839762867,"1871":-0.0054753838488969045,"1872":-0.015107837288001717,"1873":0.01076066574545607,"1874":0.002163897658533838,"1875":-0.006500554374953623,"1876":0.010515341619645608,"1877":-0.008911023475320592,"1878":0.011037439488149413,"1879":-0.01623514641698025,"1880":-0.00471477063671918,"1881":0.02420211166910786,"1882":0.03048646399649478,"1883":-0.0032340623898139413,"1884":-0.009656788272554229,"1885":0.01933478468219998,"1886":-0.005735464607586021,"1887":-0.00724112131332357,"1888":-0.01413475806107499,"1889":0.01033478597880923,"1890":-0.03161281186586847,"1891":0.00007876651548477498,"1892":-0.005208167797493462,"1893":0.0017890688668895467,"1894":0.013096799785029381,"1895":-0.001950261020696291,"1896":0.0184139343845135,"1897":0.022142776741226798,"1898":0.0005268254709213752,"1899":0.01855827327576004,"1900":0.01238110516172896,"1901":-0.017525964093846096,"1902":0.01070616193189308,"1903":-0.022761975261900623,"1904":-0.012140147525749158,"1905":-0.0004911532792035592,"1906":-0.004537622502929141,"1907":-0.020602898939437612,"1908":0.01591275771533062,"1909":-0.008362722450724457,"1910":0.004062705021587423,"1911":0.005992231587053752,"1912":-0.018455843905964726,"1913":-0.009730970982539755,"1914":-0.00036835382377252456,"1915":-0.005866377314838747,"1916":0.0012527139240146277,"1917":0.010018549359201784,"1918":0.033987571358695776,"1919":0.0017465124053305683,"1920":-0.01139843647451679,"1921":0.01617995156726781,"1922":0.0051298856177794195,"1923":0.011649852622250512,"1924":-0.009790280521029536,"1925":0.006164139127891377,"1926":-0.002915662972820363,"1927":-0.012604893595281927,"1928":-0.0003045138640608136,"1929":0.008169258014346967,"1930":-0.018120283572858054,"1931":-0.023015840458149285,"1932":0.006742497666432968,"1933":-0.03043639711461503,"1934":-0.021786959575775353,"1935":-0.01116988100557885,"1936":0.003935964236241174,"1937":-0.01445637578354862,"1938":-0.014061398765485879,"1939":0.0005895064193412844,"1940":0.027636231259505734,"1941":-0.019649156907705398,"1942":-0.02277774038178494,"1943":0.0007567241169208752,"1944":0.035101306077730335,"1945":0.00892595355334644,"1946":-0.006563080997670367,"1947":0.0013102659342225389,"1948":0.009657099688219638,"1949":0.018825931431815972,"1950":0.009301764691427633,"1951":0.00011587909677518992,"1952":-0.0037765459766259364,"1953":0.0005836706708772251,"1954":0.010140992723147557,"1955":-0.009258549591284053,"1956":-0.019833129779705035,"1957":0.010589494876508775,"1958":-0.014588303948811887,"1959":-0.0027626973333672714,"1960":0.0024387891629119563,"1961":-0.018915710742062605,"1962":0.005073336815194888,"1963":-0.006619593017861473,"1964":-0.006721236037475391,"1965":0.03092411264954701,"1966":0.014528856754045026,"1967":0.014727291968629989,"1968":-0.01762477474368813,"1969":-0.009854912707647287,"1970":0.012575960352135507,"1971":0.0270884507991167,"1972":0.001834168586103206,"1973":-0.007729580004451993,"1974":-0.00749763511684184,"1975":0.003368798113082965,"1976":-0.0009909634544797168,"1977":-0.04385670253044904,"1978":-0.003007335763684734,"1979":0.021046249457460836,"1980":-0.005891838430459745,"1981":-0.0131179630366866,"1982":0.004268980236039656,"1983":-0.00529470679110789,"1984":0.008063313761030423,"1985":0.0060900098967575705,"1986":0.009831502379110854,"1987":-0.013575748369049992,"1988":-0.009469626013602371,"1989":-0.014702789255514085,"1990":-0.014090268684254016,"1991":0.008389158857145758,"1992":0.006264070081951665,"1993":0.010263006544064649,"1994":0.0007160382949654926,"1995":-0.0025018375489752735,"1996":-0.009145349560708746,"1997":0.022784814891453356,"1998":-0.01695571558318253,"1999":0.007977359813546832,"2000":0.0022423940861019905,"2001":-0.0008927558867440432,"2002":0.009357265802020258,"2003":0.01599527191222917,"2004":-0.02003060667626664,"2005":0.005781082897955731,"2006":0.011524033295905078,"2007":-0.03648797002962563,"2008":0.012131501117139475,"2009":-0.010291881122885062,"2010":0.00007218491009135388,"2011":0.018090023818325522,"2012":-0.00048059652161204654,"2013":0.006329209036593283,"2014":-0.010094239879529189,"2015":0.004027166223086789,"2016":0.005521235047009856,"2017":0.013066493299711213,"2018":-0.0016427533450562983,"2019":0.004571941959393843,"2020":0.005563918317608795,"2021":-0.00863492064159552,"2022":0.012055612003637209,"2023":0.0010266996357317414,"2024":0.01002275206941965,"2025":-0.0078244423665669,"2026":0.024864615783641793,"2027":0.013044735255238745,"2028":0.019210231990709183,"2029":0.0065108312500308275,"2030":-0.002863982615738286,"2031":-0.027223106935393194,"2032":0.004128241031476934,"2033":0.013904437092409457,"2034":-0.009551610433320633,"2035":0.008711236769158078,"2036":0.007727975482916448,"2037":0.013354087603679949,"2038":-0.0019448494912670312,"2039":0.004382693271965671,"2040":0.014281603094714775,"2041":0.0028428508094360586,"2042":-0.006829278057289951,"2043":-0.014415321854757314,"2044":0.02446445076946159,"2045":-0.0033910546244390804,"2046":-0.03430826091737269,"2047":0.013873447270338067,"2048":-0.0102159779211026,"2049":-0.009044502248693475,"2050":0.001654879747313857,"2051":0.03305185694346613,"2052":0.008460749458917031,"2053":-0.002755350676158818,"2054":0.024715044661664694,"2055":0.035688547263588284,"2056":-0.0041189604300554145,"2057":0.012979396419447974,"2058":-0.014785716926907685,"2059":-0.0019840228409129315,"2060":-0.016078146338776335,"2061":0.007701158799359545,"2062":0.0028225476404216947,"2063":-0.012399027980164928,"2064":-0.018601353020213287,"2065":-0.0018327015798382483,"2066":0.03119210696049456,"2067":-0.024417891787413524,"2068":-0.0162756789627895,"2069":-0.011140837146302485,"2070":0.02404284639966783,"2071":0.01067069890436597,"2072":0.005797401224242703,"2073":0.0006181193348208961,"2074":0.0003064050471053787,"2075":-0.029535074171685733,"2076":-0.02701788529516947,"2077":-0.0029616743075026237,"2078":-0.007507978559433853,"2079":-0.0019058512296643917,"2080":-0.024665281732744893,"2081":-0.011371847536068567,"2082":-0.027542070290436878,"2083":0.017784868093482432,"2084":-0.0031703636508495538,"2085":0.016138547261737426,"2086":-0.0048273657368258175,"2087":0.0011374305277624607,"2088":0.009460042964541518,"2089":-0.02346116202971409,"2090":0.00179402911605678,"2091":0.004482029200707077,"2092":-0.003457937733333543,"2093":-0.0016080878411831084,"2094":0.022868243593169114,"2095":0.013731879455096047,"2096":0.008453424442182137,"2097":0.009000891254245559,"2098":0.026041272140480572,"2099":0.012049127020691792,"2100":-0.022097866563212793,"2101":0.012209416787389923,"2102":0.036358420346248796,"2103":0.012606709864497856,"2104":0.024220376626291167,"2105":0.011033785128206656,"2106":0.027256373006972506,"2107":0.013548177516870286,"2108":-0.011812347876508445,"2109":0.02401411501683694,"2110":0.015947616595888205,"2111":0.0057433825610614915,"2112":0.028715429502277956,"2113":0.009929334728422895,"2114":0.005365257727518177,"2115":-0.030860743219615114,"2116":0.011725239131257184,"2117":-0.006458073225812159,"2118":-0.01378547442515814,"2119":-0.01199884461090262,"2120":0.013315786458362953,"2121":0.005790715367578588,"2122":0.011986992344542632,"2123":0.0037720749850949278,"2124":-0.0007500890949669522,"2125":0.009921658161108168,"2126":-0.05054556906820575,"2127":0.004100834583752331,"2128":0.0038863068500189133,"2129":0.009123079648106339,"2130":0.004641928011139404,"2131":0.0035569982203101677,"2132":-0.01268376260621887,"2133":-0.029798640347879577,"2134":-0.025279227420202666,"2135":-0.0038336896520594407,"2136":0.019777039215648357,"2137":-0.024710747538151192,"2138":-0.005804972375155646,"2139":0.01888425131204124,"2140":-0.02903465393158144,"2141":-0.000135815755123386,"2142":-0.0152772083743092,"2143":-0.034686689439208954,"2144":-0.0023768922358250602,"2145":0.016294796608768845,"2146":-0.00871500547635415,"2147":-0.009192301527375686,"2148":-0.01846905783615003,"2149":-0.014951446415922613,"2150":0.021387289228947982,"2151":-0.011219103937066098,"2152":0.012434235770083542,"2153":0.004819209216404459,"2154":-0.015184681042448233,"2155":-0.011620554031717951,"2156":0.015226998404348113,"2157":0.019635907803883478,"2158":-0.01141955788171035,"2159":0.01629550260122527,"2160":0.018249043273617434,"2161":0.009810580252666554,"2162":-0.015505407308001642,"2163":0.0036579360364482065,"2164":-0.02414084503997101,"2165":0.004387887693450782,"2166":0.00702089382556757,"2167":0.004744104128825704,"2168":0.039601637181565785,"2169":0.009042220080182992,"2170":0.008070619030739207,"2171":0.018082390949208327,"2172":0.016877083312041633,"2173":-0.008488534613702772,"2174":-0.026841174455549864,"2175":0.021750155197548447,"2176":-0.0010122596659001579,"2177":-0.0022459911169219362,"2178":-0.00913770190018683,"2179":0.009191920222527251,"2180":0.012992174381877506,"2181":-0.00679163838773756,"2182":0.0166760221329363,"2183":0.002910241014003799,"2184":-0.002004008525876532,"2185":-0.009495939168593018,"2186":-0.004253947874632871,"2187":-0.004902305747786401,"2188":0.009191621792861725,"2189":0.02271767489639519,"2190":-0.003549639637319804,"2191":0.009859556301582141,"2192":0.0005561430697094494,"2193":0.004568753693536036,"2194":0.0035375250576708426,"2195":-0.0011106698071463572,"2196":-0.0012175582741209873,"2197":-0.026333305903314924,"2198":-0.030366214658727245,"2199":-0.01019206874325402,"2200":0.028462595607367414,"2201":0.019399991825957853,"2202":0.01608141731171257,"2203":-0.0011669581839943571,"2204":-0.032123828007977286,"2205":-0.024686520174329193,"2206":-0.005676372382925917,"2207":0.00786816736879684,"2208":-0.006293998490703698,"2209":0.014465068782685334,"2210":-0.006919478365280921,"2211":-0.0012952309169129155,"2212":0.015376167082721728,"2213":-0.016914491818137374,"2214":-0.007419710414004102,"2215":-0.0054734844746454495,"2216":0.014779473850223596,"2217":0.01749232231522789,"2218":-0.008955333850651778,"2219":0.004835739876151804,"2220":0.001508802358224278,"2221":-0.0009215425188609784,"2222":0.006075286172949013,"2223":-0.013279722944418485,"2224":-0.004779339378362576,"2225":0.004928932129061485,"2226":-0.007882960247262212,"2227":0.012679384415856493,"2228":-0.013890357870358151,"2229":-0.008363092213975134,"2230":0.02421763286200833,"2231":0.0006502434959534468,"2232":-0.009505288087046595,"2233":-0.00010167564428523832,"2234":-0.0018133043924563833,"2235":-0.0016580287281598193,"2236":0.018045328522761202,"2237":0.004308075439078251,"2238":0.0021528633587274723,"2239":-0.01241242005845777,"2240":-0.008139314482513088,"2241":0.012198120157436865,"2242":-0.00989542750064666,"2243":0.0037503671497230886,"2244":-0.01632511119896927,"2245":-0.013466600600199129,"2246":0.022484713637854578,"2247":-0.0033645967833073314,"2248":-0.023216122814448622,"2249":-0.01298449603225362,"2250":0.0035630161709915083,"2251":0.019532951005170548,"2252":-0.010509830954137121,"2253":0.005072358907208002,"2254":0.002333946622240835,"2255":-0.013158316254926698,"2256":0.0054906997415833745,"2257":-0.015598351104037041,"2258":-0.016255261982202972,"2259":-0.009971423848151058,"2260":-0.00030303380583961723,"2261":-0.008175015989948752,"2262":-0.013156316481663436,"2263":0.023087381245964024,"2264":0.027964788752579798,"2265":-0.03978269863110092,"2266":0.011305626691062226,"2267":-0.010112302039421449,"2268":0.0011301655450344193,"2269":-0.017619313086595496,"2270":-0.01747135905641599,"2271":-0.010518136609023824,"2272":-0.005460603368183841,"2273":-0.00918863707378386,"2274":-0.011268848991184067,"2275":0.029197809030043306,"2276":0.022968220635281845,"2277":-0.016215495192827396,"2278":-0.016521589323867453,"2279":-0.03422795152954009,"2280":-0.011510946438054278,"2281":-0.023726609571913203,"2282":-0.008611417315527102,"2283":-0.0072525755047417335,"2284":0.00505871122673735,"2285":0.006566567090797774,"2286":0.00003718059910058055,"2287":-0.03382256211771599,"2288":-0.015542928416227312,"2289":-0.03414750537226645,"2290":0.0128801161338506,"2291":-0.013448151462738625,"2292":0.01293492788841374,"2293":0.024266745461901343,"2294":0.02066516610825999,"2295":0.019323243699872962,"2296":0.00409808142987683,"2297":-0.017341662823303308,"2298":-0.02569289636875683,"2299":-0.007223514295946135,"2300":0.011567263704800735,"2301":0.01605747737237612,"2302":0.018674812541009025,"2303":0.014966460137750649,"2304":-0.024565656479410104,"2305":-0.00168985670333366,"2306":0.0013970882243143576,"2307":0.01493744663856608,"2308":-0.0014781654822851884,"2309":0.0070008268898224734,"2310":0.015613789274969519,"2311":0.008117987833819623,"2312":-0.010994160603103072,"2313":0.006577766906678616,"2314":0.004859176160321919,"2315":0.042276177957193656,"2316":-0.016314208376925897,"2317":-0.017187652434588422,"2318":-0.008932319302932703,"2319":-0.004112150094862132,"2320":0.005754169095592047,"2321":-0.0173352753986153,"2322":0.001550277420358865,"2323":0.006465902646004678,"2324":-0.00545989307189759,"2325":0.001271258774895441,"2326":0.005876985657852415,"2327":-0.0027555025395575423,"2328":0.016414769086019118,"2329":-0.010640592077854751,"2330":-0.002412540986785616,"2331":-0.014470343608543424,"2332":-0.03024030535935673,"2333":-0.022566131400688482,"2334":-0.00014526461264084944,"2335":0.01599486238986674,"2336":-0.012147039264966361,"2337":0.024046546174310974,"2338":-0.02527326554686783,"2339":0.03704124977547862,"2340":0.04209075257999777,"2341":0.012036543715779897,"2342":0.017708704355524435,"2343":0.010041028655862832,"2344":-0.007281090368881605,"2345":0.034186590836819866,"2346":-0.015378365418506882,"2347":0.01005353519387909,"2348":0.0014395947534454518,"2349":0.026563551059208358,"2350":0.014372628939383004,"2351":0.01595558691645109,"2352":-0.010773129648564719,"2353":-0.01152192893771888,"2354":0.02933586366312373,"2355":0.018782860459579054,"2356":-0.0030529148528555495,"2357":0.026287937180375996,"2358":-0.013000293881990905,"2359":0.01709511517494517,"2360":-0.000948084360120033,"2361":-0.015028095217668335,"2362":-0.016442254025584087,"2363":0.015289775765615526,"2364":0.005211238867363845,"2365":-0.006091793256832567,"2366":-0.001337040859139145,"2367":0.0022503165865825183,"2368":-0.004132441541131093,"2369":0.011128099956768287,"2370":-0.015946667562513627,"2371":0.0021581154252106024,"2372":0.004717580691541481,"2373":0.02645820480372268,"2374":0.016408507767945744,"2375":0.01439600278053052,"2376":0.009254450158456566,"2377":-0.02019989909283686,"2378":0.002310091566536473,"2379":0.026341587099078554,"2380":0.007267389963070925,"2381":0.0035481196776480273,"2382":0.0032834215251655685,"2383":-0.0005262196608534112,"2384":0.010634817986930941,"2385":0.031288026822143274,"2386":-0.0012135778637510487,"2387":-0.02462492746531834,"2388":0.016124769802657736,"2389":-0.011012184527899257,"2390":0.013022062434712772,"2391":0.02572787314014535,"2392":-0.02740308719841249,"2393":0.0016384661569025243,"2394":-0.023438883514073867,"2395":-0.016736023966152282,"2396":-0.020810400576143903,"2397":0.005245009745217788,"2398":0.004389725458656914,"2399":0.004483511765255151,"2400":0.0028016751766583355,"2401":0.0019645172770353125,"2402":-0.0031446134597366126,"2403":-0.008208038909737403,"2404":0.002181174339186775,"2405":-0.010731896090449012,"2406":-0.004862871890179695,"2407":-0.012646003478407193,"2408":-0.024080053071910187,"2409":0.004140901597259629,"2410":-0.015084796877081514,"2411":-0.021145840253609483,"2412":-0.00532347491553205,"2413":0.01842657504284749,"2414":-0.009606872535344329,"2415":0.007740467218301774,"2416":0.0020616560790740496,"2417":0.012781073891537261,"2418":0.001077367006305205,"2419":0.016073139850817836,"2420":0.00011214011885896306,"2421":0.019002316492798998,"2422":-0.0047974710015267884,"2423":0.0015054418506443544,"2424":0.003685784168575916,"2425":0.007281725609497803,"2426":-0.010969473564560484,"2427":0.00488283405904699,"2428":-0.0009445893577316835,"2429":-0.011125896784025058,"2430":0.006755594441046731,"2431":-0.0031578714677653174,"2432":-0.013855684434016947,"2433":0.015268811768806996,"2434":-0.006718562437797665,"2435":0.005715093884648997,"2436":-0.017349545205565264,"2437":-0.01598697077728829,"2438":0.0030209171394979936,"2439":0.01059070904899184,"2440":0.015905727440409006,"2441":-0.008784692767922726,"2442":-0.004296632442624219,"2443":0.014497689966376544,"2444":0.005609027429066154,"2445":0.0007727292599708747,"2446":0.012752859492944996,"2447":-0.006715129658119043,"2448":-0.004871895507474761,"2449":-0.017547093495900893,"2450":0.02423746940586846,"2451":-0.02114096048193372,"2452":-0.0029204336802520496,"2453":0.0070383998126122395,"2454":0.00600879695694389,"2455":0.033655832278650585,"2456":0.040885415037952386,"2457":-0.004276646543956681,"2458":0.007614439125039033,"2459":-0.010764649949797521,"2460":-0.007610286582460457,"2461":-0.024315252904490322,"2462":-0.011729179253787421,"2463":0.02169560016094176,"2464":-0.02225182883954972,"2465":0.003122444734445255,"2466":0.0022957527187000065,"2467":0.010292225516037076,"2468":-0.002062878850939166,"2469":-0.0016019166135160818,"2470":-0.0011945317227579652,"2471":0.007050879004861566,"2472":0.005721218173631849,"2473":-0.016975602847128856,"2474":-0.0019300742591073143,"2475":-0.019233055970479158,"2476":0.006302149313988399,"2477":0.002438483323139009,"2478":-0.017177182495439976,"2479":0.002758707072427063,"2480":-0.0343377419386579,"2481":-0.0006042113789626898,"2482":0.009728522234914933,"2483":-0.03015289658452448,"2484":-0.00980250132651203,"2485":-0.012333690093849038,"2486":0.00764153901112399,"2487":-0.011895006280886963,"2488":-0.0043618614590288885,"2489":-0.013124788874826114,"2490":-0.024319058784712758,"2491":0.010357578837817082,"2492":-0.0019112663951329815,"2493":0.0005301400085441586,"2494":-0.018531257357907085,"2495":0.005449882427011706,"2496":-0.002728336490100892,"2497":0.011049000129816482,"2498":0.024730559603959788,"2499":-0.03166254238371582,"2500":0.021125825354383867,"2501":0.00902812938655874,"2502":-0.0073248541687619,"2503":0.02786489030938924,"2504":-0.014131721113629005,"2505":0.010759168721682517,"2506":0.03318726363131812,"2507":-0.023151168798536115,"2508":-0.01878007811183723,"2509":0.027062785938267192,"2510":-0.005475942140674383,"2511":-0.00021112429234255363,"2512":0.003690825284476111,"2513":0.04709609138687284,"2514":-0.00833556186904934,"2515":-0.007773349898262959,"2516":0.008308674185810121,"2517":-0.027437564910288623,"2518":0.00483725245581241,"2519":-0.014541198677135337,"2520":-0.026356324314462415,"2521":0.058904387664318665,"2522":0.03082210202920157,"2523":0.00394454131805101,"2524":0.07231378479319774,"2525":-0.001466875267646303,"2526":-0.005813864827761309,"2527":-0.01749160096630341,"2528":0.010467234469544626,"2529":-0.007462497097353394,"2530":0.008830593549176152,"2531":0.028877765367895564,"2532":-0.006093666087117279,"2533":0.01058021851933159,"2534":-0.003114740052799558,"2535":-0.01094639230212875,"2536":-0.004393024587816963,"2537":-0.029487097046179037,"2538":-0.008652442942207612,"2539":-0.0063172758677111605,"2540":-0.00034731730659163916,"2541":0.010174829310582282,"2542":0.024290801416921488,"2543":-0.005859012835336846,"2544":0.016534787952459405,"2545":0.010019205337627726,"2546":0.0015114987173821877,"2547":-0.015428670161591444,"2548":-0.022165074247845785,"2549":-0.0190547410257391,"2550":-0.031211238798129325,"2551":-0.03468810208756916,"2552":-0.01561849459279187,"2553":0.010960369518992081,"2554":-0.007664691090689108,"2555":0.013431977288666812,"2556":0.016776962731903797,"2557":0.011339162151062844,"2558":-0.019156569823269524,"2559":0.02871080948667886,"2560":0.005862511290100387,"2561":-0.025987055345293244,"2562":0.0021498988349211434,"2563":0.005198625807620986,"2564":0.01704272827381153,"2565":0.011348666303019233,"2566":0.014428258584418076,"2567":0.015251636599587913,"2568":0.005078299282540946,"2569":0.00971923184935522,"2570":0.010053092799167175,"2571":0.00023500525004719946,"2572":0.00919721530123028,"2573":-0.013683818221435355,"2574":-0.012353002327821785,"2575":0.03361560170471751,"2576":-0.01368307545961593,"2577":-0.0026203014997083288,"2578":-0.006589470662097809,"2579":0.0238740374352728,"2580":0.014454234148184192,"2581":-0.027540037415309943,"2582":0.01850626955201506,"2583":0.011451181860827218,"2584":-0.03139843560207724,"2585":0.030920919557712312,"2586":-0.010494497471038516,"2587":0.01426468323439648,"2588":0.014339984390826831,"2589":0.007547868349998668,"2590":-0.0013005861891140955,"2591":0.0022621649729012427,"2592":-0.010550383366834178,"2593":0.059075205845002525,"2594":-0.020437209084860675,"2595":-0.005322004159121832,"2596":0.012721225385256248,"2597":0.016222506782645,"2598":0.005137713884182802,"2599":0.0024149656736187856,"2600":0.009506526046812128,"2601":0.0260950564327863,"2602":-0.008892985418787218,"2603":0.018713361512819385,"2604":0.0053983579625354145,"2605":-0.03087858009163017,"2606":0.0014265760104810999,"2607":-0.006284213972485421,"2608":0.022981411974316156,"2609":-0.016795940001099845,"2610":-0.010905992715033085,"2611":0.0014291640273374126,"2612":0.03367195185252405,"2613":-0.02245865893606984,"2614":0.041629620667572004,"2615":-0.017605810256608668,"2616":-0.030223949847466725,"2617":0.009991882950725377,"2618":-0.013462367390465415,"2619":0.03067556925366772,"2620":0.02602724525034265,"2621":0.007965552058906323,"2622":-0.007451929897705455,"2623":0.004882189809206974,"2624":-0.006987575459823892,"2625":0.017425281044908158,"2626":-0.05738161523921549,"2627":0.006559478099792987,"2628":-0.0017205563611701518,"2629":0.03955783030353755,"2630":0.01923994511254233,"2631":-0.012579221168183087,"2632":0.0013916080921216182,"2633":0.00333881383973664,"2634":0.016866315640964313,"2635":0.013076076777895311,"2636":-0.0063611369892338995,"2637":0.020248739177921898,"2638":-0.016000622879984227,"2639":0.011363163665552987,"2640":-0.011777259760545883,"2641":-0.017450768565102096,"2642":-0.015889402445300543,"2643":-0.005638269902330808,"2644":0.005397148896738803,"2645":-0.015037600094087297,"2646":-0.018379360015163302,"2647":0.008912301155334484,"2648":0.0020684316392852865,"2649":-0.02494242378070275,"2650":0.014921081191615504,"2651":-0.0034004317757561015,"2652":-0.018139276113781456,"2653":0.010326033373075314,"2654":-0.004233477328160341,"2655":0.022487825803266408,"2656":0.01277090832048732,"2657":-0.010843033936181598,"2658":-0.0015557353173394255,"2659":0.003434865845047711,"2660":0.005200142642021727,"2661":0.0239646491191768,"2662":-0.0037352533148795886,"2663":-0.017451984728248614,"2664":0.01505339182192475,"2665":0.0026611675714844213,"2666":0.02021108376280254,"2667":0.0061557705724292295,"2668":-0.011736978691551983,"2669":-0.0070913289589878995,"2670":-0.017170206832216345,"2671":0.012258903747679016,"2672":0.0031653880759863,"2673":0.005217113061173377,"2674":0.008556618330996222,"2675":0.013116528862463126,"2676":-0.01744247359492993,"2677":-0.012937146511176207,"2678":-0.010920744687133705,"2679":0.02070117221585781,"2680":0.02907273635612684,"2681":0.006718545098368624,"2682":-0.002653738325522336,"2683":0.008557941101707833,"2684":0.01868451487650594,"2685":0.01919001373931546,"2686":0.0011266663028153398,"2687":0.013159944313393375,"2688":-0.019966867924309337,"2689":0.00008746307572738275,"2690":-0.015400626676415393,"2691":-0.0024865198059161797,"2692":-0.0059988794755479365,"2693":0.0002883665800371828,"2694":-0.002335147377956922,"2695":-0.0014611932982748937,"2696":0.023886048676519656,"2697":0.021251119975314984,"2698":0.003107717797143429,"2699":0.0001798011304710402,"2700":0.0018818092564339124,"2701":-0.03916625791612849,"2702":0.001538946732836508,"2703":0.011366939001391052,"2704":0.010585507772551139,"2705":0.026071585410874645,"2706":-0.011896529968562232,"2707":-0.007276941697014331,"2708":-0.0050663633840551696,"2709":0.011002049873930301,"2710":0.018331062010709182,"2711":0.004534883531068218,"2712":0.014542875655918155,"2713":-0.002845718139095791,"2714":-0.0019092898937369722,"2715":0.0017841081473239187,"2716":0.011293556374568333,"2717":-0.022041988707463274,"2718":0.0040654680483724,"2719":-0.011029057582659263,"2720":0.00528422756424733,"2721":-0.020750087769010037,"2722":0.019604062960017793,"2723":0.018940430350247724,"2724":-0.011083005631444143,"2725":-0.01443391208035552,"2726":-0.03632006428216658,"2727":-0.020671056874017893,"2728":-0.022131389135553323,"2729":0.04727593196217205,"2730":-0.04461103956249895,"2731":0.01949466143787911,"2732":0.009651802219495808,"2733":-0.029098558779895856,"2734":0.0017563958261449417,"2735":-0.016865833946952673,"2736":0.05469079730061898,"2737":-0.0016456569235428183,"2738":0.0205667034385865,"2739":0.020874503225743687,"2740":-0.006705098303340734,"2741":-0.007597872586874454,"2742":0.01981477753855666,"2743":0.0006825693082166994,"2744":-0.010300998951273071,"2745":-0.01833122844519192,"2746":0.031389422298774346,"2747":0.00013000983345399234,"2748":0.014295415560039982,"2749":0.000010008385887720364,"2750":-0.0063935282263323165,"2751":0.004968581878193734,"2752":0.008133687799942144,"2753":-0.017559858700931043,"2754":0.0009001839601702815,"2755":0.010547828838648389,"2756":0.011127325456301261,"2757":-0.0005660877683383688,"2758":-0.0053536439963694695,"2759":0.012179305098667832,"2760":0.0014076514359759162,"2761":0.0025615482147536626,"2762":0.020637489241003188,"2763":-0.02539392961026892,"2764":0.0007539154626993584,"2765":0.0005428848229987609,"2766":-0.009972433999077768,"2767":-0.005818903200940494,"2768":0.0037444494680247886,"2769":-0.013133925153730781,"2770":-0.01224968409262394,"2771":-0.011738270709087704,"2772":0.002102250908517731,"2773":0.00521317838085563,"2774":-0.005330858605753797,"2775":0.014664732572599102,"2776":-0.004927139627014881,"2777":0.01116901053221883,"2778":0.025198330460892628,"2779":-0.004715188243462403,"2780":-0.02741216621056324,"2781":-0.0021050434206511853,"2782":0.010395482159919369,"2783":0.008224361284407414,"2784":-0.010210360208566702,"2785":-0.029881773483140882,"2786":-0.0028552268827453744,"2787":-0.004632420847968196,"2788":0.021341399662816223,"2789":-0.01105873137414748,"2790":-0.015493607562714992,"2791":0.0013789000506090568,"2792":0.0002240796192163715,"2793":0.008787295334123882,"2794":-0.00037947901464473015,"2795":-0.011441814401543475,"2796":0.03091952423625998,"2797":-0.004747513918689089,"2798":0.011315193218058512,"2799":-0.008608426216358005,"2800":-0.044088009440981415,"2801":-0.008008821161704371,"2802":-0.004480103750326544,"2803":-0.016882667209668727,"2804":0.00978080869065025,"2805":0.017616493090202974,"2806":0.014243394946121207,"2807":-0.0009172475838993021,"2808":0.009337249149674529,"2809":-0.014256112165799133,"2810":-0.017565936933779593,"2811":-0.014051747978640816,"2812":-0.02929951579198279,"2813":-0.0036074606998457866,"2814":0.0008677045986110456,"2815":0.02765678779184887,"2816":0.010045979623301504,"2817":0.010867068438725183,"2818":0.00190295814857086,"2819":-0.018743029262215213,"2820":-0.009979960560602606,"2821":-0.00501858634558447,"2822":0.013194230915972669,"2823":-0.0033455783084699866,"2824":-0.012825340611801756,"2825":-0.01730098954336688,"2826":0.017718877757203363,"2827":-0.013149765488780371,"2828":0.008527725904840518,"2829":0.032056337413348665,"2830":-0.024914104840620985,"2831":0.00020747494668065902,"2832":0.023805576604819557,"2833":-0.006339652697773221,"2834":-0.0035644031576795715,"2835":-0.008395061939288042,"2836":-0.00035614386514795085,"2837":0.029378064732120197,"2838":0.02258371432608338,"2839":0.004091622521670967,"2840":0.009238457841066685,"2841":-0.01661874766330738,"2842":-0.009625648555343346,"2843":-0.010002149046096972,"2844":0.009077644452333463,"2845":-0.005383353304826537,"2846":0.0011818974969821628,"2847":0.005043353461821888,"2848":0.012002196648224175,"2849":0.012308116023707847,"2850":0.02060224132080863,"2851":0.016298687305765322,"2852":0.012289926171503006,"2853":-0.002157318003777264,"2854":-0.0171233881930362,"2855":0.006660447455697935,"2856":0.004915790538994572,"2857":0.007145812697030559,"2858":-0.013050164324144546,"2859":0.004896710678845574,"2860":0.010913650123869854,"2861":0.018998813435114954,"2862":-0.011849391983541022,"2863":-0.00612260106621703,"2864":0.008293351315336206,"2865":-0.006765962021191485,"2866":0.01613167258116303,"2867":0.00506268499372356,"2868":-0.007450734213418231,"2869":-0.009668089989325609,"2870":0.018293634170776108,"2871":-0.0139012499886026,"2872":0.01531927471118594,"2873":0.014597780088505052,"2874":-0.029403334392255193,"2875":0.004480013930946939,"2876":-0.023893596113630858,"2877":-0.02709052129210591,"2878":0.02932222256939464,"2879":-0.015088703296040932,"2880":-0.0018963333888715411,"2881":0.0036907250361884877,"2882":0.017392527124365852,"2883":0.01738365303815869,"2884":0.009383619902067703,"2885":-0.0042637086582616,"2886":0.015116750228904319,"2887":0.009392783974104028,"2888":0.002236504094974079,"2889":0.014358238456391562,"2890":0.00136692056114066,"2891":0.00013907139466576385,"2892":0.014503643450644192,"2893":0.015725432194195876,"2894":-0.009896099831751312,"2895":-0.007659896611355155,"2896":0.013501510115089557,"2897":0.0024689695357211186,"2898":-0.009568153441057254,"2899":-0.012407137360895939,"2900":-0.0014158156878517213,"2901":0.003999803007807085,"2902":-0.002301503647612604,"2903":-0.016512277217591236,"2904":0.03641839485145912,"2905":0.004258209392208774,"2906":0.02515620835511491,"2907":0.016009930449778245,"2908":0.004387705336220427,"2909":-0.005740039970277923,"2910":-0.022836039611362227,"2911":0.01069202320047549,"2912":-0.008551472881887043,"2913":-0.016920945187383053,"2914":-0.008320483664265431,"2915":-0.01427651120703355,"2916":0.003948517934791622,"2917":0.019846994322287696,"2918":0.008384510766323851,"2919":0.009386259804862308,"2920":0.03877549655015116,"2921":-0.01107664941917449,"2922":-0.010768834391484735,"2923":0.0009112273153450729,"2924":0.0007971711728557555,"2925":-0.011184053640500239,"2926":-0.010360934878619714,"2927":-0.02121135545126975,"2928":0.021732663814999602,"2929":0.0148054155677866,"2930":-0.017712884491926126,"2931":0.015598584854561323,"2932":-0.004869003983111568,"2933":-0.021057161412280593,"2934":-0.024898529062065078,"2935":-0.0068441438322432175,"2936":0.0027597709965095202,"2937":0.001807141302918293,"2938":-0.006387770555504951,"2939":0.02793163527542289,"2940":-0.01442132089847661,"2941":-0.011378125021435315,"2942":-0.03018315164415154,"2943":-0.005089359023396097,"2944":-0.005868205500963769,"2945":-0.03417810145726819,"2946":-0.0010865068083825923,"2947":-0.02660085675317335,"2948":-0.009727249232676476,"2949":0.022226842472619454,"2950":0.019110352392508814,"2951":0.021721676175413544,"2952":-0.0141691349361293,"2953":0.014077827904332617,"2954":-0.0137260573815994,"2955":-0.0024446336636078075,"2956":-0.007119924542508979,"2957":-0.0028551645018612716,"2958":-0.039765011851592244,"2959":0.00408045418637189,"2960":-0.017520439198995947,"2961":0.006840118998323044,"2962":0.00376335375270853,"2963":-0.010765974144427336,"2964":-0.007567394751466437,"2965":0.014373549227929138,"2966":-0.008194928585496964,"2967":0.010202950384580078,"2968":-0.010766858014228812,"2969":0.016363085949862157,"2970":0.012397340839865831,"2971":-0.012400289460645567,"2972":0.020643642546121332,"2973":-0.019495205230379575,"2974":-0.007344544659499218,"2975":-0.007470946520590422,"2976":-0.003685699082505166,"2977":-0.016721433996906482,"2978":0.00030116661196804407,"2979":-0.012814306773048787,"2980":0.01019224897182893,"2981":0.004432452892024458,"2982":0.013315377919035531,"2983":0.007235893255956,"2984":-0.014301999856073834,"2985":-0.013618689820588075,"2986":0.009305812505786737,"2987":-0.005342374827133408,"2988":0.0025389093457675186,"2989":-0.00758686258341045,"2990":-0.003243455070839135,"2991":0.0020565659514261065,"2992":-0.03696422358329458,"2993":-0.016031091150556866,"2994":-0.04100321946172761,"2995":-0.03331224861984419,"2996":-0.013070433469157594,"2997":-0.01718161222853649,"2998":-0.013304503891221925,"2999":0.016797012851279852,"3000":0.0379049207640835,"3001":-0.006249830090456954,"3002":0.004347950676280016,"3003":0.0216992955681757,"3004":-0.01892920788198977,"3005":-0.007386936926722172,"3006":-0.0013059492309085044,"3007":-0.00876330510262524,"3008":0.025098027220533694,"3009":-0.019008265469279768,"3010":-0.007589512800474556,"3011":-0.008225709117322826,"3012":0.014223551713910437,"3013":-0.08745008343840473,"3014":0.020677359981832125,"3015":0.002658959907504924,"3016":-0.07984080721630042,"3017":0.007297464745259746,"3018":-0.013247843083396488,"3019":0.026522208569663315,"3020":0.030474940102821046,"3021":0.01090614469843023,"3022":0.0053245175841561115,"3023":0.013137200630423113,"3024":0.01750535016568309,"3025":-0.012618330595436529,"3026":-0.011875273103869367,"3027":-0.010028990434940632,"3028":-0.01210269385497246,"3029":-0.005057289815135843,"3030":0.007102030618133863,"3031":-0.014646670331294584,"3032":-0.0026665548722390776,"3033":0.007455951623280697,"3034":0.021787495073312697,"3035":0.009089247109818276,"3036":0.03508650714941683,"3037":-0.0007665806700113238,"3038":0.01204420649027731,"3039":0.02055896789481254,"3040":0.008926042140760183,"3041":0.007209220308372934,"3042":0.02256623501770585,"3043":-0.032568206259185266,"3044":0.00683157867161883,"3045":-0.0025540692787525032,"3046":0.009957391749783997,"3047":0.0002491582584132629,"3048":-0.0016216634833895694,"3049":0.0020917089768269425,"3050":0.014470610709777756,"3051":-0.004319321979898881,"3052":0.006933267910299695,"3053":0.004534665583468823,"3054":0.016429930727541314,"3055":-0.010356321321520567,"3056":0.007395576799317537,"3057":0.0007765669696199974,"3058":-0.004060569357706266,"3059":0.024628303589904123,"3060":-0.007172550832053341,"3061":-0.00877310170227775,"3062":-0.0037556747405412924,"3063":-0.01564260522724809,"3064":-0.01987470316355616,"3065":-0.023975912467525808,"3066":-0.014523181095660276,"3067":-0.01667118118322473,"3068":0.00980751409298517,"3069":-0.026638718965686616,"3070":0.0033797915443248795,"3071":0.016055087022478914,"3072":0.0005050674077037487,"3073":-0.0027902580555527255,"3074":0.002454758616468808,"3075":-0.008792242009050558,"3076":-0.01984186407664483,"3077":0.008782497238719164,"3078":-0.005066497653842937,"3079":-0.005893204089685949,"3080":0.0010621174316735335,"3081":-0.0017237402010748554,"3082":-0.029860850508983596,"3083":-0.041206391666491086,"3084":0.0017112900548889544,"3085":0.00011470855733045743,"3086":0.022539013502848152,"3087":0.0007296889645913384,"3088":0.018901132762391016,"3089":0.013036839418153182,"3090":0.007481509514689611,"3091":0.011421761527873954,"3092":0.005875894538172486,"3093":-0.013756389913093673,"3094":0.0006259450596379678,"3095":-0.01389316683182574,"3096":-0.006586485300194339,"3097":0.012990247925552907,"3098":0.015034096963104506,"3099":-0.025159375350212666,"3100":-0.02468701128318412,"3101":-0.012222213825743046,"3102":-0.006487325880009288,"3103":-0.00560055926041403,"3104":0.010605631981504248,"3105":-0.0021999713516591074,"3106":-0.010780502594642607,"3107":-0.011807902290368379,"3108":0.007405919352827486,"3109":-0.0026738089157575585,"3110":0.01818251668089608,"3111":0.0074491255937322995,"3112":0.013368203166299851,"3113":-0.0398782154542552,"3114":0.006152371597369916,"3115":-0.02090181896374099,"3116":-0.0031723169684052402,"3117":0.018076360108685553,"3118":0.0042915799178589766,"3119":-0.02646252314660194,"3120":-0.00462510465042646,"3121":-0.004568691993352632,"3122":0.0009102965973478709,"3123":-0.021721077780913648,"3124":-0.009254929888485721,"3125":-0.003967081837639713,"3126":0.007753652516190573,"3127":0.014459866284590532,"3128":-0.011921733350223333,"3129":0.01948655370796885,"3130":-0.02266108605646577,"3131":-0.0012778057210264119,"3132":-0.007431572154723175,"3133":-0.010649389524477358,"3134":0.01400428891701706,"3135":0.006648852382573299,"3136":-0.015570024837724322,"3137":0.0030810867372421135,"3138":-0.00630003090279491,"3139":-0.019802398655604594,"3140":0.02314851797780143,"3141":-0.002253468493558909,"3142":0.002030493151120934,"3143":-0.005338489409906765,"3144":0.005095043778461264,"3145":0.0017265830270350795,"3146":-0.006699066785466814,"3147":-0.01143190818692653,"3148":-0.01682375639801138,"3149":0.010222345599088965,"3150":-0.0206531219495005,"3151":-0.018420434962297578,"3152":0.001937145368726198,"3153":0.0004038012769636128,"3154":-0.011748129111231931,"3155":0.0212717126139672,"3156":0.0369089325397885,"3157":-0.022508347153789295,"3158":0.009532282839832372,"3159":-0.009979454461531851,"3160":-0.018630530649764537,"3161":-0.02255997312785495,"3162":0.03362620600968058,"3163":-0.006478513961183564,"3164":0.011583491463976145,"3165":0.0022297097275683774,"3166":-0.009654309023639077,"3167":-0.026126936722550186,"3168":0.004218830845297166,"3169":-0.02743511154944733,"3170":-0.011706230057280753,"3171":0.012933578910549212,"3172":0.006086311350781789,"3173":0.0044232711214481635,"3174":-0.0013403299718262687,"3175":-0.01102170736678539,"3176":0.00017588524459062634,"3177":0.0022977592608214225,"3178":0.014285797733508455,"3179":0.0006872868389321022,"3180":0.027637519370275004,"3181":0.0032515725277491012,"3182":-0.011043851806411188,"3183":0.007679586675568667,"3184":-0.007352568476889322,"3185":0.011349307483757749,"3186":-0.012157697740417788,"3187":0.0003589257874985559,"3188":-0.00749502435669036,"3189":-0.014176141671077506,"3190":0.0013038399694428598,"3191":0.008570692958168877,"3192":-0.0019621349385517354,"3193":0.003454040476839515,"3194":-0.006149791890752274,"3195":0.003416156701593773,"3196":0.014899029661667946,"3197":0.02850055183719619,"3198":-0.01577018466876256,"3199":0.0067992217746691095,"3200":0.029728438544140073,"3201":0.022589492430841365,"3202":-0.02454898280973892,"3203":-0.004804079551929484,"3204":-0.006676093032353206,"3205":0.007929182353598714,"3206":0.022319374158175153,"3207":0.020489517843619257,"3208":-0.02453031622612048,"3209":0.005751471580846682,"3210":-0.02495921141200578,"3211":-0.02635908446245129,"3212":-0.016648255497617902,"3213":-0.035690340389015564,"3214":-0.0009029002756684031,"3215":-0.0027943051371471066,"3216":-0.007552804628841794,"3217":0.01743989530783799,"3218":0.009619317873763581,"3219":-0.019846255775587317,"3220":-0.015893377188463197,"3221":-0.0052725634614599354,"3222":0.00021677900308776624,"3223":0.007731517785057646,"3224":-0.0009458584656119523,"3225":-0.01319115331840063,"3226":0.02666972813656735,"3227":-0.008113927285868553,"3228":0.022175841492686837,"3229":0.021667193487295035,"3230":-0.007728665115918784,"3231":-0.0016642134694964494,"3232":0.0022574351925650805,"3233":-0.007028892070517979,"3234":-0.002626830605950865,"3235":-0.007436522154491547,"3236":0.009710585700626622,"3237":-0.005198495017947764,"3238":-0.01788882650277809,"3239":-0.019192205025578397,"3240":-0.01250182789892783,"3241":0.029227727252171144,"3242":-0.010463175404595614,"3243":-0.02109080460372494,"3244":-0.0065819753531631605,"3245":-0.0015865454667533595,"3246":-0.0027240801066206717,"3247":-0.024256288087113782,"3248":0.0010431967402664776,"3249":-0.01602952028834985,"3250":0.009603088316521884,"3251":-0.011797610003126827,"3252":-0.0008365948551215582,"3253":0.006690260000584396,"3254":0.036906915335764894,"3255":-0.03806567772523269,"3256":-0.003260813783831665,"3257":0.013208912895654894,"3258":-0.0018854393285936235,"3259":-0.016858929047253744,"3260":-0.027253271444451048,"3261":0.00427324807394868,"3262":-0.007501114766811099,"3263":0.015706066941362836,"3264":-0.00983334821155681,"3265":0.010738395914247295,"3266":0.015079099675448704,"3267":0.0022877464217920464,"3268":0.016911360971782172,"3269":0.02470471592434995,"3270":0.013371581507899327,"3271":-0.004123952183864012,"3272":0.018222108365348374,"3273":0.014869762759772172,"3274":0.0007684347578811387,"3275":0.014659321430018982,"3276":-0.014042996280249272,"3277":0.00745507113932256,"3278":-0.026931429755243482,"3279":0.01144127762259648,"3280":0.0005047804095709891,"3281":0.03469342279646334,"3282":0.025561850158541902,"3283":-0.0004697542105105306,"3284":-0.008936516592459318,"3285":-0.004893340088046528,"3286":-0.005501355170685467,"3287":-0.020401515765929044,"3288":0.01811856850948964,"3289":-0.004853048426894907,"3290":0.01780180171867573,"3291":0.002800580729993784,"3292":0.0010165334160938118,"3293":-0.0046752198244051305,"3294":-0.03318324659287567,"3295":0.0005265744592169881,"3296":0.049382762565704626,"3297":0.02672114236674639,"3298":0.012671901496413205,"3299":0.012683091411727883,"3300":-0.035093697888151316,"3301":0.022935761150810675,"3302":0.020265856134975134,"3303":-0.004922853196614737,"3304":0.0002797786730753835,"3305":-0.01038354783867751,"3306":0.018915152013127934,"3307":-0.021885021699007256,"3308":0.0024996513490140675,"3309":-0.02100822066431838,"3310":-0.020123634262511046,"3311":-0.0072505685874935475,"3312":-0.009617301292685438,"3313":0.006289546508768094,"3314":0.020904310304421518,"3315":-0.004762855169253059,"3316":0.006189231128020475,"3317":0.021833165426192427,"3318":-0.0200469927907711,"3319":-0.006042976763851068,"3320":-0.010778128278858165,"3321":-0.01851309731901845,"3322":-0.022303617319875086,"3323":0.011552688384396024,"3324":0.00579419919716859,"3325":0.020520653702918078,"3326":-0.016903566820513107,"3327":0.03828759718462925,"3328":-0.010868932373123886,"3329":-0.0002489214892974408,"3330":-0.03127861681075977,"3331":0.003350362586737605,"3332":-0.02879295455433707,"3333":0.009053726822084324,"3334":0.006409869886583864,"3335":0.042917408546965616,"3336":-0.0015385771314292715,"3337":-0.011162606121398229,"3338":0.004150540865168324,"3339":-0.011806858815777392,"3340":0.002116334974940549,"3341":0.011940430786448334,"3342":-0.028728974227645407,"3343":0.007538132388318604,"3344":0.031616928666188406,"3345":0.02282298726978879,"3346":0.01784491886576386,"3347":-0.0055490788942925565,"3348":0.01604181431088384,"3349":-0.0006176754770167685,"3350":0.019757947400267355,"3351":0.016193394897204783,"3352":-0.001145149722564215,"3353":-0.02528156848360796,"3354":0.0109620012140576,"3355":0.03751793239375647,"3356":0.0018344606060003608,"3357":0.004288358259782819,"3358":-0.004896753821912956,"3359":-0.007965555492040482,"3360":-0.0070203206460356365,"3361":-0.01423643893858961,"3362":-0.019325781205910008,"3363":0.014920877507424858,"3364":0.00013897173793335572,"3365":0.0009830775241886538,"3366":-0.0020227211721534884,"3367":0.003890394778032879,"3368":0.018750184771302175,"3369":-0.001153819158312949,"3370":-0.017293435215633028,"3371":0.007843893622674349,"3372":0.020657106356803883,"3373":0.02502443084849105,"3374":-0.006855617325964562,"3375":0.015398343297461809,"3376":0.03602983419445033,"3377":0.017448240333925686,"3378":0.008798685096409766,"3379":-0.022535979055995737,"3380":0.0004650400279037933,"3381":-0.020120781286703214,"3382":0.0008089011662535493,"3383":0.01293181712593776,"3384":-0.006147312422907299,"3385":-0.006555094697580163,"3386":0.012135259087204132,"3387":-0.0014678336720347692,"3388":0.027990639086826394,"3389":0.0073301675082763,"3390":0.022870516664305045,"3391":-0.019637852415528827,"3392":0.008596918180769231,"3393":0.008681789655884693,"3394":0.022839738325207352,"3395":0.014877200593703527,"3396":0.018960796376646844,"3397":0.01884595707182889,"3398":-0.02165970013524511,"3399":0.008512914672673485,"3400":-0.0007970607801757305,"3401":0.004019268512798916,"3402":-0.015367892058373916,"3403":0.026084170829357645,"3404":0.006252280550245229,"3405":0.012373800808292803,"3406":-0.008377242844164851,"3407":-0.02425017843422581,"3408":0.0023298108991832013,"3409":-0.0002495522722613787,"3410":-0.018380347554696305,"3411":-0.0022872969507301,"3412":0.011482738964415679,"3413":0.011803983108623569,"3414":-0.0010752873379202307,"3415":-0.011544453332832319,"3416":0.011548627129211479,"3417":0.0022771446802478785,"3418":-0.023682824693743467,"3419":0.00959975388270196,"3420":-0.013569801585076195,"3421":-0.013883641064856211,"3422":0.012733711481094652,"3423":0.0024777580093397226,"3424":-0.001740396040260265,"3425":0.02026824287804479,"3426":-0.024665269305421567,"3427":0.011589783005601192,"3428":0.027112387801419235,"3429":-0.010038788270257318,"3430":-0.020247190744637943,"3431":0.0077000887123916395,"3432":0.02383567236999253,"3433":0.020914701793602112,"3434":0.019129485926449474,"3435":-0.007697311771936208,"3436":-0.02093871398801377,"3437":-0.023117235124632526,"3438":0.0019428169143292395,"3439":0.009213314821358608,"3440":0.016005189198418774,"3441":-0.01695190338034071,"3442":0.012217932359684405,"3443":0.00921425657638582,"3444":-0.005019656419917082,"3445":0.012253449407644135,"3446":0.006164037639169886,"3447":-0.02025125964049949,"3448":0.024532774308130906,"3449":0.006396159071760218,"3450":0.006867236464059818,"3451":0.008903568564872592,"3452":0.007654726443946468,"3453":0.009024841664351146,"3454":-0.020211947016673257,"3455":0.006821423616855671,"3456":0.00995530057135255,"3457":-0.0029747463937632454,"3458":0.004813579714716326,"3459":-0.004278520953890366,"3460":-0.005212573431048601,"3461":-0.019185911539085658,"3462":-0.03652593687017934,"3463":-0.01704103860615232,"3464":0.004125223441056944,"3465":0.009794659795727093,"3466":-0.017182104918153907,"3467":0.016181264177488743,"3468":0.016024387211325306,"3469":0.018314509272435518,"3470":0.028159984544279978,"3471":-0.003847373221028321,"3472":0.0026548015562533546,"3473":0.0021345826457631425,"3474":-0.005857584224867582,"3475":-0.004519113138365102,"3476":-0.000004076987051073702,"3477":-0.011483896555813907,"3478":0.005253573178267155,"3479":0.007171538626676493,"3480":0.0005607935897972634,"3481":-0.023246836466464995,"3482":0.018038496962237256,"3483":0.004826034151592275,"3484":-0.01931511648670425,